6.900643378367263E-4,5.048707966286266E-4,-0.755220894081188,0.23461744968163745,3.0505129301307797E-4,-6.698492458986284E-4,0.4114202736875656,-1.0076629307820143E-4,0.6070578614934088,0.6602523213710969,0.45794685375112654,0.5783479155721555,0.13803505702602273,0.3726471808408101,-0.9758369990724198,-0.3387333092549342,-0.3436329049745781,0.029173325285242507,-0.9758369990724198,0.3160809836709823,-0.2341419201572459,-2.320206142015104,-4.2268684239053485E-4,6.698492458985518E-4,0.33500316522102447,-0.35013489159728683,0.6348169371605643,0.2461880534782176,0.47089862587735537,0.47089862587735537,1.0736101906425861,0.33920718310285086,0.019087393521202364,1.1384993506026733,0.3450857780267432,-0.10918386434018931,-0.11942222540934874,0.21475602670190042,-0.07897462650658696,0.22300925442112698,-0.05411087653303798,-0.012802663549393663,-0.012802663549393663,-1.2664858376889436,0.6576230206006474,0.4363368304985778,-0.11206254898656665,-0.11206254898656665,0.21271689131835259,1.0265748671384156,-0.5877479871771036,1.4576962981722925,1.4433455835793246E-4,1.4433455835793246E-4,-0.042575376475520496,-0.7266358312262813,-0.25742770863360137,-0.25742770863360137,0.7043962762076209,0.12571536378422335,-0.25742770863360137,-0.029966567574614657,-0.14148679412925874,0.40790927216621176,0.40736356127901896,0.5025690174208103,0.40736356127901896,0.4267710710298291,-1.1664894395890932,0.6499240790324383,-0.03414662934966442,-0.03414662934966442,-0.039870314763759074,0.7103346896730053,0.10349467259736181,-0.2825789930870728,-1.5774416261779776,0.07784713939576388,0.07784713939576388,1.8681580535862283,-2.2297287663520557,-1.0423772870126848,0.276281778845383,0.35793108324122463,-0.13413338187834992,-3.3696640277661475E-4,0.6379894560841188,5.595137801165783E-4,-2.752410013882665E-4,0.17726996652595717,0.18192424482783526,0.6379894560841188,0.6379894560841188,2.364806882521854,0.6544942313024992,0.6379894560841188,0.04162492999633479,0.6379894560841188,5.655961217787141E-5,5.655961217787141E-5,-1.231664188091764,6.069811979755653E-4,-0.30688891764851955,-1.013220099367535,0.22146785117807644,1.0295538839651812,0.6922916175165036,0.6922916175165036,-0.3168868634412724,-0.022360892046464017,0.5626576704120038,4.547344814215442,1.4957472231824587,0.07304507729485149,0.27623129620722436,5.458218924123323E-4,0.47644667786250267,-0.41878405913145084,-0.41878405913145084,-0.0010961656186226154,2.524292898721046E-4,1.4903717098073475E-4,0.03535950986479202,0.47644667786250267,0.27900102715718655,2.734732790801962,-0.5615526280706795,0.47644667786250267,0.4647341445293196,1.0569082882160092,-0.3702744368831221,-9.623343910156656E-5,-7.287781044398192E-4,-0.1746067599281607,0.006751877636287436,-1.1976998793901301,0.7145648190458498,-0.04241542091727137,-2.048250058995602,0.5729597733278866,0.12133773705315508,0.8348640376297513,-0.0704693011306432,-0.5783054768929528,-0.5783054768929528,-0.5717293314006541,0.23158657484629136,0.21626074536558265,0.19064697977385975,-3.143999796316342E-4,-3.143999796316342E-4,-1.8216724377411573,-0.049515844388478336,-7.984863375105477E-4,-0.20282249105829075,-0.06770479566126521,-0.06770479566126521,-0.02207067851051992,-0.4035532488560938,-0.06630729345847342,-0.06149889596708566,-0.16693123434955956,-0.16693123434955956,0.28477759843593337,0.17815346945502447,-0.16693123434955956,-0.38203872201120537,0.042443515603447605,5.383824487973823E-4,-1.1223582700677732E-5,0.33889501493803986,-0.20408105753263056,-4.49368272277954E-4,0.18165538467028033,-2.475216110801396E-4,-9.571673675876189E-5,-0.1683712680951932,-0.5012767351114822,-0.5012767351114822,-0.5012767351114822,0.6995585546198994,0.39991911611501163,-0.5012767351114822,-0.5924794624059273,-0.47604661337729903,0.4561935956404097,2.3155473460954363,-1.3579601155670054,0.342814117462835,0.6026038973204417,0.010118573020304084,-2.593886734897705,0.15832598539305612,-0.16640469489877918,-0.09015634962935393,-9.858464914430133E-5,-0.48400749744001803,0.8076561951566664,0.3534540131289769,7.889830226558536E-4,0.2334592997553852,-0.27184672964405304,-0.005563857831561901,0.3066967482585014,0.6363566982456913,-5.660543311582596E-6,0.2204234138456933,2.576879724115426,0.526049853130888,4.2907205403191435,0.8169746297128574,0.10635168743223142,-0.012206117487322579,-2.677712046884397E-4,-0.6566745113505832,0.16875414797092364,0.07520632707637599,-0.06317804630853412,0.34715997508921226,0.3835597752670767,-6.610506675999166E-4,-5.3092665672644854E-5,3.729002503766775E-4,-0.19402950855985301,0.33262050880087585,5.273336651622272E-4,7.278677974253106E-4,-8.67204267002239E-4,-1.7885045744334463E-5,-2.1629178403024087E-4,-0.5300706481325737,-0.6931317683886861,-0.08392594412266588,0.5099920755222649,-0.10843609147680912,0.6008169632536831,-0.10363669181341352,-0.03780858008852921,0.03247948521727587,0.7472669524608833,1.2991390746573312,0.951163740220149,0.05314679940448937,-0.05629745459538332,-0.0943421295251045,-0.9868266407331677,-0.23721470488784818,0.7378692166385885,-0.036327334599107294,-5.9746927772005116E-5,0.07348828620655055,-0.03561374636626606,-8.631675651676986E-4,6.832397823786313E-4,-0.8928233830653756,-0.4680161517434594,-7.826570428928637E-4,-0.0413670502511497,6.756143832653857E-4,-1.28455621266313E-4,-3.248777572097811E-5,0.8913512916998688,0.2271632820944687,0.30840246720451053,0.42432024604834795,0.35350472522242393,0.6052990176258992,0.09547731467885656,0.2844188330289081,-0.026064824417025515,0.13741880016685748,0.9042028588747377,1.4471034020284275,0.33969719059680376,0.41478388557744106,-2.472009856545835E-4,0.28707736654799254,0.43463335574862483,-0.2712381138495937,9.76681608178402E-4,5.938327087754133E-4,5.630333413107174E-4,-0.17288570870489584,-0.5293957416342348,-3.837396105750945E-4,-0.23051497944925947,2.711678330080305E-4,-0.17754295506531093,-0.23301749655755077,-0.2067713554982159,0.43767422093471703,-0.3727635250083272,0.10579771886104866,-0.155867126852503,-0.38783622923488686,-0.024934997621744632,-0.2808998385957423,-0.1343567249609035,0.5382342025318828,-0.17895891156623175,-0.07961187842098809,-8.52670350774058E-5,-1.4568483915765977,0.5103166019539993,-0.13235102919089803,2.0932053937929517E-4,4.8428536235727243E-4,-1.7739314297423496E-4,0.04805067844209995,0.45708188902166463,-0.36083070241538345,0.03600453353702573,0.15897829747757009,-0.2549473077976019,0.13301830146904617,1.1961106522674503,-0.18107685316963187,-0.016882360260635547,0.07714491137930048,-0.05228833692549569,0.35606584264898794,1.0426100086225623,-0.025786181985453457,4.289946557218796E-4,9.142975074445341E-4,-0.8832860181186355,2.1074583008872194,-0.11857436091424127,-4.977936204047822E-4,-0.019955397809654316,-5.184945110118495E-4,-0.4115738226329428,0.005549628269938955,0.08873765529593197,0.323587801865464,-0.8780975942317775,0.012101754552704331,0.1481178339409362,0.08913305328878697,0.07128983636429762,-0.07435365216912941,0.041095752321782295,-7.647669575648786E-4,0.3162741412167084,-0.9154622854798895,-0.2692520851985345,0.720843876155729,-2.671154003646922E-4,-2.671154003646922E-4,0.4592168293209485,0.43414677824430575,6.063240850432707E-4,0.33689441733785497,-6.29294569827597E-4,6.482139324490626E-4,0.679074172620378,-0.8004985915927882,-2.545975286905842E-4,9.386993947779084E-4,0.679074172620378,0.09777126273968795,0.09777126273968795,-0.07732975607317141,0.5338213870214873,0.09777126273968795,0.679074172620378,0.679074172620378,-4.491833270517481E-4,-5.805154814720235E-4,-2.126976026252821,-0.11907633245955905,4.367986043695702E-4,-0.31199894057742217,-0.1626835920119131,-1.266596453568052,0.1900425438601488,-0.7057404858552345,0.9470794947194118,1.1970469474458596,3.3426556286012194E-4,0.02379489166437701,-2.214636577932466E-4,-0.12833195764063773,0.07727464324496307,-0.08589061952990085,2.039647118335795,-3.209831675648905E-4,-0.10138093768390095,0.003357599326039221,5.304415914378203E-4,-5.185436635796154E-4,1.0656635637452743E-4,-0.08092610037704424,0.7401271273300054,-1.0370791723159125,2.508413209031045,-0.15759228905083106,0.6805244328795507,-1.156002133269421,0.08299852543086994,2.285464164951227,0.1587626934064904,5.093149999829853E-4,3.738052147561335E-4,1.8959459441769255,0.45618626533439893,-0.3629895035946264,0.5142986079984835,0.6245991491238964,0.28592214598786503,0.9552576415049673,0.36933143753586456,-2.2447654055873754,-0.007756692721536992,0.15752173131129146,0.025146348634801592,0.11124873342957478,-0.3090223396488921,-3.02161485594372,2.2726963298862746,-0.35122178763352985,0.8411062320919988,0.4636705401563571,-0.18827912907133415,0.004362503858432475,0.0039526440805807625,-1.587635137006427,0.23507298189756065,0.008345598376650987,-0.3781555606642239,0.1042829373366457,-0.30510556582665366,6.76768469773264E-4,-4.051075690306591E-4,0.6715229380860074,-8.325142068792285E-4,-0.13342807421847996,7.99898255272544E-4,-2.3063474501963896,-0.6111181263055946,-0.041808999958145264,0.09092729389016335,0.3942452632805842,0.2409624972814912,0.11910917792976577,0.03238488327645163,0.17716635707443756,0.043145626818646955,0.12789892917974355,-0.15279218656159652,-0.30750880866157587,-1.6323675968616913,9.392708081499289E-4,-0.05280172512552149,-1.9591798612019866,0.5637072663552495,0.4072006495850101,5.531671354073735E-4,-1.122279529958521,-2.50768292782783,-0.2749445109394411,-0.7868856670030124,1.0996634378388443,-6.075755216544826E-4,-6.075755216544826E-4,0.8922788258957555,0.4523212735128045,0.3266818725346641,0.647213193910167,0.3636422644144575,0.0051737465531161205,-0.03849403473301302,-0.019011692005799895,0.537980191885816,-0.036698610735583184,-0.18194396721887823,-0.18194396721887823,0.5563970501266795,0.22782792903316357,0.04893072635355698,0.3962428991263838,-0.5170117898508448,-0.5170117898508448,-0.1514335048047864,-0.044998493857278825,2.2261893198309286E-4,-0.1985205143064224,-0.07761310514790289,-0.07761310514790289,7.8836683005532E-4,6.610794606538355E-4,-8.112585672164357E-4,0.19794118755081913,-0.4187638941363855,0.21970113004238634,0.4759906801212719,-0.4621139175675321,-0.3353420346731388,-0.0046330228583444846,-0.4765865788120686,0.5460935492874588,0.5460935492874588,-0.12367612101853048,-0.11475596409247635,-0.13818853858694008,-0.03815961306147795,-0.5418077796051384,0.41062422985560976,1.1997925344905007,0.12619864637277373,4.969405953714138E-4,-1.1843184595486058,-0.8794800585791888,0.3164371492058826,-8.497470240344095E-4,-0.062497268048843715,0.10492350665589739,0.10492350665589739,-0.1756364454675016,-0.05290477734356405,-0.31260031759929513,0.1805145464949466,0.5822996456455528,1.4332592629868708,0.15360103631943736,0.07412449313290799,1.1558869432838803,1.1558869432838803,0.7997131650388357,3.0448118537203164E-4,1.1394507927861104,1.1394507927861104,0.8198357074388709,0.07922995875782138,0.4644295058053197,0.11966894557961921,0.6258496134943151,0.28205152537356143,-0.204561335524378,-0.6394835801567977,0.19850198499251973,-0.01948768628422751,0.1331012348419588,-0.23696883379877431,2.0974681645861066,-0.011952970399316427,-8.818870363932849E-4,-7.405233597677153E-4,0.6773433859755108,7.50037709377505E-4,6.906687481292911E-4,-1.3692597897044427,-2.075605645769041,0.6773433859755108,0.6773433859755108,-1.729217530405434,-3.3098926182143598,0.6773433859755108,0.21517182466466955,0.660303378645216,1.0327505522391431E-4,4.3926498882121E-4,1.438079555984177,0.26514277433263855,-1.4798808496704134,-0.9349015282453533,0.16680380189905025,-0.34304376720771895,-0.34304376720771895,-0.14171658036606483,0.33210820942351915,-0.6832603229394243,-0.8502939439389599,0.15637953101254615,6.514571136627856E-4,6.514571136627856E-4,0.9137905154292133,0.219292703971785,0.219292703971785,2.9297355513119814,-0.12677800216529717,0.036065386388774566,-0.7829289691964798,0.9137905154292133,2.8625784492659716,0.29938896809479887,-1.8963404964686421,0.9137905154292133,0.20196397529768467,0.7559030445853555,0.03142818263877961,9.537738396183093E-4,5.621314144083579E-4,-0.03322708312620906,-3.4778045706030476E-4,-2.3781848636536128E-4,8.566701793162548E-4,-0.03322708312620906,-0.03322708312620906,-0.03322708312620906,-7.045871924359824E-4,-0.003069248155988677,-0.03322708312620906,-0.03322708312620906,-0.03322708312620906,-8.80235357413607E-4,-8.255328753708773E-4,-3.3832448994539317,0.0015908639155457827,3.601662564303225E-4,-0.6587507698044012,-0.0928907841107695,-0.27359067857150865,0.042774401165650164,-0.040172783170283034,-1.0091041852277218,-3.4079155967795417E-4,-0.056762818085574485,0.43170765954194423,-0.6694668023539002,-1.2294498209331753E-4,0.40628435214218755,-0.04970750934296251,0.17947833703747001,-1.2294498209331753E-4,-0.5421591668203506,-0.10986514348427018,2.3053543973685048E-4,6.168119108579948E-4,8.858240032207019E-4,-0.8980451561856799,-1.0217427621630732,-3.006194382263061,-0.08990208117222166,0.253192670857318,-0.05593125712119587,5.251384368459434E-4,-2.1458782537545464,-9.734559460634222E-4,-2.582411584888026E-4,-2.582411584888026E-4,8.456243714022272E-5,6.259326743481561E-4,-1.9552550092240277,0.4929552914802917,-2.005656692678657,-0.08453555339028371,-0.47448754933579096,6.19938406180496E-4,1.3090294227894907,-0.21250266514862978,-0.5415179896420813,-3.472488182998687E-4,2.0718791655675666E-5,5.763814710147547E-5,-1.3551211897332095E-4,-5.967495947604054E-4,-0.7100823499112412,-0.7100823499112412,3.449035677235726,1.2199373924271757,1.127378214916278,2.544845463432848,1.122016716836985,0.13523281486360697,-0.394125030988535,1.870327072374332,1.038016039891218,-1.6017989950892133,8.001141585672735E-4,1.2810232891523934,-0.03363246368255796,1.5379563661318967,0.08161125055908415,-7.573209319346217E-4,1.8358223893253007E-5,-0.05419403594281945,0.2205511497787359,0.2205511497787359,0.6568539678976697,0.29003184747837457,0.5160685027339362,0.3112094953560765,0.020053484482022425,0.020053484482022425,0.20748544310608805,-0.30449804242107364,0.49132496907832013,0.1269384329084618,0.1269384329084618,1.8413735689163016,0.11827188930521278,-0.047164675774843706,0.8341007836384515,0.22469817871178002,0.22469817871178002,-1.2426785689171622,-0.14929563878567245,-1.2481658738287575,-0.3784511425171178,-0.49669253558081383,-1.3555944041438069E-5,-4.736954431855245E-4,-0.153706098794119,-0.153706098794119,-0.153706098794119,0.09890890359477891,0.6847981243824461,-0.153706098794119,-0.8477806861879368,-0.364614308613028,-0.9225858102571606,-0.9225858102571606,-0.1976919943965767,0.30530106391192935,0.16594089283131314,0.025679097134474457,-8.487176134763389E-4,-0.5388308326800342,-7.397754132043143E-4,-0.49087048817271994,5.049136097854861E-4,0.21427259058552192,-0.13662062577697362,-0.3055297676360489,-0.3055297676360489,0.20112254067271185,0.31130635475229146,-0.1299136954293441,1.5280566419839163,0.56132836646496,-1.6067503232481615,2.911074789190614,2.911074789190614,0.7737337760002271,9.075920060950971E-4,-1.1550377752817096,-0.21346971350579616,-1.3870087663580617,0.44689584054345527,0.9375313008533135,0.6200277617697835,0.3037147733083152,0.2523005368405285,-0.3350134326305233,-0.016014167781061274,2.9573364487790017E-4,-0.3670752481894103,-5.803814831227724E-4,0.429266027928069,0.21893283621709506,-0.19735908154638054,-0.33947870696033733,4.1490725527739076E-4,0.33124871244649934,-0.3498445031878983,-0.09887707594711119,-0.8061934496027157,-0.6697343497949485,0.5926580369974712,-8.458387950976433E-4,1.075931277498025E-4,0.13346773904994275,0.9022495933561251,0.6634754895766813,-0.7478972040140207,0.7064126779746851,-0.20502617097811948,0.04247811074393293,3.08728201397275E-4,-0.1990747230409935,-0.7767812188038288,-8.801239432288988E-4,8.797746868361365E-4,-0.16966379316608257,1.7437867565635486E-4,8.235443652011391E-4,0.04322143850604543,0.11774157911145293,-0.1045982452558212,0.02288097379755822,0.6047998785527068,2.0086029954416666,-0.008669400975307804,-3.985173388465422E-4,-0.06202923124334815,6.691298608714935E-4,2.3673670041472273E-4,0.41073649342440843,-6.853337931808054E-4,-0.2986167842334992,-0.23993384794735675,0.34947901399579256,0.25525376473873496,-1.2068188387745937,2.5246858081929284,0.6347327676658262,-0.035080301705340836,-8.922762015563255E-4,0.48294753238088517,0.49899405633364946,3.343666301238071E-4,-0.09994886898894088,0.005598264771995359,0.2906662009738477,0.2906662009738477,4.259283052536955E-4,-0.8034540295564959,-0.027744239306887086,-0.5064131164153375,-0.09133689110836829,-0.012484299519679984,-1.6078220669328416,1.0019625032067978,1.4485153413863583,0.2834661094850666,-0.4896037732038601,-0.005927215760099319,0.2509328798784618,0.15804181413151736,7.754551742129422E-7,1.0930900374979111,-0.891608475106959,0.1981245512885169,-6.377905004675233E-4,-0.45409963097252837,-0.27444624693655506,-0.7106014321663335,-0.30348195159483,0.7665625870063819,0.04846471660793198,0.10454103031773163,0.3072719129844404,-0.11655393316012885,7.969514088965301E-4,0.8493882503107961,0.8493882503107961,-1.6803669037721665E-4,-0.8341293793784724,-0.44761078496790707,-0.10004355682859832,0.5253828406080887,0.9614251272156648,0.17128682115229496,-0.42235517530629363,-2.2219584453026964,-1.3446768231845296,0.18612761077813722,-0.177636593514452,-0.1520259427532054,-5.682913378921827E-4,-1.6277540554201207E-4,5.352442069099473E-4,-9.92147944775978E-4,0.6374816785593781,0.4880272112859197,0.17926540274069702,0.5354103497474512,0.2528814027120287,8.72779424062488E-4,3.144079584068958E-4,0.5354103497474512,-0.015159173649792437,-0.015159173649792437,-0.29044446184445544,-2.554359402178783,-0.015159173649792437,0.5354103497474512,0.5354103497474512,-0.35377688912899263,-0.35377688912899263,-0.726596249668236,-1.611693888255146,-0.6035116738899882,-7.299035091304232E-5,0.0011232421738976794,-2.360009992342509,1.2980360088355478,-0.1487237102964418,-0.006369229148420824,-3.6525515197231807E-4,-0.052953553098384315,-0.3405750462303827,0.987505586663252,-6.801075270818631E-4,-0.22229786773656615,-1.8482294711404268,0.3277479251457794,-0.5571178781932027,-0.04005054715088713,0.577300445798421,0.05835799553424218,-0.019259495593016658,1.0905537269088006,-0.3341358938591038,-0.49750178546232654,4.161863655470689E-4,0.004287994116458079,0.3168030339387081,7.869070501736497E-4,2.226491494809607E-4,-2.8302413303544496E-4,1.7692209923480997E-4,-0.12284906104220333,0.13883771581513019,-6.275866464177918E-4,0.04066341828750161,2.555837040689766,-0.34673497513774315,5.828465833277855,2.489997195974889,0.10182890381663977,4.3221964857088836E-4,1.576617178347848E-4,-0.008854818372775668,-6.585184960573578E-4,0.365581421737401,-0.012389230467029421,-0.3457572848502308,-0.18398984967701756,1.09271882957392,1.09271882957392,2.490629130082346,1.993444687305095,1.09271882957392,0.8139410294838748,3.573897278264717E-4,7.686592667052023E-4,-0.20327851999021834,0.8085732454476244,0.48850001998361847,0.9712487300426479,-6.788299030798829E-4,-2.1187173660338037E-4,-5.78705904394965E-4,-5.78705904394965E-4,5.478743265543188E-4,6.592021319686179E-4,7.994932565609496E-4,-2.1846740882674825E-4,0.9457635027828382,4.717143354223171E-4,-5.452733296947873E-4,-6.92151288224124E-4,0.27355925146157367,8.343651175594879E-4,-7.447440811332595E-4,3.2903821627495945E-4,-5.074118668568646E-4,-0.23717460347488487,1.7008368524000332E-4,-0.25019939456073226,-0.06486473118990527,-5.651559843093846E-4,-7.51185291982526E-4,1.9564391225366943E-4,-2.3022607926987337E-4,-1.196760345971193,-0.40778787574122477,-4.981779349844326E-4,7.710208024176072E-4,6.519565975013825E-4,1.3259347107714493E-4,6.420573071435419E-4,-5.290730622492495E-4,-6.059383727525468E-4,-0.20324760269493258,-0.18574406774886257,-0.18178974604128512,-0.03875279575522037,-0.1465965877768722,0.46398202216758083,0.5644074203601608,-0.12658848389004976,0.03741205433857317,0.0858140677959489,-0.024083097012841677,-0.13642124990478063,-0.21726844234208637,-0.2181841250784879,-0.08968991942173823,-0.05279863756516098,1.7566882745178756,0.7280256148551322,0.2026074045090028,0.741560975932685,-4.2857505732469886E-5,-3.772268987900385E-4,0.7729339664104069,8.714955870452199E-4,8.714955870452199E-4,2.1059312420131028E-5,-5.762724439167758E-4,8.329847231420184E-5,-1.17996480500923E-4,7.805766416013474E-5,7.805766416013474E-5,-2.727858748598644,0.1949594606471921,0.22448481585724647,0.2746595256629294,3.3122950599228274E-4,-3.887507528138362E-4,-7.265606413258246E-4,7.625451663794561E-4,5.167513068251516,-0.6723426516816502,-6.391062668766108E-4,-7.860490458338754E-4,3.44561871141411,0.32536344283752683,2.4258436216160533,7.537052675645481E-5,0.9555590058326582,-3.060892748455436E-4,-0.09938595410786916,7.188468599808721E-4,-7.039502056858243E-4,1.5645749647811864,0.48240510870174247,0.2997343222646901,-0.5406567298939418,-6.96451601142783E-4,7.162033309167312E-4,0.4193685517350468,-2.783277600931267,0.19368511109049172,-0.6536876731491555,-0.4488512860176377,6.570106253764882E-4,-3.2685338615299976E-4,2.980423112531209E-4,-2.6426039907958285E-4,0.024486581418346788,1.0649330694085575,0.3985804908068213,-0.6417973808666217,-0.20737381618021583,-4.739008007395801E-4,9.390112335446904E-4,-3.089038314396974,-0.4873377349558182,2.234379012576254,-2.5569294296154106E-4,1.1566794404379332,0.3410097143198931,-0.31796039517499614,0.2135171848721822,-0.12198673884219396,-0.12184988304743474,-5.580079553086741E-4,1.1023414344412102E-4,-0.11257904938221461,-0.11039561323320374,-1.3668136130342852E-4,-1.5231121697882122E-4,0.4424606814384834,0.4709685369215676,0.3418238121369215,-0.3981325173927327,-0.4911300272814104,-10.582353534364778,-0.25314339495964333,-0.5454923135379017,2.2167159011053693E-4,-1.892878605684222,-0.823511900821137,0.7893591618190148,0.33065053944119704,-0.08526374028133005,-0.252981316740789,2.705556295189783,-0.38892100720932377,0.376150876362952,-0.8565742593605762,0.2931924062607807,-0.7145158274002036,-5.30020383477721E-4,-0.5007618591562647,-0.21440242753042088,0.48239492175112014,-0.35228083422138684,-6.824849928018713E-4,0.04132929408574629,0.30144916601458954,-1.7379684835811112E-4,-0.9601690320456223,-1.2079037975572097E-4,-0.03751236140141811,-0.31051006297578426,-0.5318894991604945,-0.07382534272845785,-0.06340341631636279,0.31399234567725837,-0.22080512079810094,-0.01632858493178079,-0.31279056819789647,-4.693818869561039E-4,0.3583655714388873,1.130465379279807E-4,9.347413309226536E-5,0.5130733534130082,-0.9377834200756594,0.3583655714388873,0.3583655714388873,-1.945649947741153,-0.22484202925731248,0.3583655714388873,1.5186850283228224,0.3584776231484719,8.689412211856857E-4,8.689412211856857E-4,-0.8288619262800148,-8.082943666685624E-4,-0.5152300943304106,-0.8665464918098417,-0.5216507083249157,-0.7740239574952611,-0.7740239574952611,-2.0812580067003437E-4,0.18460351059062352,0.022697535120295736,0.06229166805643296,0.08079571120072952,-3.183258848551252E-4,0.24884286872904834,-0.0016403387396948493,-0.0016403387396948493,3.322717625596171E-4,7.091456327345177E-4,3.1489588988372003E-4,-0.19832450714327718,0.24884286872904834,0.2492360705496848,-9.381619162967879E-4,-0.9143894899981189,0.24884286872904834,-0.6437558297468683,0.2486722437799514,-3.9035553575027455E-4,4.6976740027494975E-4,2.7178432646035057E-4,-7.435188934477371E-4,-8.9239376105182E-4,9.79504766590151E-4,6.91583645000493E-4,-7.435188934477371E-4,-7.435188934477371E-4,-7.435188934477371E-4,-3.407733052677352E-4,5.634076375924512E-4,-7.435188934477371E-4,-7.435188934477371E-4,-7.435188934477371E-4,-1.4446308232961802,-1.4319524296250656,0.31241548243341916,0.07697229092742476,9.187954770902254E-4,2.4680622283270677,0.25748260965044906,-0.651032460898341,0.599171019485644,4.2821653235078393E-4,6.327371100557079E-4,8.614750291968328E-4,-0.04367710139998917,-0.902786913391016,3.41066818955142E-4,1.0264688443646046,9.244407138434059E-4,3.41066818955142E-4,3.41066818955142E-4,3.4994340109435144E-4,0.34549861915603075,2.6829872679412546E-4,4.362276851068946E-4,0.23699958144763844,-0.09847953305704564,-0.6243502800965842,-0.06165451761890599,-3.757420025997947E-4,-2.3565840388195807E-4,5.361777152260573E-4,7.230411827150061E-4,3.5770885393906614E-4,3.5770885393906614E-4,-1.9141859619064747,1.337421575367949,-0.18305713113813019,8.502725181050979E-4,-0.21089688871746032,-4.4820371048656096E-4,3.923601335311819E-4,-4.844579277620579E-4,-1.4287675868092918E-4,0.9445031706130671,0.9445031706130671,-0.06388563343744622,1.9919598445732563,-1.212640025224556E-4,-0.027819148765542638,8.762205056708759E-4,0.4549665418564631,-1.6004035022442855,7.438603266742153E-4,0.4168386297957134,-6.288408434269486E-5,-5.173313888095415E-4,7.252193434193914E-4,-8.98850282047004E-4,2.2916397459589748E-4,-4.1560678470976614E-5,9.684685490441924E-4,-8.98850282047004E-4,-8.98850282047004E-4,-8.98850282047004E-4,-8.228204471889057E-4,-5.063202451967234E-4,-8.98850282047004E-4,-8.98850282047004E-4,-8.98850282047004E-4,-0.12303560932602844,-0.12303560932602844,0.8315480254345106,-0.5647856791719483,5.340418572565917E-4,0.7137661959609818,7.050370984968421E-6,-5.88821874679108E-4,-0.04352183981110792,-9.109598701638119E-4,-4.369297342471572E-4,-1.574544278026336E-4,-5.745097367140083E-4,-2.246354184026457,-0.6311015352137399,-0.5766973413208226,0.3319554187078367,-0.9669214788099945,-0.03452682369546929,-4.790582925295081E-4,-7.975776089928844E-4,9.210582503206724E-4,5.120129196606145E-4,-2.446112252060782E-4,9.199307451446475E-4,2.6334200443703772E-5,3.1835492177264245E-5,-0.0010797142063278696,-7.517553771509631E-4,-9.581200408178615E-5,-5.457541713217067E-5,-5.675852219682832E-4,-1.864824399533491E-4,6.587112738255602E-4,-2.173309061681962E-5,1.4225142397429125E-4,-7.399696272884059E-4,-9.72942033937018E-4,0.2251999581920231,-0.025494003915106707,-1.8301472823934947E-4,-1.6337337923263897E-4,-1.6337337923263897E-4,5.605620263190615E-4,-1.3669469396816508E-4,-0.7994288247624571,-1.5039848162471357E-5,-0.15081502904837074,-7.001894131107209E-4,-2.656156377310102E-4,-1.683153384047433E-4,-0.3180298951628383,-0.31848222812897187,-0.447116413326166,-0.34032250390781354,2.7674149340378937,0.27677710210977136,-5.211498229539392E-5,0.49210042640588925,0.36101961042118297,1.0097471106279081,-0.3654533595712932,1.275374274014485,0.8268741688042609,0.2664332155129567,1.0965398512745599,3.2663064230346265E-4,3.2663064230346265E-4,1.3118430858939244E-4,1.3118430858939244E-4,-4.6761307962068545E-4,-4.6761307962068545E-4,-2.3051532984469608E-4,-2.3051532984469608E-4,0.17926745077260253,-1.6822444905634812,0.6803826295181343,0.6958818287121467,0.9101509716013688,0.9105994628932333,0.8345148389865267,-0.2519559491866758,-0.4795266095628378,5.806599511401418E-4,-1.1063141340742344,2.8568185372149983E-4,3.575503397460918E-4,3.575503397460918E-4,-0.10158012580609653,-0.020050065275034848,4.3153078854259674E-4,8.770234212545782E-4,-0.10158012580609653,-0.10158012580609653,-0.10158012580609653,-3.997398495052952E-4,-6.169335259948942E-4,-0.10158012580609653,-0.10158012580609653,-0.10158012580609653,2.2823843873081597E-6,2.2823843873081597E-6,-0.05119147734143723,5.868089949616491E-4,1.3482822751883583E-4,-0.09790163218260224,6.753834560160061E-4,6.753834560160061E-4,-0.26527703619793763,1.10729518692673,-0.09790163218260224,-0.09790163218260224,-0.09742925912772261,-1.0384729457498523,-0.09790163218260224,0.1817348270633096,-0.09790163218260224,-7.586943363881368E-4,-7.586943363881368E-4,6.425061927889362E-4,8.997320790051543E-4,1.4061639041816771,-0.5624702589273705,-0.7126972909431645,-0.47057807701267296,-0.47057807701267296,8.342828196794876E-4,-7.367395218832918E-4,-0.4219854546412711,-0.12267437106524307,-4.4666555535231595E-5,7.879437930680723E-4,0.5286033173770049,-0.07110028942673632,-0.07110028942673632,0.21362903284027474,-8.920360898437736E-4,-0.01726005661261348,-0.09484219197231125,0.5286033173770049,0.5456941625145422,-0.1282081295349894,-0.2694551778604242,0.5286033173770049,0.5923729235452303,0.6710439208395489,7.26406457585533E-5,-3.271565211487586E-4,-9.280063961378058E-4,2.552970903977204E-4,-5.926595567805368E-4,-7.012538941830152E-5,-6.681916329242703E-4,2.552970903977204E-4,2.552970903977204E-4,2.552970903977204E-4,-8.669801188822732E-4,-9.360150833818176E-4,2.552970903977204E-4,2.552970903977204E-4,2.552970903977204E-4,-0.2364167238504833,-0.2364167238504833,-0.7796538089886137,0.2874886381534532,5.082551270377007E-6,1.8056146423861086,-6.502332011636281E-4,-0.31665514656693583,9.123673205364401E-4,1.1635274443581975E-4,-6.139158601791037E-4,3.659136631082143E-4,0.0046981668148342575,-0.3396421094560291,2.67053173402335E-4,-0.35374924901276444,1.964094118748948E-4,2.67053173402335E-4,2.67053173402335E-4,1.3151969116507144E-4,7.668257858786621E-4,7.668257858786621E-4,2.1729208932595408E-4,-0.7462419993153971,-1.5407230420507421E-4,-0.14077822315588995,5.121952587262398E-4,1.4753852638834742E-4,-5.133510285005962E-4,-9.080982545426972E-4,-9.611460726651085E-5,9.729969822762116E-4,9.729969822762116E-4,-0.09483557081573953,2.509944061520236,0.17588303844733563,3.423687426682984E-4,-7.88987833174105E-4,-3.520063470581048E-4,2.5659339373779796E-4,8.378521147431455E-4,9.18034552329009E-4,-0.04403643785332366,-0.04403643785332366,6.574532714741519E-4,0.07745375281531057,-3.7655039574146577E-4,-0.02044972476721585,6.718494126966911E-4,0.02259275288658713,-1.5676135923079155,-9.18312190095263E-4,-0.21165581758463903,4.220147830550632E-4,3.089179743530723E-4,6.469173961591644E-5,3.2043979607249574E-4,-8.673068935077864E-5,8.024327505728733E-4,8.024327505728733E-4,3.2043979607249574E-4,3.2043979607249574E-4,3.2043979607249574E-4,-1.5264351753740957E-4,-0.28006903601560107,3.2043979607249574E-4,3.2043979607249574E-4,3.2043979607249574E-4,-0.3206867188616299,-0.3206867188616299,0.14559777201191876,-0.2693285554099223,-8.071642865559374E-4,-0.14004463474836992,8.335579840090705E-4,-5.468038184284137E-4,-0.028191805166194222,-6.102890499274649E-4,-0.022618273939896544,-2.3645358924435683E-4,0.3845342672618299,-1.4554685317852483,7.919997290676606E-4,0.3572922850169572,-4.1202872749612556E-4,-0.4431100544238671,0.021937853516813193,2.3921476508803564E-4,-4.3124838080957557E-4,-2.800669884654226E-4,-1.8895572787326967E-4,9.284161368278794E-6,7.028710952975075E-4,3.2914308011567164E-4,8.311916618084694E-4,-3.6178188561267427E-4,-1.6574079561473744E-4,-3.4298506172398646E-4,-3.4298506172398646E-4,7.003066855443323E-4,7.003066855443323E-4,5.509044966006235E-4,-5.796538152745536E-4,5.841869080760258E-4,-0.029925335341542715,-0.9337609102561829,0.20018635613297364,-3.71665967173867E-4,-3.71665967173867E-4,4.2422388788627974E-4,2.562031805276383E-4,-1.312811039667536,-2.2363523162027095E-4,-1.3618725123966513,-9.05580372457214E-6,-1.0912985935147357E-4,1.8166904982981603E-4,1.150639576992182,1.1976061341527233,0.4890412710830544,0.04974379776048514,1.2060279381138452,0.14501499328009002,-0.023136024380828887,1.2693360515397065,-2.7666329672363385E-4,0.37862316371656146,0.3185821061877039,0.30705866558219563,5.107999872017283E-4,-8.412202762368218E-4,0.4608988599572253,0.2884704089138385,0.08867295972072253,9.275527414452874E-4,0.4608988599572253,0.4608988599572253,0.4608988599572253,-1.233578482535958,-0.4373091311394118,0.4608988599572253,0.4608988599572253,0.4608988599572253,7.853052922830988E-7,7.853052922830988E-7,5.195114357937572E-4,-6.308165922993198E-4,0.17083221815341634,-9.510778739786393E-4,1.7053614981942097E-4,0.06907778010983534,-0.29838009180013714,4.5861806725382213E-4,5.719650574293228E-4,0.30555850662730244,0.3392681857942639,7.088890060014262E-4,5.116011649739321E-4,7.247225733618754E-4,-4.487602724731674E-4,6.368099965798154E-4,-0.06958016939724534,-0.06958016939724534,-8.115913945171223E-4,8.233014349449879E-4,5.032686418819945E-4,2.528998396352708E-4,7.756668477719865E-5,4.650131461190275E-4,-1.6644547937871086E-4,2.528998396352708E-4,2.528998396352708E-4,2.528998396352708E-4,-7.799124942779565E-4,-9.758207039499515E-4,2.528998396352708E-4,2.528998396352708E-4,2.528998396352708E-4,2.8709767620756286E-4,5.769734602113954E-4,2.152824546454322E-4,-5.08560878355219E-4,-6.09222110811346E-4,-0.045768340142790194,5.217972867135797E-4,-2.2392780139880936E-4,-6.601967670981635E-4,3.270823872828779E-5,-2.7919286643879337E-4,-2.031633931670867E-4,6.06304486314227E-4,2.8583627836794494E-4,-0.22386706023514746,-0.037890293755851547,1.704236516587548E-4,7.731817180953253E-4,8.879974475992116E-4,-7.058068843272553E-5,-3.9579676326400724E-4,-4.840775889838893E-4,-0.6111549704749798,-8.639639361659784E-5,8.08956391612355E-4,-0.08017649309033086,-2.5172204244298545E-4,-0.3174691975708738,-0.8102447082966198,-0.9969209736710077,-6.750444181307927E-4,-0.02397113140923709,2.6095492120626225,-4.2774951718760074E-4,-5.148266599140953E-5,0.0141787716935971,0.2768228322888272,0.12362782925798252,1.238478066542926,0.22712867623508654,-1.7583061426221344E-4,0.2531466126248364,1.238478066542926,0.7491885439210806,0.7491885439210806,0.5179133664865536,2.6791806711630093,0.7491885439210806,1.238478066542926,1.238478066542926,-9.256346107240515E-4,0.22095827967434103,0.3450003977903305,-7.631890687061892E-4,1.2215926235266752E-5,-1.8852977893714547E-4,0.9899438033542051,0.4782802558132264,-1.8235175143032643,0.03719175316514094,-4.271556669189709E-4,-5.69904653338592E-4,-1.1620450120380947,1.0167741209086485,0.26556221183853845,0.26486010448395464,-0.07111043299492295,-0.16430417172131617,0.9916420085553971,0.3395863370923281,1.1425806118163226,-0.039989198127358135,-0.14529458746978285,0.70706487779964,-0.21847281240132893,-0.0980835288015801,0.30486559742458996,-6.950823906423061E-4,-3.742830428213875E-4,0.2935168939737737,-0.00529441359496907,0.4301234325738798,0.3167580992116259,0.27589614371508353,-0.5550203408354076,-5.117829790876849E-4,0.05241906380429964,0.05241906380429964,0.05241906380429964,-0.029756562596666432,0.44832990879832063,0.05241906380429964,-1.1001623752687806,0.05241906380429964,-7.375818904036718E-5,-7.375818904036718E-5,6.770455974204322E-4,6.770455974204322E-4,-8.916636157991335E-4,4.587159310070143E-4,2.309364126384241,0.034760554290242086,-0.27284077998248746,8.761681158284743E-4,4.6251799025128946E-4,-0.34511138281414155,-0.34511138281414155,-0.34511138281414155,0.0454731131540535,-2.966421637643627E-4,-0.34511138281414155,-2.9535352978742595,-0.34511138281414155,2.162788777065193E-4,2.6993383134733036E-4,-4.2219669232487403E-4,-1.6018491667621937E-4,2.5447663128380076,2.007715417819249,-1.5803145674606374,-0.7218714933803789,1.3704668329938436,1.1831625548013815,0.02040994121650802,0.019761321229568606,-6.084609109462758E-4,-5.025262314115093E-4,3.77828862371895E-4,4.078522228195138E-4,-2.4769383901980177E-4,-0.584243407877172,-4.439854342584693E-5,6.083026602535368E-4,0.23689277260553385,-0.016599870500041004,0.8030074634800671,6.274010930865128E-4,0.3414245561784802,0.29902732289984957,0.0709243769062704,-5.6615303516488946E-5,0.2607453106656065,1.4542333281559788E-4,0.5315077685945354,8.81788747947224E-5,-0.14361298861392344,-0.042007807835451556,0.31846266246307414,-0.07123809034941478,-6.857829658791578E-4,0.1526404958885458,-0.8780315827146873,0.8511247803638556,0.4976311835956248,5.953429608794398E-4,-0.2242078950501232,-5.104898521406261E-4,9.904486076695576E-4,-0.030243018015338546,-0.030243018015338546,-8.72838922979051E-4,-8.72838922979051E-4,0.47539933822739555,-0.027377587258006767,-2.4301387440350754E-4,-2.4301387440350754E-4,1.1629111522000941,0.0033660336019302084,-0.08112256625470275,5.632225732976213E-4,0.31982784386821334,0.653294677172539,0.09190127672422048,0.5568393315872597,-6.69838245055273E-4,-0.0450826336635836,1.8147184806928515E-4,0.20636863214028622,-2.7525964100299366E-4,3.850040582127842E-4,-0.20571864443225182,5.481650413224629E-4,-0.15587891874548176,-8.733958736628041E-4,-7.773277641886453E-4,-5.592394079188634E-4,-0.017836551648706733,-6.513915208272328E-4,-0.22279050287278288,-0.06773131363028542,-0.14185253569122797,-1.311063567424312,-0.28970923144337946,0.10394486937922111,0.15862804749171278,-0.7784811513859707,1.6014935703518633,1.7197631214199094,0.17570412047807468,0.8156789838317164,0.8156789838317164,0.8156789838317164,0.4833369317625405,0.4833369317625405,-5.525418935881147E-4,0.11496918718019268,4.263749285966531E-4,1.0070925952127627,0.43705631806886325,1.7300980919756794,-0.09094757469098042,6.858784570744814E-4,1.0078185370704444,9.459045565982298E-4,-4.153113242140362E-4,2.381161346389953E-4,-3.866590095506256E-4,3.7260522065130953E-4,4.184959120475763E-4,6.293807747035535E-4,-3.866590095506256E-4,-3.866590095506256E-4,-3.866590095506256E-4,9.048317187002502E-4,4.983288819510836E-4,-3.866590095506256E-4,-3.866590095506256E-4,-3.866590095506256E-4,0.8690827339905476,0.8690827339905476,0.7103152693161712,0.07218171226255997,-6.054865309691195E-4,-0.3828594937727463,-0.3357132387844255,-0.30353090784666925,-0.35901893438085525,-0.2742740192974352,1.4938460914232816,-8.399851037834333E-4,-0.2592911820384501,-1.5107658708475424,0.02999486395808982,-0.12880058469622405,-0.6506362644402692,0.8966242063431759,7.722369847704558E-4,-3.549496326342677E-4,-4.077313137255885E-4,-4.690886877263881E-5,-1.0747082431222734E-5,9.286351385204765E-4,3.812073592427799E-4,7.10317181629136E-4,-9.390432032746719E-4,-7.580652154314294E-4,-2.523559672911054E-4,3.2637123120832115E-4,4.191153352401879E-4,-3.15639048400926E-4,-6.659724661200755E-4,-0.14494502764753203,9.091192008083141E-4,0.16578511016927638,6.713029616761538E-4,3.586450778538878E-4,3.586450778538878E-4,4.477869954997645E-4,0.6800624131369611,-0.24704394344528263,9.540578379487932E-4,-6.815927805562397E-4,-0.34419064601880534,-0.34160454764306497,0.4249803238390428,-2.7017931098387803E-4,-0.10969863443408112,-8.76245766866038E-4,-0.5029127232181585,-5.122998015286238E-4,2.834219962387029E-4,-4.36500023497567E-4,-0.001451817289725738,-2.8935496102272616E-4,-8.420950599036176E-4,5.436016531964327E-4,-0.001451817289725738,-0.001451817289725738,-0.001451817289725738,-1.065339443424389E-4,-4.208798041258414E-4,-0.001451817289725738,-0.001451817289725738,-0.001451817289725738,1.2885138496626907E-4,1.2885138496626907E-4,5.044904151921171E-4,1.784499093829689E-4,-1.4658466479536357E-4,-5.7255799057574536E-5,-2.9324100299526383E-4,-6.583520432749167E-4,4.54249956177653E-4,-7.495341538015446E-4,-9.812489403768702E-4,-6.583520432749167E-4,-6.583520432749167E-4,-6.583520432749167E-4,8.638027191847632E-4,-6.510242597700267E-4,-6.583520432749167E-4,-6.583520432749167E-4,-6.583520432749167E-4,-2.2018261635520253E-4,-7.753698894558865E-4,-1.7572706662725296E-4,6.748513741398621E-4,-9.375338902426263E-4,2.5517628944182356E-4,8.584685398114659E-4,-4.865417942223698E-4,-1.447658787349492E-4,-5.746358985896207E-4,-0.2778643820231976,-0.25338376156855746,0.0032490786527715246,-0.4330763311620043,-1.2564988536243812E-4,0.19624795920076232,-0.8477628851915908,-2.8857832395797096E-4,0.4134309785614252,0.24744284667543212,0.37932497702917445,-0.9002091361693161,-0.518046477860071,-0.1271668314242946,-0.19369310648399393,-7.715709724312779E-4,-0.1368876646319463,4.7578919787330553E-4,-0.2363108603223111,0.4308387730314064,0.02721100180465299,9.722321274475997E-4,0.22187883540595046,2.672756952024932E-4,0.3521261909516443,-9.074389172576457E-4,0.12461630105253794,-1.1716222893008221,7.04143897096962E-4,4.565565690131259E-4,-4.8031991602971074E-4,1.382278840715229E-4,-8.245018254152656E-4,-1.6627124935546722E-4,-0.20619763820752393,0.3108761030552731,-6.612023293205351E-4,0.14917517913889033,-0.21973490313421182,1.005884406630663,0.900361093777064,1.5160373300828067,-6.001484068377107E-4,-1.4956854108399429,-0.5410241449797231,-0.5410241449797231,-0.03011114256291159,8.967453575454544E-4,-0.2549419014920279,-0.34484035698968246,-0.2756075843843227,-0.2756075843843227,7.833334458687026E-4,2.9679476925898157E-4,-7.536799182594305E-4,-0.44855217604775494,-1.2520756954012047,0.025448494912879698,0.662418892831854,-0.5056789923164298,-8.074611868957545E-4,2.6905103361553177E-4,0.36398512271663785,-0.2059540056435786,1.2678613739739353E-4,0.597285000667663,-0.8765416153154861,0.36398512271663785,0.36398512271663785,-3.150111541451287,-2.2095464176862554,0.36398512271663785,1.646426563240517,0.36401655123780696,3.724365287692859E-4,9.95383729679429E-4,-1.9439580757923904,-6.338794743299407E-4,-0.6393661885422148,-0.7130969440827754,-0.7825439943919887,-0.3262765423306711,-0.3262765423306711,-0.06564203622950615,0.0732400311987874,1.1817323481212028,0.24622395074387213,5.13569425498952E-4,-8.90632138974835E-5,0.19693755331301607,-0.22226779432517677,-0.22226779432517677,-0.02063585739749156,0.42083519512543927,-6.614392168901384E-4,0.09042632650055181,0.19693755331301607,1.443961735909549,-0.43138579718473913,-3.3053964998619825,0.19693755331301607,-0.1039502698757158,0.19710311513379355,-8.972628977845492E-4,8.942915108713596E-4,8.886253634960194E-4,-0.04018292749747598,-0.00878603037789806,2.0814643965020706E-5,6.003982986133073E-4,-0.04018292749747598,-0.04018292749747598,-0.04018292749747598,-7.672635866600734E-4,-0.0028416462515324864,-0.04018292749747598,-0.04018292749747598,-0.04018292749747598,-2.5032565880855673,-2.5032562397121576,1.5089327850732706,0.03193809661020451,-0.17426064472725764,1.445970528715877,-1.017469720950339,0.3499252495404323,1.7674690725403321,1.7674690725403321,2.899842802198461E-4,-8.290811314512561E-4,-0.15199958160280277,-0.9371247164870009,6.195359043602356E-4,0.5538834413020566,-1.6598474573641662E-4,-7.206955393238121E-5,5.477955914479314E-4,4.8519687150133856E-4,0.9255758634964888,6.960694882716792E-4,6.284635365381107E-4,0.42059775428607804,-2.029904532774477,-0.5481642129760758,0.14098075183369055,2.8789763996431425E-4,3.389369361641778E-5,-0.22559044600716738,-0.023661089875371154,-5.225461512932046E-4,-5.225461512932046E-4,-0.29626201278917946,1.295418160379371,0.5839464414079941,9.421280275134549E-4,-0.24894146329264988,0.36482352541309543,-0.0022965058706467196,-0.0013552974131844954,-5.242350228149595E-4,0.7124972532199123,0.7124972532199123,-0.5429107250186923,1.265056731136405,-6.860966542564795E-4,-0.10248997764752979,8.437818055970297E-4,-0.25736230324756676,-0.09359960013080403,2.827936546119477E-4,0.6083909217750142,-7.540861988069706E-4,7.902120609061213E-4,7.088152593872992E-5,-0.00565547942484834,4.544341943520228E-4,-4.1214109542500295E-4,-4.1214109542500295E-4,-0.00565547942484834,-0.00565547942484834,-0.00565547942484834,-4.964324250359779E-4,6.733110109548003E-4,-0.00565547942484834,-0.00565547942484834,-0.00565547942484834,-0.4242024433910656,-0.4242024433910656,1.2027884486567808,-0.6756338131429273,-2.77988711464965E-4,1.2127939381104256,-0.3757583337203617,-7.941789393067172E-4,-0.8452870651186948,0.013669270569430993,-9.613001301167793E-5,-8.848467822628362E-5,-0.1072292167101879,-1.9555372197041945,0.2496927237550574,0.24695762751861844,-2.5138387200771835E-4,-0.1034787081507662,5.778481489644889E-4,9.503635337715281E-4,2.476937121036087E-4,7.254614921056532E-4,-8.301912187858428E-4,-8.088363830670575E-4,-4.0524955774736196E-4,2.0010417603212615E-4,-1.587498876162094E-4,-1.5994238492745422E-4,2.481983709321882E-4,-4.049736826888929E-4,-8.924709284115494E-4,-4.976612540948895E-4,-7.226481907440204E-4,-3.5810872005249505E-4,6.827806987864752E-4,-0.08967760149795811,-8.444486081158534E-4,-7.32785654912947E-4,-4.1174166037375977E-4,-4.819642301799237E-4,-1.0233869373175186,-3.4099932348650476E-4,8.305194225514734E-4,5.672363855971981E-4,1.9705891210211298E-4,-9.958985926666582E-4,-3.302673194939212E-4,-9.666434987836961E-4,-1.1786019945673067,1.418552364694484,2.352107785327526E-4,1.0611468015691363,1.5079676773329385E-4,9.836781487352177E-5,9.835238710007629E-5,-0.014715491465044962,-0.01518964986908957,2.552661817768556E-4,4.1845168581111506E-4,-0.014715491465044962,-0.014715491465044962,-0.014715491465044962,-0.011743644657083406,-0.0547936513488055,-0.014715491465044962,-0.014715491465044962,-0.014715491465044962,-4.1111075836024365E-4,-4.1111075836024365E-4,8.08684763574748E-4,1.0245728347569759E-4,9.22213921796895E-4,9.22213921796895E-4,-5.14902354433889E-4,-4.8079320770239237E-4,-1.953314735389576E-5,4.618461683231342E-4,-5.14902354433889E-4,-5.14902354433889E-4,-5.14902354433889E-4,-6.955710948019679E-4,4.5136050161310635E-4,-5.14902354433889E-4,-5.14902354433889E-4,-5.14902354433889E-4,9.000210508884107E-4,-7.291089605350007E-4,-4.161071562600589E-4,8.3360223534734E-4,-7.110888396944721E-4,-5.896995418632877E-5,5.108327602114203E-4,6.443228170895663E-6,-7.163868363944199E-5,5.232276037220872E-4,-1.8080271640018536E-4,0.05207165838140369,-0.7267107624089693,-0.36473097691416906,0.12088382274391096,-0.20528107167672455,2.664144504984495,0.5771078006832755,5.7050277465231E-4,0.15430649929494403,-1.2803219067550267,-1.1421993506018351E-4,0.31508808232602653,1.9255631830421467E-4,-4.7824700130769354E-5,3.671402399239703E-4,0.007550784373273535,-1.26412959167589,5.37259317553981,1.5587715884686524,1.7716680043062232,0.618922571888001,5.364288246429234E-4,-1.6484052940147044E-5,-0.4335545158849922,0.4617036849569278,0.0785430851994807,1.3224747577020697,-0.1947748006294011,-0.1947748006294011,1.1927835273159744,8.391861447553681E-4,8.391861447553681E-4,-0.7547966593838491,-0.0017258008707021937,-0.0017258008707021937,-0.1018183846914392,0.08650531686535956,0.08650531686535956,0.3931609876348177,-0.006552426214400734,0.14053749891674228,1.23392571122403E-4,1.23392571122403E-4,-0.4827179348126454,1.0053363836583504,-2.1205459572262567E-4,4.3987120486911613E-4,4.3987120486911613E-4,0.37718035521531557,-0.48386678577066844,-1.2004106688026943,-0.011791052138239359,0.5161522403499132,-0.013737350534314748,6.558843446870166E-4,-0.13769276526695381,-0.13769276526695381,-0.13769276526695381,0.5199877567600317,0.8085334174257456,-0.13769276526695381,0.8813712895552064,-0.13720568191625862,-0.22629243730410642,0.11819525870578085,-1.8618436784362782,2.2010475769685978,-1.5452069515442882E-4,6.508137105340596E-4,-5.332416379431183E-4,-5.332416379431183E-4,-0.007219664856951506,-6.025067409411167E-4,-7.473580592506676E-4,-8.979532871894533E-4,1.1755901875482803E-4,6.244750314625045E-4,6.244750314625045E-4,6.995522430372157E-4,-1.3130233034467265E-4,-0.2692721224794318,-0.2692721224794318,-0.052959278826323966,1.0310195323996116,0.22116300802383704,-0.05399592845201892,-0.19940377284107785,1.011232205330888,-3.820775532918161,-0.054638370665909035,0.873470390662198,6.012445250832175E-4,5.790689579606399E-6,-6.305992940067957E-4,9.376746948105767E-4,-4.8422510375359645E-4,0.8663357152845425,8.350152644655132E-5,0.8803750830799207,-1.2012471683616424,-1.429227067392916,6.017699468890522E-4,1.2081967678568355,0.593299555590332,0.11205146419284565,-0.38154851051482497,-0.38154851051482497,1.2220683556612135,0.45644376130146863,0.26181545237329956,-0.36594986446929106,-0.5341409263822612,-0.5341409263822612,0.18966477197687676,0.0461701689494292,-0.14236203990365495,0.4354916915168076,0.13672488899887522,0.1106400745480372,-0.8893172999463097,0.5296106478127091,0.05553679282345194,-0.2750706882164654,-6.366899550622771E-4,-0.058689500642021164,-0.07242888274366488,0.12568462741990413,6.366899550620793E-4,0.6442638671478887,0.21200119842346604,-0.8423565758530325,-0.05628348628155968,0.21603705972393275,0.5497135357596349,0.6946211661287097,-0.21050179794639473,0.8457628142857407,0.8237928389961381,-0.1841586358269613,-5.021142453846098E-4,-3.695790424545109E-5,-2.660885753056838E-4,-2.660885753056838E-4,-3.0716358991615136E-4,0.39320779662856903,-2.6253414290002857,-8.663529120388407E-4,0.6866078875607593,0.3091739719525349,0.44758103396064014,-0.42436469891291984,-0.019561314201941134,-4.0145204959558887E-4,-0.2758239113440656,0.008882796390762433,1.0251880789827725,7.532393286878458E-4,6.817572229913572E-4,-0.5357328236438436,0.44403157799006543,0.4053431176382221,0.5378335116169798,0.5818568587077093,0.07241845556335885,0.01020144266182657,-7.755440354364432E-5,1.7167757190247954,-0.012651374536336746,7.131674014918266E-4,0.5654826042998001,0.015638447086187564,-0.4210718249560086,8.988149160333403E-4,0.05222564962276795,0.42200228748354346,0.3076065033802912,0.8991441272600106,0.5604844802370146,-0.11474412110811903,-0.11560703831331748,0.0860815868105824,0.4529913692568127,0.4832983636688175,-0.5669929596708841,-0.6441623521109474,0.2679075513745292,0.0878271067610126,-0.36808796590616083,0.740582521393609,-0.18320661786861459,-0.4186448289307011,-0.48461679304315775,-2.450407834499401E-4,-2.450407834499401E-4,0.3769312739903985,-3.2586420099322893E-4,-3.2586420099322893E-4,-4.693573616086011E-4,-1.3221161803236396,1.9071599997798805E-4,-0.21283809160680223,0.3769312739903985,0.3769312739903985,-4.373573814836623E-4,-3.735133728853441,0.3769312739903985,1.0602890619390795,0.3769312739903985,-3.653229623065059E-4,-1.9792830041467577E-4,-0.3070789400723038,-2.3521129427096477,0.08554252570518285,-0.6686338646795638,-0.6686338646795638,-1.3514603782715464,-3.7774867369643915E-4,-6.858521598515576E-4,1.7749259940698627,-5.391817984085324E-4,0.13301304694078403,-0.41045684990452946,-0.8266211467372377,4.559732915465722E-4,-0.13586278831886792,0.06525016852653981,-7.295227627527596E-4,2.562374958462318,9.292695371785216E-4,1.6139500163972664,0.09374504368530412,-1.245657837503837E-4,-0.003602560424381134,7.660961473213621E-4,-7.912395438951037E-4,-7.912395438951037E-4,3.075746857982333E-4,-2.74431000949143E-4,1.505014188045912E-4,1.505014188045912E-4,3.075746857982333E-4,3.075746857982333E-4,3.075746857982333E-4,1.5024091069509773E-4,-6.781578760997468E-5,3.075746857982333E-4,3.075746857982333E-4,3.075746857982333E-4,3.8244288328088114E-4,1.8438051490525877,1.3094319087197441,0.16881548377430058,-1.277083361031757,-1.3285075634519253E-4,-1.3285075634519253E-4,0.9547209264690459,0.4004870039029002,-0.2375622805970212,-0.1960420512921287,-0.23202546251507603,7.617362592451378E-4,-0.3710830709515693,0.38767897356094355,1.0805879045837041,3.1821079516902038,1.546983872903993,-0.35741772840706787,-0.35741772840706787,3.9102421201398733E-4,-0.5288908916750465,3.9059487071322456,1.8003393503069653,-0.4459416488552224,0.36079804044431724,2.4462523793355095,-1.3201218018199055,-9.659735645191179E-4,-9.659735645191179E-4,-0.7552496883752204,2.805134823868178E-4,-0.06854756631992404,-0.21729072266396238,5.51989738419499E-4,-5.020550853076292E-4,7.598265436490728E-4,2.0670968110089467E-5,-0.19775220933184998,-0.28740361304157835,-0.3949012656503078,0.07610757683583247,1.1417246508922816,0.38206306468252327,0.12417198704544755,0.12417198704544755,1.1417246508922816,1.0345922434943653,1.0345922434943653,3.0055388880248395,4.248442468592803,1.0345922434943653,1.1417246508922816,1.1417246508922816,-0.03482666022022522,-5.020751188115555E-4,7.202810554676662E-4,0.8558417522774909,8.687117310853278E-4,-0.5620406405873853,4.158224106858303E-5,-0.16525928334285891,1.468204103792657E-4,-0.49145311660985525,-0.5891160265307914,7.096352742952602E-4,7.096352742952602E-4,-0.3015488410730828,-0.3015488410730828,-0.3015488410730828,0.15487322638961615,0.38141625398099893,-0.3015488410730828,0.04162871576818136,-0.3015488410730828,0.45468266410630054,-0.03424870094880152,-0.21497255447641248,0.015135551263171992,0.7474519908081114,-0.18452013452660432,-0.18518512712032426,-1.84635705837802E-4,-3.722103914806916E-4,-3.722103914806916E-4,3.3851611150014795E-4,7.971478136309456E-4,-0.11067552714099829,-0.6389945727876022,1.0099361338088495,0.18455407178568006,0.184840569166245,0.3584107508982536,0.3584107508982536,2.274701440345978,0.229550576831868,0.3584107508982536,-0.27845923196089484,0.21746956097195924,0.42952193280464324,0.6473419942985108,-0.3961444268394312,9.069373757282693E-4,2.532318793407914E-4,-0.4261631575881123,-1.0694602758702394E-4,1.2911267775789713E-4,1.2911267775789713E-4,0.006652079300447061,-5.862318616118526E-4,-0.10693607643488706,-0.2223036113671426,-0.003432725612826395,-0.2162504456937263,0.4841417338598587,3.018072973407426E-5,3.7240375033947967E-4,0.4285427691974386,-9.605931705916405E-4,0.28755415604101103,0.41607237041973594,0.22876442576386807,0.07989665847746097,-0.13564032935995457,0.6122655708795068,0.6287381360900091,-2.300336399575217E-4,-2.380466527131961E-4,6.136654405726688E-4,8.784691438609733E-4,-0.02412898942250243,-0.21796972190736583,0.9233499384404822,0.41423685383920017,0.24352379793615653,0.9115869571876908,-1.227706485424473E-4,4.399927104500915E-4,-0.16533363364923737,-2.865226371015371E-4,-2.0828064739285192E-5,-0.05677808799871996,3.238669241489981E-4,0.3518885833843973,-3.2007559086986493E-4,0.2752211616566977,0.18786172898754572,-0.41430778435263943,1.7165454292199473,0.4215757685676222,-0.11331128694263211,0.38614999191711163,0.0025344718466112533,1.5190035620717374E-4,-0.06444058154811014,-0.06444058154811014,-0.11338046009357652,1.337291776553431E-4,0.14629742519056926,-0.17066989599817745,-0.5385708495577031,0.3695088221027336,0.5622448381984347,0.44392679383102446,-0.9729384033084869,-0.28028484174260826,-7.393687451044556E-4,-0.3566706816541705,-0.3566706816541705,-9.408982685774443E-4,-0.2666739607663564,-2.11602542673376,-1.6936739014012075E-4,-0.9106384287470778,1.2073248798351435,-4.8430161409576916E-4,-2.3423535242965096E-4,-0.2748385051069218,0.3657308860259624,-0.09747997308852632,-1.8308014337659777E-4,-0.11276479810593805,5.376675576797285E-4,-3.7557464754937615E-4,2.1823278308806624E-4,5.258266191663865E-4,0.13783945834212655,-9.83390561192744E-5,-2.731026153395944E-4,-0.5593687391113816,-0.5448920438122833,6.37301363868146E-4,0.04620712399162244,9.27911365251415E-5,7.822580929743917E-4,-7.109147648300508E-4,-6.768419100932452E-4,8.182243291946854E-4,-2.640163741479411E-4,-2.640163741479411E-4,-6.768419100932452E-4,-6.768419100932452E-4,-6.768419100932452E-4,1.067841767163003E-4,9.860428264666086E-4,-6.768419100932452E-4,-6.768419100932452E-4,-6.768419100932452E-4,-8.835296082006481E-4,1.7143079331690325E-4,-6.709836956348884E-4,2.3318337728977546E-4,-1.8718400696780577,-3.199290061876429E-4,6.86049334888617E-4,1.4245392151951842E-4,-3.164999213498205E-5,-6.015447095493742E-4,-0.8972935032797793,8.326231300566085E-4,0.4548037896073175,-2.062129599639295,0.6401863722451228,0.06324574061768415,-1.3223622316219878E-4,0.019279478118388645,-0.42103042288420567,-0.301249438730541,0.2957061313362052,0.24260950622596417,0.06638252572591657,0.08942195746385673,0.1765270294328443,-0.48552558137468815,-0.0249347770590856,0.1721553322391248,2.709273772230965E-4,0.3802878167415305,2.2354834798898056,0.01822638461626236,0.03903587703153495,1.4210269485051938,-3.698648425565069E-5,-0.5674987440555133,-0.28203254581773335,0.3857959415164716,-1.2631515766587245,0.10110787334924626,5.193409176811653E-4,8.880174601871677E-4,8.662871927905737E-4,9.015108470544242E-4,-6.425818088987852E-4,-8.961149058739331E-4,-0.26716533697070977,-2.58614360907583E-4,2.3773547749982105,0.3022223437890958,-0.5379628841952965,7.577622363481424E-4,-0.2611475611359009,-4.3166300891683016E-4,-4.3166300891683016E-4,-5.546700402844156E-4,-5.860440143937683E-6,8.335883244536038E-4,-5.860440143937683E-6,0.18610527160001125,2.8982655209093793E-4,-0.0596747681886558,-0.13621974066572554,-0.12817451021557524,6.454944315632649E-4,1.8106628872960567E-4,0.015762964186007953,0.12460024085869197,1.019101750343115,-7.405916812988544E-4,0.30482189081537786,-2.354828934190009,-0.35012514944793005,8.396497927246668E-6,1.746774987196406E-4,-1.9081288012264648E-4,4.7337454101466095E-4,-1.0126294989079294E-4,4.2945855866809157E-4,-8.177246128055987E-4,7.5176850795415605E-6,3.577399637555651E-4,2.6386535759759645E-4,-0.29122041589710257,-0.2911970504500578,3.499487538851536,0.3553390867330476,2.179026302715826E-4,4.552964502226649E-4,-1.2048346030447297,1.7041621215176632,0.03780706928281419,-0.7939428473794052,4.327178967839123E-4,9.664577410650054E-4,-3.241385786268104E-4,-0.28912175048451044,-0.16245987091199693,0.505929435307461,2.2945679943267084E-4,5.019683007058374E-5,7.10710061900849E-4,-6.729135708066685E-4,-3.8087790342398857E-4,-1.285792133099393,-0.010841028829774932,-0.6187829500862312,0.11727967205260009,0.16303465687106017,2.9011488924706366,0.255901842193998,0.2577374261274559,0.3472871349626669,6.273981338724018E-4,3.3235041065770026E-4,-6.598052082020522E-4,7.378828502114841E-4,-1.6524583734351186E-5,4.548571082454043E-4,-7.422858094057816E-5,4.591279145716549E-5,5.44220390617878E-4,3.4273615524054346E-4,3.3303184425404213E-4,-7.516389119595177E-4,4.671933361908802E-4,-7.677287202009091E-4,0.7291623993663146,0.6850012342804067,-2.7087804529208085E-4,-4.737877323790998E-4,6.312341183339586E-4,8.949131558835204E-4,-7.258374586377112E-5,0.14728076583578176,-0.4205616873248405,-0.3807004416040956,-0.40117320606907547,-0.35167477705145483,0.2694010121771797,4.5006412962099863E-4,8.725923770307696E-5,-7.415421320391961E-4,0.8028245766674165,0.05570894753176078,-6.081840593977775E-4,-8.070756400525263E-4,8.486121998814398E-4,-7.061523519653733E-4,9.567288571871512E-4,-1.8794769206865363E-4,-1.8794769206865363E-4,9.607517061572095E-4,5.956531691080763E-4,-3.8520023961237924E-4,1.671992146881423E-4,2.07957479002723,0.12400987008741923,-0.5365380665128532,2.2276111239412366E-4,2.752707444203166E-4,-0.07051829947512957,0.016708381089717575,7.204649362296092E-4,0.5525404039082009,0.017101354849920092,-1.0014970667348728,-7.820439442008005E-5,-0.054540331111529824,-0.0693100529999927,-0.06229329703160587,1.1448078376142005E-5,-1.4094803023384419E-5,-0.020070597694678807,0.5764329513137187,-0.23278352262197263,0.04677371008761802,0.04799616393931097,-2.2354763410836034,0.005154445783034922,1.6193822781653628,0.3394991928107752,-0.10645491477056344,8.563510870804131E-4,-0.6267932861239265,-6.829369008772648E-4,-5.069999471167133E-4,-4.550334721079764E-4,-6.715549062650543E-4,0.3831276464211013,0.11860895586221135,8.246087000044551E-5,-1.7171336519970088,-2.8382356482409206,8.223474252225728E-4,8.97984342507911E-4,2.1291867547839943E-4,0.481676217790307,-0.12871925900229605,-0.12871925900229605,-2.1654431352309588E-4,0.8524450640211404,-0.21075827365869174,3.6514111905419004E-4,0.2970838647149821,-1.0732656493232842,-0.006528824792875419,-9.078457978360546E-5,-7.536013848672644E-5,-0.49580209100207473,9.979429815912609E-4,3.212589105915022E-4,-0.08867752122300776,-0.23221102399410667,-6.831637757478144E-4,-8.718101517169583E-4,-0.08867752122300776,-0.08867752122300776,-0.08867752122300776,-4.708439290860174E-4,-0.5701298132809809,-0.08867752122300776,-0.08867752122300776,-0.08867752122300776,-0.3309039904352756,-0.8866494618065046,-0.10890804569920959,-0.2251315641446964,-1.2995775518752492E-4,-0.018215125577818257,8.227769371819826E-4,8.227769371819826E-4,3.380995816791438E-4,0.9832183889853096,-1.2781087852862117E-4,-8.713728045769184E-5,-2.5915939645695506E-5,-1.4826432960243427E-4,1.9053895343293153E-4,9.141557568808057E-4,4.7046333539547676E-4,9.149136716195904E-4,5.680085035876149E-4,5.272585293100582E-4,0.219073620982122,7.940465647548721E-4,0.22226398098014102,-6.188733409056592E-4,-0.018071443374480776,0.2970921543975732,-0.019100587944968876,-0.20179602210863729,-6.7711303377129E-4,-6.7711303377129E-4,0.3010314313103012,-3.4422721387097465E-4,-0.3326109050062874,-0.011504239117510993,-7.171977207859695E-5,0.2851816797947747,-5.464903758667047E-4,-8.122391807728723E-4,0.37594762215230176,0.22472150415152642,-7.92310970139016E-4,-8.88480931588713E-4,-4.765325655799698E-4,-1.1910730070333454E-4,-0.033638240786184624,0.595586251702538,6.590895603726183E-4,9.75477079615619E-4,-0.49505890113050116,-0.16643849757469756,-0.26984721756464,9.847893957479262E-4,-8.851806978917948E-4,-9.240289365269923E-4,-2.5690739513153525E-4,0.05045033816998644,2.6939875751108E-4,4.080026876583779E-4,2.6606689367229976,0.39718225902121035,0.2851158866282288,-7.290494356181586E-4,-0.2894081069373616,-0.235377958860492,9.501547553652871E-4,-8.998772319974685E-4,1.9227430767107144E-4,-2.0607146668527457E-4,0.33447951118836305,-0.05979898478904827,1.913361204601621E-4,8.499208144353036E-4,-0.5303059268876946,-0.010334027930693282,0.9484456459678535,-0.027528724976936206,-7.66804756058271E-4,-7.05771753288769E-5,0.7832700523497034,0.008362547799114963,0.05545162656017899,7.876964216042789E-4,0.10400245202128242,1.085401967644534,0.2470624204276392,4.429439641239117E-4,-4.266021823541664E-4,-4.569232759414505E-4,-4.569232759414505E-4,-6.18277878815957E-4,-0.10818063187143132,-0.0861292939154741,-1.0163537006529025E-4,3.609366979570657E-4,-2.2176544032176375,-0.47729677639895046,0.44074708855713046,4.639635646623791E-4,8.253896259484959E-4,-9.080412408034927E-4,-9.080412408034927E-4,-3.1317530512647764E-4,-6.351710335458583E-4,6.543637159416758E-4,6.543637159416758E-4,-3.1317530512647764E-4,-3.1317530512647764E-4,-3.1317530512647764E-4,2.654706512848395E-4,5.146635429354481E-4,-3.1317530512647764E-4,-3.1317530512647764E-4,-3.1317530512647764E-4,5.817868319263259E-4,-3.8194008868137766E-4,8.453810447588645E-4,-0.006856592327312465,-1.2786747911954246,6.281423166727844E-4,-7.636932528063735E-4,4.3679762679443086E-4,-3.4717281702773787E-4,-1.4415505003927205,-1.522359970466446,-5.892453159220164E-4,0.06599787375899037,-1.3041780111844565,0.5077138522727795,-3.4977189102171433E-4,-4.825587056870716E-5,1.260983196305044E-4,1.260983196305044E-4,8.886246820026072E-4,-0.695267488465784,-0.10637960143751822,-5.709580243642219E-4,2.2088043438625148E-4,2.2088043438625148E-4,2.4560081479057974E-4,-2.599229057130419E-4,6.847948377656033E-4,0.0730027864344058,1.3874297344139213E-4,6.233012477736515E-4,8.765499855248367E-4,7.741137173101547E-4,4.1626151080608744E-4,8.108848631738961E-4,-2.663909008899781E-4,6.983173082454869E-4,8.804654816713045E-4,3.893779030234377E-4,-0.35770595909446734,0.5172109195770672,-6.526939105873657E-5,-7.385941994461651E-4,-9.45930057538577E-4,5.83297312363791E-4,1.2859120404934627E-4,-8.769036562489783E-4,1.5652982457287036E-4,3.8100298481577783E-4,5.74789534646501E-4,-2.671596298423199E-4,6.976219601987731E-4,-0.9934779042589448,3.228148995798266E-4,-2.584064615057716E-4,5.044523784586686E-4,-0.0619488775780304,-0.355626033546884,8.868581645953824E-6,-1.7378709456938315E-5,-0.06390107258097069,7.47587356316592E-4,0.19870278646041217,0.45794368510411665,-0.009248426724489011,-1.4889373893457747E-4,-1.7764031311512385E-5,4.3081299969499696E-5,1.0045016409766139,1.0062521347698958,0.44188950826716644,-5.515871157045304E-4,-8.233285713350071E-4,5.667187702846604E-4,-0.21763757372018636,3.294068907767013E-4,2.0459096201437066E-4,-5.762127184965552E-4,-0.3539474274765433,-0.15768665576090707,-8.555932086946855E-4,6.98368222712722E-4,3.221650980481216E-4,5.042202332958761E-4,3.178023002083747E-5,-7.27443043739758E-4,-2.5321860656781663E-4,2.609965414967949E-4,-5.557867224052803E-5,-5.989007289495198E-4,0.4286381371986021,0.4317727141016616,-9.411355622109766E-5,-1.0250980986357668E-4,3.3780123389613075E-4,8.679463969870053E-4,-1.988429387584467,-0.2568973410224754,-0.031880526411380214,-0.42896642844797855,-0.02618100472581439,7.476893134639316E-4,0.15688353436054017,-9.123805473479872E-4,-1.687306886728095E-5,2.8498757647341675E-4,0.007768061984359725,-0.46891775882167563,0.5506582120411615,-0.16839255639999848,0.434792411751237,-1.5160873910569643,-0.9379339021769044,0.48189458810492586,-1.512387838658902E-4,5.282365938717175E-4,3.572915638241352E-4,3.648354403980389E-4,0.009201040856020805,-1.2472322939499851,9.498405979045693E-4,-7.028472984420434E-4,-7.335736737953116E-4,1.0435468977310751,-5.0971069284908E-4,-3.9014410350082275E-4,0.44856843959729065,-0.2257709908356914,-7.243545595290307E-5,-0.039876940420174395,1.0932247845740588E-4,2.336317576415311E-4,-8.54529393629555E-4,-8.54529393629555E-4,-0.010995758008379264,5.86965450090715E-4,-6.067890063817702E-4,-2.485322395612095E-4,-0.007053145248957787,0.14680066804977962,0.17322571383396967,0.08322286813165738,0.009622698127997813,-6.72192779076121E-4,-5.836220995121388E-4,1.6359605744980863,-0.6780960344150323,1.5751160839448598E-4,0.5620753116150135,-0.07395464402401045,-0.049861696873580566,-9.874388110990156E-4,-9.874388110990156E-4,-7.823643240536503E-4,-0.10051016491426192,0.25671100224251153,0.48564291514218955,0.48564291514218955,-0.43787123441807846,-3.0334065449809985E-5,-3.0334065449809985E-5,-1.0386356863993597E-4,-0.007915567680508908,-0.007915567680508908,-0.006738685962580808,6.05014485812851E-4,-2.6690435637719565E-4,-2.6690435637719565E-4,9.050553417741395E-5,-0.047354282439573014,-0.047354282439573014,-0.047579880725946225,0.28326914447639934,-7.657459650593744E-4,0.6716711080024128,0.6716711080024128,0.6685664202970232,0.330003126100392,4.108249023274048E-4,0.0896055498499517,0.0896055498499517,0.21532438839243187,-0.19294668725622402,-0.1533757553521321,-0.5471514077600355,-3.52847439220045E-4,-0.05737663145843631,-0.05737663145843631,-0.43471725140657735,-1.028698737905353,1.1500522559798219,-0.19668685047954276,0.0852724000249279,-0.34070566636117916,0.1579209852374575,0.1579209852374575,0.27370810889106556,-0.40979073088129125,-0.0899518570913409,-1.638580749782252,0.5431237398092874,0.6767911848378383,-0.23224005150976154,0.903431901304438,-0.5322790727800274,8.248391597436996E-4,8.248391597436996E-4,-0.13877463197334186,-0.23094474961776204,5.153601791177734E-5,1.1689586678415917,0.7353447971004132,0.7353447971004132,3.083438128477989,2.9588014954920645E-4,2.524984990618243E-4,-5.574024607263626E-4,0.22453646338857317,-1.9502963050722533,-1.0805680141795502,-5.490140807468073E-4,-3.972808655588495E-4,-0.7965259126441206,-0.1963684447973416,0.20876622076854837,0.6164257697205737,0.061277761985086894,0.28787494388702095,-7.306881593027747E-4,8.032635779254996E-5,-6.780756504314021E-4,-0.7176205749932671,-0.6419969857450869,-0.19275778040278396,0.10617090297858076,2.9211442441647497,1.7418990735021123,4.5092707894994755E-4,0.22433665064598485,-0.41585470408474756,-0.35936607958372124,0.7120395791716692,1.1269042066251145,0.8929402114925735,-0.5579741253776972,-0.08099739517044738,-0.11574070778283814,0.3356889820834388,0.9423720149684246,0.06739623666865775,-0.07787978622747037,1.044304117294101,0.7310819253944617,0.04541484619654134,0.09794809344284837,1.044304117294101,0.8049642328500537,0.8049642328500537,5.156522474990948,2.112932130476229,0.8049642328500537,1.044304117294101,1.044304117294101,-8.16148720720946E-4,-0.007156489503890803,-4.802107987118172E-4,-0.1165904115866114,-1.2146153664423362E-4,-3.951088524487989E-4,3.9004241171722634E-4,-0.06877433871280843,-1.2439369731415846,8.569260918864496E-4,0.06938867316587194,-0.14365833113804322,-0.29537150918976407,-0.9614846792061671,2.303168897762602,9.044679255391926E-4,-9.722302542336327E-4,-0.9004536495332034,-0.09321769455490572,-0.3399697170258533,-0.2471892591777553,-3.3472062110044424E-4,-4.5505619380230636E-4,6.158815589562888E-4,-2.8668976450848014,0.06739153861338246,-4.058971527713826,-0.24000505908763667,-0.5796408616639251,-0.097127734646455,-0.24824187191300168,-0.1837467969526848,0.47890142975596245,0.14256167086743388,0.39513125913280955,-6.359238061394632E-4,6.035681104911588E-4,6.035681104911588E-4,-7.410921936246264E-4,-3.0441452179402866,-8.360175924082645E-5,6.932257475348068E-4,6.932257475348068E-4,-0.7070687761894713,7.529322240655276E-4,2.7008407649532404E-4,0.3268766122206834,0.2126766562034735,0.7112013227387578,-6.745767026673501E-4,-7.362477669773086E-4,1.6593077479908915E-4,1.523904416188298E-4,-1.817811690685622E-4,4.56638846293437E-4,7.38558646795979E-4,1.523904416188298E-4,1.523904416188298E-4,1.523904416188298E-4,-8.608517158964313E-4,8.841600460525138E-4,1.523904416188298E-4,1.523904416188298E-4,1.523904416188298E-4,-0.08243010002920484,0.24113773360493718,0.21541666427595169,1.0358665723874037,-7.63777557092512E-4,9.536940870147239E-5,-8.406157256327855E-4,3.2179693748749004E-5,2.740230238166771E-4,-6.605134480860682E-5,1.330747865446258,-0.0077989421372248475,-0.338843923236874,-4.400483921036518E-4,0.47975543787671543,-8.286203625311115E-4,-0.4873701301065351,-0.002405318587935003,-0.7297827300689622,8.24777010934955E-4,0.6933541720816542,0.6933541720816542,2.8843202903615923,-0.15827808254744113,0.6933541720816542,1.0337543576222123,-0.04894212015545028,0.5000795704533739,1.3730894101132533E-6,8.710717496352777E-4,-9.984493846715836E-4,7.971657345445258E-4,6.145110180732067E-4,6.736408815068579E-4,-0.005263183936672617,-7.797720699721967E-4,0.1255626438018117,0.5001676230346123,0.5001676230346123,5.462746433211662E-4,-0.2210228631393442,-0.19622698101418512,0.5995344539065569,8.591407933496619,0.46368442722584663,0.8500686087892004,-2.2696657564805548E-4,5.610541029278855E-4,0.5511736253878361,2.7314639880215508E-5,-0.5638419092146788,-0.45585346328466886,-0.8935170324161873,0.17085547924685593,0.19008909264087667,0.19644005731509606,0.6744521301470137,-0.11819409148225413,-0.3005397546703598,0.5777157363398875,-1.3990765830284704,0.26489530042445475,3.8229070291583207E-4,0.024943762085143848,2.057683538501401,-4.548468060879188E-4,0.3851327852820106,-0.49461705360500435,3.188232851161016E-4,-6.829704598917911E-4,0.11042417615705402,-5.103672659818808E-4,0.2729953981513442,-2.0128179861595235,-1.1140251151273888E-4,-0.020596297571080308,2.286344908090654E-4,3.617323618932847E-4,-0.8527099672636803,-7.236498363882659E-4,0.1434934113315058,-0.46698626043829344,-0.10957684209942829,-0.6748012390999558,-0.5948130864630958,0.4392113403566161,-0.2103267226447691,-2.2357536652983843,0.2406945640369872,-9.371329033698894E-4,2.740406211026214E-4,0.49368372746277034,-0.42376031993025587,-0.2897495448117168,-0.13469295322001928,0.09372880692050639,5.774001484878887E-4,3.103330840219553E-4,-1.0820795834534573,-0.3855184289697135,0.18853095828028202,7.877839533430778E-4,9.752621821452347E-4,9.750503696684901E-4,0.4659686431234771,9.924169192636742E-4,9.924169192636742E-4,-0.2735292899203788,-6.228354898640288E-4,-0.0036588090289366784,-0.011227458302686484,-0.011227458302686484,0.6048607398600998,0.2573352651652193,-9.95471910545281E-4,-4.73835445022544E-4,-4.73835445022544E-4,-2.6112189587741306E-4,-9.168750195498992E-4,9.931269500988008E-4,0.21766789489616017,0.0677495235975196,0.22228274458639102,0.22228274458639102,0.6900271594103763,0.30649601577798474,0.43836229112182906,2.6779887411901315E-4,2.6779887411901315E-4,-4.8031675840383263E-4,-0.17119182576546363,-0.025879145655648993,0.3537054539753613,-0.11232093687077208,0.22025663886833327,-1.1849148754049845,0.8274746308570926,-1.292914783741514E-4,-8.185791825232516E-4,-8.185791825232516E-4,-0.3515349596442703,7.392568638397181E-4,-1.0413747000567698E-4,-5.891104275626504E-4,5.799214444856561E-5,-0.11301886018087068,-0.949779456526325,-0.949779456526325,-0.31240191413018364,-0.09838995214831325,-0.4039240512455167,-1.1361195832369166,-0.2783207264168718,0.07453571337401509,4.338032702635088E-4,0.02038969919456643,0.02038969919456643,0.08213334331491257,1.8367854945922839E-4,-0.3738912752142767,0.02038969919456643,-0.05909985985754587,0.07526904398729731,0.7202034194628069,0.202492134822951,0.7255815461446374,-0.02648163558485294,-0.5146304336110925,1.1129873726360442,5.478178533251427E-4,9.033931833863492E-4,1.2807418056128657E-5,-1.2782861563815517,-6.879808744246174E-4,-3.655488924071289E-4,-5.04790649714799E-4,8.998607823404491E-4,8.998607823404491E-4,-1.7328534543465909E-4,-0.029419349676562387,6.434700029323214E-4,-0.028555728996529372,9.597088011153114E-4,-2.706304124486202E-4,7.583594564594882E-4,-0.41723029952214574,-0.41723029952214574,-0.15216730517815252,-4.022414591400511E-4,3.578519255427277E-4,-0.41723029952214574,-0.028672459857192304,-0.02844285160008056,0.8148019659091605,4.6012535964408006E-4,-8.112030445474316E-5,-5.87498312875927E-4,0.275535589150705,0.281237664083766,0.1446749144679097,-1.617262285298999,0.5568641163099384,-0.2563447968787977,-0.17617704288138816,-0.11085858877741137,1.1063363026169026,-0.1739675978598492,-0.49226693728883725,0.23224467677087754,3.696003763438841E-4,-0.32617209878079545,7.477682505040227E-5,-0.9422643021183613,-0.004223997998662571,-0.004223997998662571,-0.8638050590653622,-0.8745426606800194,-0.5750205507216118,-0.3838070118676401,-3.914802111669842E-4,-0.4696093762630448,-4.786956681452441E-4,-0.23611221466827567,1.4860555030332353E-4,8.200254490431174E-4,-3.3897562211805915E-4,0.8781251001249626,0.8781251001249626,0.3481984651813603,0.6305202529712897,0.30461069623541726,2.3041000608923622E-6,-0.4950804783253346,-0.6248822014740235,-4.74574634780981E-4,0.6393789508307716,-1.1704247437761794,-1.2552586132935466E-4,5.041787614572023E-4,7.077203443492102E-4,-0.6342311938355029,1.9124523715801058,-6.786644029967588E-4,-0.4285874622800612,2.0509898625803414E-4,-0.30828217760579685,0.9662978980498959,-1.0763854055514788,1.2898677093974915,0.661811944668053,1.8932123057136134,4.350073067270943,-2.596546044122709E-4,-4.729568761745184E-4,-0.32960055698347895,-7.035894160105079E-4,0.008254933860950464,9.003965225588416E-5,-3.4856891132556346E-4,2.9967530493131545E-4,-4.935960013670185E-5,-0.5469908960690285,-0.5469908960690285,-0.3939783515359753,-0.18916565156264256,0.016883807122004164,0.10547278603834229,2.680902736928192,-1.5272039784792126,9.037652388894635E-4,0.17365536327147305,-0.001735837968989544,5.962133462399052E-4,0.38152994203261315,0.38152994203261315,0.8332653646589224,-0.8408425274464171,-0.13638826432407553,0.7299433110719769,-0.052061083602565006,-0.052061083602565006,-0.22950333311965293,1.4246322097403845,0.018810714976862056,-0.5588147228477752,-0.24459525250650035,2.3788884775835335,-0.254481682248646,-0.030910905425766255,-0.24459525250650035,0.38007734044446995,1.2811750600092269,-3.8077337152015583E-4,-0.2420155670895128,-0.42608809359738736,0.04635685579511102,1.5461533651477642E-4,-1.9030158651000954E-4,-3.285257588053575E-4,-7.060276536214356E-4,-0.19051648660756618,-0.33343145543394603,1.1582331186082413,-0.16595319118672308,-8.778505953462839E-4,5.249415755287092E-4,5.249415755287092E-4,0.649101129616769,-0.6720349672295458,4.3737174859072477E-4,0.5820290803155141,-0.9133897906114098,-0.6556505310152829,0.9329918904613157,0.9329918904613157,0.21573282919744308,-0.11267706143435297,0.2160899604153425,1.2606496008658126,-6.034600916255844E-4,0.13829971339724642,5.589511621632796E-4,5.589511621632796E-4,9.204094564695369E-4,5.973816284204276E-4,5.589511621632796E-4,5.7391837678783E-4,-4.7255410926337485E-4,-2.971150404607766E-4,9.744540040743041E-4,9.744540040743041E-4,-5.029753905395763E-4,0.3808832635539068,9.744540040743041E-4,0.8166432687194543,-0.7769435928509459,0.4953693890553693,0.2695428235475914,0.509497524221412,0.2897120875463891,0.2235147736002749,5.31243636863874E-4,-0.8799474694686791,-0.8799474694686791,-0.4579855807786389,0.8847615074267934,-0.19671409107466914,-0.834481958798112,0.0028954509983302517,0.09036896835064175,-5.44427416579565E-4,-5.44427416579565E-4,7.008821643140384E-4,0.4141451964044977,7.599694965282114E-4,-2.9735246161409143E-4,0.33799381813710533,0.33799381813710533,0.3591337072770495,0.19569499364632956,-7.267855323051387E-4,4.38488199069702E-5,-0.3438236665049059,3.2802987524239047E-4,-0.007104774436392859,-7.656866421469298E-4,1.9512272690486686E-4,0.29935592747536444,-0.0054663127880005685,0.33710086879632545,-0.1869220063978836,0.29935592747536444,0.29935592747536444,0.29935592747536444,-0.08069103266586485,-2.6304742184344914,0.29935592747536444,0.29935592747536444,0.29935592747536444,-4.679000859122074E-4,-5.054793232264795E-4,1.5580237719269485E-4,3.902220860727843E-4,-0.08887770069407536,0.5336003109018671,9.183607381453526E-4,-0.14186590178227204,-1.668523060215048E-4,-9.143719359209018E-4,5.35357794466568E-5,-7.384596124863712E-4,-2.921748667292646E-4,-8.345089324669085E-4,3.7933074757116197E-4,0.208899961981236,-0.002704301936319659,-8.343703412995654E-4,-0.009814399137061289,-3.1310740431230344E-4,0.5689499040565439,1.3882984827577936,-0.22336166552137093,-0.3420774043740986,-0.09582702006031434,-0.07592441650529036,0.32377680880053705,6.044873179242378E-4,2.3543690567828833E-4,-1.4374899254988144E-4,0.3665795283991977,-0.025156131270106505,-0.22821447223153293,8.678169978524996E-4,0.1348052422923167,-5.153327235075146E-4,0.12413520029700145,0.15263932814342532,1.7251405457574336E-4,1.476782080136181E-4,6.235878622513669E-5,6.235878622513669E-5,4.335730848474221E-4,-0.0021583076570871875,1.2491303415277104E-4,2.0359570925066106,0.4839981777517143,6.78757084579609E-4,2.941479410997568,0.16091446728476835,0.19546073758723725,0.013092959554283058,-7.131207424381967E-5,-0.2448998972607407,-1.910254733418341E-4,-1.910254733418341E-4,9.820897257639609E-4,2.1178020571201845E-4,4.910177723666687E-4,-0.047468548359323605,4.534735884264315E-4,0.4572983326500931,-5.737687385368621E-4,1.6591460316431854,-0.040587785018052186,-0.22135387223990713,5.722032820667379E-4,1.4989913489876197,-8.572602651784471E-4,-0.01212175224212744,9.740924545115211E-4,9.561642404672501E-4,8.194333330010384E-4,2.957047971887831E-4,5.580623803471416E-4,0.42277093132859234,-0.04283363628634339,0.3228705946774906,0.503222898768865,7.332128722528989E-4,0.5698608395072631,-0.04050832124209721,9.189924543642281E-5,0.7948551297167391,0.23956490765950098,6.950725837006301E-4,-0.1417478074672962,0.7948551297167391,0.9153709313432042,0.9153709313432042,3.0294761617110866,2.911209007860541,0.9153709313432042,0.7948551297167391,0.7948551297167391,3.884600986917056E-4,-8.68802057846338E-6,0.10147760906954975,-9.331244085008213E-4,-0.004918500776465088,-0.3419367900914559,0.454756239714174,7.268822632907929E-5,0.20254876984002107,-0.02993836516419655,2.612750354564113E-4,-2.5866772320851756E-4,0.2298108276583315,0.7793798996456089,0.7793798996456089,0.3989823533987316,0.15535788963218589,-0.762993423777203,-4.2711591998574594E-4,0.19053176563567958,8.759382846374082E-4,2.358043584212027E-4,2.358043584212027E-4,-8.398954767772448E-4,1.0620830408718929,-1.6900408602324446E-4,0.16637944478429775,-9.360099064705254E-4,-6.457415073542029E-4,-2.1838045125138067E-4,0.14920862136038576,0.42475153410777294,0.15612226982795793,-5.984253591538222E-4,0.05922797092471416,-0.7218203178180743,-1.3030430539560088E-4,0.5543265166623436,0.090827189342021,5.07044413166736E-4,-0.09125321132361705,0.37816885551278734,-1.0768535634837892E-4,0.39560246473452093,-8.811969138884675E-4,-9.086917910563875E-4,-7.446913828667885E-4,-5.023649955617882E-4,-9.137796474971698E-4,1.0470580172279738E-4,6.5621653108365E-4,0.011240160079980925,-0.6169269895186691,4.3178904033008684E-4,-0.2844500280636279,0.4795160164858724,0.4795160164858724,0.9922515066423861,0.4795160164858724,-0.42300838970217297,-3.21909654199725E-4,6.50656213222592,2.395172126393353,8.935264262007523E-4,-0.9336003061835145,-2.6746141158103735E-4,1.4669481134457756,-0.2653887942683769,1.664080214150909E-5,-0.034892206873354564,0.5136206284515701,-0.43079095388155136,-0.24802057742779426,-0.31979376163071027,5.625523908138149E-5,0.22489399012560204,-0.1712957377531452,0.039496864071756004,-0.2300714237396387,0.08412327679843772,-0.0015777961677924525,-7.240310415896731E-4,9.364207786772912E-4,0.2893340508777186,0.07906286523490193,0.10488743724458269,1.1250194189895857,-0.4336838958954134,-7.385373775569211E-4,8.856205112116908E-5,0.31495206462357067,0.3351788956719521,-2.203418641492543E-4,-9.367197985790622E-5,-9.991462893709992E-4,5.654320454583743E-4,9.87901339209924E-4,-8.18871659062191E-4,8.896716325574519E-4,8.420332648278453E-4,0.02840353263589687,-8.101952288519463E-4,9.535528121973545E-4,0.25398301174707577,0.07350855789911005,0.367387318904901,6.562600114065472E-4,-0.23714465741490992,-0.16034839105713541,-0.002551303332569252,1.5113360733801833E-4,-4.554444408309047E-4,2.911066555100199E-4,-0.7320902681475498,-5.890694237616198E-5,0.8417159120494684,0.09978264781224666,0.1529564037785376,-0.09870649642471917,-7.465997434306015E-4,-2.3362954350759804E-4,-0.41581183958134915,-0.12292546875503302,0.10904906338287618,-3.993526309563701E-4,-0.609434256941661,-0.7856562955638537,-0.01191971658303025,0.06347971892235946,-0.277285055159837,-4.530879887624179E-4,0.5883112757237234,0.397288730726259,8.60986624331864E-4,-0.1175132981441163,-0.18778090012052578,-0.12425170865194848,0.05832080214630734,-1.379912598955997,-4.3881642854612314E-4,0.47053606962643313,4.989785265181626E-5,0.5410763582882698,-0.393347382758472,-0.3933251769161731,-0.3933251769161731,-4.35804620597972E-5,-1.481519029120645,3.82735580916109E-4,0.029034614350704462,0.5407555601407764,0.5407555601407764,-7.369753476739265E-4,0.362275674132475,-4.073568260369655E-4,0.012552590100728903,4.898759701898516E-4,4.898759701898516E-4,3.161184820932371E-4,-1.496504051542632E-4,3.161184820932371E-4,-9.866154459713984E-5,-4.960561860116821E-4,-1.8206499545759056,0.04005897959929793,0.04005897959929793,0.14017844542181765,0.7245766767566121,0.14017844542181765,0.5391246411218595,0.011275636894633047,-3.853148241190832E-4,-3.853148241190832E-4,-3.853148241190832E-4,0.12380489402020635,-3.853148241190832E-4,-0.7911987443637548,0.9881603451980474,-6.841492799884812E-4,-6.841492799884812E-4,5.336042430089422E-4,9.890096753431422E-4,4.4132558831000163E-4,-0.006979501619557207,-0.0032015195862826885,-3.7871463384471504E-4,4.745077435441619E-4,-0.32916645057316285,-0.32916645057316285,-0.23482608314454498,-5.272835355407354E-5,-0.005369547496703063,-0.32916645057316285,-0.009503959214737633,-0.22291316718558604,-0.0015139724566399634,-4.232861619286356E-4,9.467816856422629E-4,2.3215441411490972E-4,-4.352577535490583E-4,0.768902076299527,-0.048744120532245604,-9.226567016884516E-4,-7.650803029112981E-4,9.563880335059039E-4,8.844644433587891E-4,-0.23284785979268316,0.23623144485435466,-9.12142133242934E-4,1.285639603671874E-4,4.4374762111558256E-4,2.1824238707685375E-4,-1.1391015500469246,0.4736075798811081,0.19043993787252664,0.19043993787252664,-0.2989588599511009,0.8755377718684001,-0.27968697772362155,-0.42555425927656026,-1.61226620622724E-4,1.0782021610924952,1.0782021610924952,-4.6630176605733743E-4,-0.7421804321266393,7.416641917983459E-4,-0.006010434392887409,-0.006010434392887409,-0.021841594853480917,-0.14246566592530793,0.007432081412530564,1.088834827007387E-4,0.2938924257574697,-0.06777983116526157,8.332970395646635E-4,-5.923031422039181E-4,5.833507490093302E-4,-0.1047357811333362,-2.721937005567437E-4,1.0818448328244097E-4,9.24488714338968E-4,-0.1047357811333362,-0.1047357811333362,-0.1047357811333362,-5.249577741962006E-5,8.016215411144001E-4,-0.1047357811333362,-0.1047357811333362,-0.1047357811333362,-0.025942089114903054,-8.891287422701544E-4,-3.756875567927096E-4,3.7419892663690985E-4,-5.471342845293727E-4,-8.725564252964176E-4,-1.1797579379403233E-4,-1.5173403637322403E-4,0.12646462460001026,7.061795298343239E-4,4.816792029015834E-4,3.2498469693411345E-4,7.965525698115118E-4,-3.1694569753022554E-4,-3.7664424228304777E-4,1.104098943098716E-4,4.972542500015162E-4,-5.414260413129513E-4,-9.345184144560563E-4,-0.4878964941886985,-0.4679192912408752,0.21335515760304832,4.2732061924203246E-4,-4.466500871574409E-4,-0.25863939137584485,0.07332047054766372,5.136702915479862E-4,4.476514976350244E-4,6.149824213400798E-4,1.8784953528620796E-4,7.230182384844516E-4,0.20906052853310642,0.20906052853310642,-0.35245692603071693,0.3966400743654099,0.09832782410358554,-0.5308469846751139,3.7146899541694637E-4,-1.454340930143786E-4,-0.4196235896338141,-5.411942051531263E-4,5.159349920329002E-4,5.159349920329002E-4,9.211239189248269E-4,0.38021416855567486,5.37544180591444E-4,0.4202398771072237,0.7627623273067262,0.7951658124266168,5.583961603069761E-4,1.749503394641572E-4,4.346010859827027E-4,8.58320610887199E-5,7.045196227542788E-4,-0.013232133134737404,9.015786420829325E-5,-1.6130300315280659E-4,-4.0115061288547075E-4,8.364917680127716E-5,2.6043936002141633E-4,7.768350828181187E-6,-9.368077584806806E-4,0.28671859510787434,0.08966149943152645,5.360900233295288E-6,5.360900233295288E-6,-5.567699872128712E-4,-3.675066787879773E-4,1.545461634397675,-0.6112627186714052,-0.6112627186714052,9.209368162430604E-4,-5.669728148657203E-4,9.209368162430604E-4,-2.3914170002438526,3.3214222486473117,-0.11837891394403871,-0.10950528422049205,-3.771430167693532E-4,-0.29673802996504334,-0.16283814723130247,-0.010022346804580362,0.31370190942250625,-0.10210240965038377,-3.259818587652757E-4,-3.5802242393615804E-4,-0.4937218234484357,0.6357129474728709,0.6357129474728709,-8.184614834853836E-4,1.0975580264260512,4.0819748792803815E-4,-0.09534094616578175,-0.21152395147624029,0.3575506175921177,5.821884621555508E-4,0.8864866110280976,-0.15965276635356038,-7.45865396867702E-4,7.886178236494201E-4,9.50607823472304E-4,4.3078328463739385E-4,9.772690232458174E-4,0.02229468812595126,7.846295847995837E-4,1.835426101646474E-4,9.420752065601435E-4,0.45868033488291093,-0.041068147571071925,-4.183377138703738E-5,-0.3302532721838269,-9.011854154080561E-5,1.2672596948589054,-0.14110670865270403,1.3721673036923504E-4,0.6319738024593083,-0.09363728555084531,0.10090586225129206,5.502025136495969E-4,0.3261177139407456,9.834118503973784E-4,0.29394995999500906,-0.6977142875226539,-4.479652974465288E-4,0.8612448084173903,-0.07502672164726878,-3.4705583042590586E-4,-5.232680166057844E-4,-7.238748885257957E-4,0.16374781824899262,-0.03898860579843918,-7.368212874728222E-4,-3.4627663652216225E-4,-0.24085277633131033,-0.6724279769064341,7.980820394668844E-4,-3.7383925546502494E-5,-0.17865156794477893,9.279631247631035E-4,-0.3913253460622098,0.26444788520575546,8.652841095563649E-5,-1.033741800726569,-9.998082453386264E-4,9.980044580738428E-4,1.2928980065962572E-5,1.2928980065962572E-5,-5.180970799777011E-4,8.461744632876759E-4,3.0453641538802606E-5,3.0453641538802606E-5,-4.396242795373448E-4,-0.0042261373053992975,-9.999549654184903E-4,5.813235330475345E-4,5.813235330475345E-4,-7.835948824983324E-4,-0.1828541948624027,9.675455865486911E-4,0.14948336146095065,-0.40217431542888676,1.0127429617309835E-4,0.17120850006757507,-0.11125442457684619,-2.3273323255191728E-4,1.1469824051793323,-0.3960422535471245,8.696453219368474E-4,-0.3226108460690046,2.045489012093215E-4,0.25966944168994427,-0.10234132242649172,-0.1781531232087648,0.5106197529465681,3.861197797144103E-4,1.8243239452587828E-4,1.7080650092291856,-0.2924058607758564,-0.6015858037551456,3.112525489987781E-4,-2.6181543758103975E-4,8.479282654092694E-4,6.359239630851707E-4,-5.073294632242241E-4,4.898635900365384E-4,6.492729793003448E-4,4.3405255262253853E-4,5.749301766592601E-4,-5.638068944914488E-4,-5.225183818394603E-4,-6.298424998278024E-4,0.3220773751174996,0.7055393117226946,0.5101358847126642,-0.33585108039954653,-0.20701227302879524,-0.07350295527650606,1.8770230215587542,0.05776704144996705,-5.112586391783475E-4,-6.600973121016717E-4,-0.11475485509442737,6.143538514688307E-4,-7.166842545907606E-4,-0.009532572514785186,7.150557238880663E-5,-0.08696037115309255,-0.020611113051157856,0.20945924883951128,0.0999325816882324,-0.05028369612315396,0.008159527014040388,-0.32876671431700233,-0.7226153171869784,7.402690884782296E-4,-2.452017134264208E-4,2.1342205319498033,-2.3990261091841325E-4,-7.055957166964451E-4,-3.8559578681260853,9.570183072151145E-4,7.772531374849098E-4,7.772531374849098E-4,9.837384619801322E-4,-0.8349952604425007,0.2030011972311401,0.10798303811009902,-0.27546577338234823,0.5447124991121632,-7.721896619514461E-5,-7.721896619514461E-5,-4.557053314532757E-4,0.2588034716376205,5.551019607950256E-4,-1.1736648820276255E-4,-1.1736648820276255E-4,-5.851032110744821E-4,-0.5509385447856513,-1.1736648820276255E-4,-2.316959774241705E-4,-3.0804307342119374E-4,1.0763006446655796,2.089840666445426E-4,-6.324008458550936E-4,7.628173818893746E-4,-3.8736692093192826E-4,-3.0857208875331667E-4,-0.018939178217897742,-2.779114936324083E-4,9.482626576001245E-4,0.5602494607564334,-8.104804820604039E-4,2.2408811028331265E-4,-3.61909515672502E-4,0.24674590183867146,0.4975137170163682,-3.6165984499110645E-4,3.1264726098947926E-4,8.001923494954721E-4,0.4824304432667609,-1.3469278886577138,0.5813677970478845,0.5813677970478845,8.092818492800459E-4,-4.296083484010854E-4,-8.921450146666297E-4,0.020637079801909326,6.178343537911129E-4,5.779451591604919E-4,5.779451591604919E-4,-9.152198615311832E-4,2.014014229154567E-4,-0.1252528294456682,2.7463553301323605E-4,2.0150251755096963E-4,8.02383054133115E-4,0.3162104327231557,9.155835170708334E-4,0.15056951768649124,-1.4705924292860817,-2.3546966696878484,-0.682164766086351,0.15156859718119695,2.676388089799459,0.3189665442746501,-0.38931759913935426,-1.9075182814957004E-4,1.2658164858499546E-4,-0.5229075603580011,0.7291215803312738,-0.9515273635945637,-0.06624058828597994,3.420225127467091E-4,-1.5989895761007696E-4,-7.434156531140317E-4,-3.4488635112512483E-4,-0.09415819581911224,-0.23051986565435806,-5.147941907915053E-4,-0.10178118929603353,3.0348286061882663E-4,2.1751828200828895,0.17410985398704132,3.3289236589746033E-4,0.34803327346724544,-0.06739851172826547,0.7772704829984571,2.050943658159799E-4,-1.2761788161156013E-4,0.4255387211756856,0.5351335258181283,2.6052729100602004E-4,4.0646004382501673E-4,1.58203073532346E-4,6.397548446905425E-4,9.925987797325762E-4,6.840709583040962E-5,9.622425594152924E-4,6.34053470937044E-4,9.752541158989056E-4,6.167852656327082E-4,1.5009010134811335E-4,9.144927454447262E-5,2.4738043757741055,3.505375689506966E-4,-1.5182299043475203E-4,-0.9838591324398569,-0.13956183656113846,-8.140393532092173E-4,-6.650633974535731E-5,6.699522878048503E-4,-3.8636438506127403E-4,-0.04059440188302084,4.994116234279305E-4,-4.4878916327892684E-4,-0.27351234224268256,-3.3928555709862856E-4,2.838056435985074E-4,-0.014501580573964825,9.013303335287555E-4,8.239635914338345E-4,-9.893407957105348E-5,3.144373948330844E-4,7.69363683109678E-4,-0.004383395657278188,0.1304512502033493,-9.319660419000028E-4,0.05431372722560503,-0.09917416244780908,7.012590778579543E-4,-1.346749210065657E-4,6.607760156828E-4,8.444102764704968E-4,3.053303667007196E-4,3.053303667007196E-4,5.54243915624328E-4,5.54243915624328E-4,3.3576305022328234E-4,-4.062796937771432E-4,0.24064042315040035,0.05826244074389553,-4.3365726427921944E-4,0.055903179582467336,-1.3957949349428138E-4,-0.057567224564881815,0.07981732443097496,0.5823608374501655,1.377195272151806,1.3160397022460824,-0.20402184487218744,9.460932229697211E-4,-0.2011306288079479,-1.0529852041873218E-4,3.820067495546532E-4,-0.0016153076970070379,0.12147637007162547,-4.1179847832558466E-4,0.014799462300170044,-0.5374174063110599,-0.43540150693210156,1.4401004276019693,-0.38892579077391554,-0.6648239199409302,-5.300456473962056E-4,-0.5214543397771811,0.6684118411319238,0.0845881846643524,0.5292149801964553,0.5292149801964553,-4.99132083037337E-4,8.065364970271393E-4,-0.34946476320657394,8.461283064199461E-5,1.5362013071395164E-4,9.065713602225906E-5,-0.16162645807738213,-0.014749209458792746,-0.014749209458792746,-3.4639899970522413E-4,8.38902752101653E-5,-0.06157445643645232,-0.230852231320031,-0.11432448215080687,0.6072892591764564,1.9298915938935184,-2.6904293411469113E-4,-0.0878269327961395,0.4472246760640394,0.061379169390805205,-1.2966777163574923,-2.100550413939792E-6,-0.010118613883993348,-6.22371946731478E-4,4.925711944896657E-4,-0.4180697896973007,2.697419476875212E-4,2.697419476875212E-4,7.206538715145679E-6,-9.139586071412031E-4,8.263889604334762E-4,0.09568067240574973,0.0026508142579243403,0.2500876884191687,1.0353733911926213,1.2710198126948202,-0.1749718327104221,-0.028417174799686154,-3.715032052140064E-4,0.17352899614980904,0.8427599443477092,9.288251401739344E-4,6.053781978894758E-4,9.207602288412312E-4,-3.697275874124965E-5,3.371674251115503E-5,-7.136808644863996E-4,7.338938924148228E-4,0.6180483381898705,0.6180483381898705,-2.1806829305751584E-4,0.6141892936264258,-2.1806829305751584E-4,-0.7140116633419175,-0.17364176242095208,-0.17364176242095208,-9.064637830591291E-4,-0.10445793799552122,1.9813164941182926E-5,-9.576412097383144E-4,-0.19659787280362495,1.690801001460226E-5,-9.579518532247863E-4,0.1318188081453716,0.1318188081453716,-7.982229255730452E-4,-2.8656466771164303E-4,-0.43526112079232193,0.1318188081453716,-1.5299492866636462,0.1609279271524826,0.5062175660142902,0.21643129197395689,0.3975259170346682,6.473606780176679E-4,-9.492285975295601E-4,-0.4821144963896426,-0.01230864613776975,5.4862554505950736E-5,-1.559579271519685,-8.592440529535314E-4,-0.062058659379258266,-6.199549010832972E-4,8.240692742338462E-4,0.4081390362996476,3.136938030827833E-4,-0.02967497122460437,-0.043392558686248285,0.0047572794938546235,6.42155721591108E-4,-1.7080682370799148E-4,0.14137233967998145,-0.019756400041862545,-0.08825806575113183,0.11581799723910471,-1.4567525021264363E-5,-6.321766390481182E-4,-1.0241640516175964E-4,9.685822348672758E-4,0.21764824469241695,1.7843205681747657E-4,1.7843205681747657E-4,-4.1159797780855416E-4,-0.3327149812478152,-0.07387496533724949,-0.07387496533724949,0.18571877431989314,-0.26210122212653814,-0.8487879762175907,-0.16302932596418274,-0.3071411803973842,-0.4375909975213337,0.21239278988413968,-0.38393624396207016,-0.03316063577197375,-1.9378739460769272E-4,1.932928174547433E-4,2.329874905958667E-4,-3.254479691355227E-4,6.177184007807818E-4,0.49018074765791286,0.03485740775325861,-1.3019918436632364E-4,-6.139592269647042E-4,-0.0437604854269348,-1.0012474756018134E-5,9.708096686728871E-4,-8.548414765906519E-4,8.219060192285791E-5,-0.13398179435940305,-7.919580387487058E-4,-1.2864151563330743,-1.2582542777616083E-4,2.18167451728719,-7.808723876108126E-4,8.989967857374989E-4,-1.6237943175778516E-4,0.0013786825556756574,0.47982245158416226,0.3130330545023624,1.9035987533118576E-5,-0.22761289412385854,0.19998454037056423,3.97043483519614E-4,-4.7816940277842137E-4,-4.7816940277842137E-4,7.925399783173213E-4,1.004798900252409E-4,3.542914044716745,1.4877573688366341,-1.88421437387874E-4,4.986185249155017E-4,3.0009128832675066E-4,-5.188555596350071E-5,-3.201426824734758E-4,2.7861369068706314E-4,-2.2331002750303197E-4,0.14442858952774992,0.0780263281654873,1.3990957602565954,2.913376600183227E-4,0.45262899668640966,-1.5238002210658212,0.05565518088342734,-7.278054361016539E-4,1.3788392909451182E-4,-0.09206983600404665,1.6936664453315125E-4,-0.1862918707289086,-0.28942755135154946,6.535156688705862E-4,5.423332430551338E-4,0.47558281257956736,0.30071844028655714,2.9364924244248817E-4,-1.9083716848106419E-4,9.54226429006934E-4,9.54226429006934E-4,-6.00414037695003E-4,-6.66807119394403E-5,-3.383213745576031E-4,-3.383213745576031E-4,0.4715200295829003,-0.5455930250534577,6.472295786530088E-4,-1.5985805368519347E-4,-0.001550026791497724,3.7589970665812016E-4,-2.4218188052618044,0.30115734254448645,0.2851779582385794,0.6987231936302245,-0.07319635656143776,1.5611473806842258,2.8027231745509806,-5.321939622123816E-4,-2.917069447366295E-5,3.636885677868334E-4,6.878383238806144E-4,-2.275724953359709E-4,6.34886031247086E-4,-0.15766196791675396,-1.5583655571620736,5.597352332472824E-4,0.005246997436558442,-0.13706554420291692,-0.6116994849737806,0.6340538423001404,-7.049904114177882E-4,0.2118465077293959,0.7313378240259082,-0.1095540839624671,3.8073956297851055E-4,-0.38526195058093904,8.042622758048655E-5,0.4785101114969002,-0.3515752064678225,-7.063457958883069E-4,0.19737673001544098,-0.2644677995651323,0.05969283287785484,0.4488565208710362,-0.00951510675740584,-7.973243084093075E-4,-0.18514261093964063,0.2744741915006293,-0.16859229965108652,-6.154539283304872E-4,-6.279280730955553E-4,0.3649370854683218,-3.2174670893964194E-4,-0.016338705431868997,0.42438044682180653,-9.010998471819264E-4,-4.54354828483237E-4,4.816837760571878E-4,6.185198508917835E-4,9.631276882071222E-4,-9.160646095322214E-4,4.698857222371853E-4,-3.817362710819189E-4,5.62889939448893E-4,-5.072726507341392E-4,8.885152050640545E-4,8.885152050640545E-4,0.007554021663929995,-8.034398661221475E-4,1.5370156967367305E-4,-9.01638400191221E-4,-1.8887584467889746,1.8974825699963769,4.3926597680562607E-4,-5.13057033317128E-4,5.377033946677076E-4,-1.3604467449026788E-4,-4.4884267564428365E-4,-5.164840757810257E-4,9.970573316489865E-4,-9.936238097539303E-4,-1.0132620999719465E-6,9.357420538225401E-4,-9.992480852780705E-4,-7.188580385808522E-4,9.749017479099177E-4,-8.180031372248387E-4,-6.786239668767798E-4,-0.05300185607978157,-6.793419435407469E-4,-3.767496761487056E-4,-0.685444520531227,0.008377343749203368,-0.36842638890380436,4.3223705108913577E-4,-0.051567566570695,8.404527124467043E-4,0.1764092073041638,-1.1618648804083919E-4,0.19170590367927334,9.0908578948968E-4,0.10624530817960672,-0.021699374646846018,-2.7396030969139087E-4,4.2932038763905434E-4,-2.005759966906311E-4,-0.13883529162897573,4.759881928599625E-4,1.375335484523498,-0.024293974021721197,-0.9893605948427168,-1.7063407165992812E-4,-2.7594179191915604E-4,5.995402828649703E-4,6.143667809051111E-4,6.111654222036393E-5,-3.5240527622581986E-4,3.9493374917667413E-4,2.0931798482275838E-4,5.521912177570344E-4,-6.238473537497134E-4,9.817513525777705E-4,0.18771574212181077,0.024999415383374076,-3.0727544774619643E-4,-0.020005110017282488,-0.27807940620830185,6.090788794580995E-4,2.4831174316931924E-4,-9.342285856193886E-4,-0.845954507076266,4.978904902802095E-4,-8.550402058394677E-4,1.5657327049247284E-4,-2.1328186796228826E-4,-0.8152503637905165,-5.323402182258945E-4,1.1964414814167365E-4,5.169326294373405E-4,-5.4428897918865375E-5,3.4785814498243647E-4,-0.6972668560340266,1.3816815920329522E-4,0.18076815974813223,0.978310555672552,2.94190769711469E-4,-0.02350449189821094,4.111030099368956E-4,-3.220908190094548E-4,2.0511025377260058E-4,1.855404281981372E-4,9.487981635164539E-4,-9.273273096831539E-4,-1.9087555448020054E-4,-5.596212971627861E-4,5.470583161029951E-4,0.47565160702399767,-0.42354907324900987,-5.69204532254549E-4,2.987529898887658E-6,-2.4736144451499944E-4,0.4588224469649821,-2.480587445199958E-4,-1.1896203542534974E-4,-6.161613362552155E-4,-2.0295981153706471E-4,5.509912907597689E-4,0.11233146919837347,-0.027306468686443874,4.8817217905831195E-4,-5.675572356614604E-5,-1.6395590631087978E-4,2.0273737451757486E-4,8.42713382410779E-4,2.91012649545126E-4,0.16169965959024346,6.873789337063578E-4,-0.1763939694829901,-5.447420539554641E-4,-0.014628971166514265,-1.1085933061237894,-7.466801901045523E-4,0.39892006260893725,-0.3176742214441577,-3.319106012953615E-4,7.240903493922857E-4,1.8167772555739258E-4,-9.712494880440822E-4,7.069247942766536E-4,0.2137179519663632,0.12948962824094223,-1.393958412457636,0.2923621201470495,-0.1004001489456208,-8.953712805901419E-4,2.8056060332334095E-4,-5.882101828175567E-4,-7.678747156517982E-4,-5.294222001359715E-4,6.98290553903163E-4,2.658695535559235E-4,-8.919557374716259E-4,-6.693300506126246E-4,0.048375901282771555,2.3175870036213873,-0.28064579638692483,-0.03319447074279416,3.0535817079346914E-4,7.878994598431433E-5,7.074349562511042E-4,-1.5468170075740083E-4,-2.271526913790161E-4,0.15826125253593948,7.358010233846353E-4,0.14471144732795807,-0.12738113494000808,1.4533303908719206,2.4503952663133355E-4,-0.04921195508211661,4.1448574701406847E-4,9.261505691424334E-4,0.26106725463414154,-0.12033420338772646,-0.2760204177619845,-0.20766524556121993,9.931069008492434E-4,8.656133234426881E-4,-9.998481974336E-4,6.406008462608113E-4,0.4979358479757915,0.4923133735819022,1.584843067420692E-4,-6.255627762730782E-4,-3.7863339863167657E-4,8.316253115625688E-4,3.4018897710211065E-4,1.329264881781483E-5,-9.618494159221982E-4,3.789754312447913E-4,5.304941795767205E-5,-3.701570125921092E-4,5.950427058893349E-4,0.19354027367789908,0.33480601817297856,-9.162862892331844E-4,1.2458376528017012E-5,0.1713229225418024,-0.03682571599302618,1.968288991430788E-4,-0.34254210539568436,-7.841654133883396E-4,-7.770915441833661E-4,-5.368362782222141E-5,6.507073719126576E-4,-2.1981039231552119E-4,0.545482995347382,1.78834495270857E-5,0.3744908158577654,4.188193302323616E-5,9.849863383845452E-4,