-3.8262653907684345E-4,2.2765620144111652E-4,-0.25663560142845,0.30928018829994297,0.1552232834408213,3.967489060672756E-4,0.31824106096522276,-0.3013581256714002,0.4368062008994379,0.7696306636581426,0.09450902625535748,0.7019118300600811,-0.0719745792197984,0.6058001568994336,-3.181926521355218,-0.531491472436696,-0.5248469250684359,0.864429719151621,-0.1511696449823164,-3.9674890606726174E-4,1.1438463713983424,-0.2315430614573764,0.5803572315809499,0.6909270567796724,1.0761720740668528,1.0761720740668528,0.6522363202827085,0.5655037682802111,0.5380743267592724,1.631954546547491,0.8241846693950929,-3.1476877988038216E-4,-0.2827897912404508,-0.013008157010237286,-0.08904719569580677,0.21743512941733897,0.16317930669132202,0.30122283059634963,0.30122283059634963,-1.0517959424228576,0.4958415118465186,0.20631209651698762,0.33985218035469833,0.33985218035469833,-0.14146016620704713,1.0370716187798679,-0.38701738570697364,1.9947985296005766,7.383200508262941E-4,7.383200508262941E-4,0.295476806398558,-0.6367676155605452,-0.8413179944198882,-0.8413179944198882,0.8055581209755021,0.24668133617511548,0.3942210153778493,0.39381743110068884,-0.06873567028872074,0.39381743110068884,0.07758014454648847,-1.9431495982752847,0.8522045875189498,-0.4284519829441268,-0.4284519829441268,-6.6126115273779E-4,0.4738837437764551,0.11666779425157812,0.4585210110134474,-0.8755638452584966,-0.14981533765466093,-0.14981533765466093,1.9987553574112964,-2.176370889030881,-0.7416216304002566,0.20481085540351263,0.1562724527690412,0.0907525151842989,2.021053741310553E-4,0.8854502599053485,-8.102466431954003E-4,7.772722379181421E-4,0.4049087430805274,0.41874486873761785,0.8854502599053485,0.8854502599053485,1.7328054709872927,0.07280865122011365,6.888386979426884E-4,6.888386979426884E-4,-0.7794943267953062,1.6787754160979432E-4,-0.07153593858230764,-1.168455068119296,1.5199130542295975,0.40029108065178387,0.40029108065178387,-0.4312054603912487,0.11575331703991878,0.6497019806371042,3.8014904909027902,1.6712337390001495,0.6006110300769838,0.25751800654130436,-4.958351269483997E-4,0.7097333365581403,-0.0906723561136917,-0.0906723561136917,-0.309057481985441,-2.1870355564810272E-4,1.929241434018554E-4,-0.017256920674524542,0.7097333365581403,-0.11200071809400985,3.3206355976033346,-0.6417146721972998,-0.11785349377910194,5.569245198031737E-4,1.0527761530504214E-4,0.5889277608018576,-0.04607582042051553,-1.6616535467643885,0.7297685703503591,-0.4647341542888527,-1.8656637414943804,1.2192360814068106,0.02681511203313383,0.20632762692367693,-0.7153747238143819,-0.7153747238143819,-0.49326055077390885,0.36578504180880095,-0.00203821360198463,0.2521904897960991,-0.03249172990469633,-0.03249172990469633,-2.1922975437938788,7.018794215748871E-4,5.567876105941039E-4,-0.005359794864221546,-0.14403009631087052,-0.14403009631087052,-0.5982280745775609,-0.16766961534743777,0.10071393782347418,-0.5827910429303148,-0.7111107303008035,-0.7111107303008035,0.07369430431549338,-0.2794566852209043,2.394171280002157E-4,-3.230300237142945E-4,0.7303481895669551,4.992804580924115E-4,-5.088402596104065E-4,0.2896451192848098,0.023546245245172646,-0.0314811436522274,-0.14359148502171493,-0.8834516105011581,-0.8834516105011581,-0.8834516105011581,0.5383327778210826,0.7461173509795873,0.3560607153734671,2.3239585471535364,-0.8901841748194653,0.28275771185014775,0.9516872367450083,-0.3699608959947848,-1.84666542484768,0.28992955898697936,0.06507024538894748,-0.1659126749832559,-1.5420401471620115E-4,-0.6628319222297775,-0.049555425348285276,-0.30898544764074126,-0.0033383702296764218,0.4597225434590801,-0.1734878137650015,0.23128224995548166,0.5597936196167393,0.38372860426042904,0.3468971545083895,0.21839559256574145,2.2632948561198565,0.899557585736786,3.938057477999378,1.7823643155473736,-0.06611949173848866,-0.15076912752685334,0.17135426839937914,-0.5502333303088367,0.3724051434740365,0.06298118308054675,0.08538322014485535,0.21319526416955165,0.21325496912136935,4.699781315517667E-5,6.626279808544097E-4,2.6970959657913324E-4,0.06678162623585637,-0.20825187096699688,-2.437441437716047E-4,4.954167429365699E-4,-4.1622486600664333E-4,-4.074532663481448E-4,-5.6948191843824705E-5,-0.6424095032680821,-0.24618258568436388,0.49495397930148755,-0.17965905975985827,0.599558121503157,0.13875376264304207,0.2521436516738811,-0.10514058315186273,0.8089408645987549,0.8472807176990518,1.3302087284576938,-6.688495097347115E-4,-0.14382537944521093,2.508675311240477E-4,-0.5908082394547342,-0.3575121816074913,0.5115534434677856,-0.03063673720822605,2.8991868323168055E-4,-0.016682615312898684,-2.3273218299917076E-4,-0.0020042859729353085,7.589808229911503E-5,-0.425227928091214,-0.8245103035278454,-3.7377457867136636E-4,-0.014984597747733799,-7.98792414075239E-5,-8.998674242967404E-4,8.116452165853126E-4,0.17395656233274015,-0.12965645439520382,0.17532222073604697,0.5542511328603887,0.6453840427242196,0.8699499591191039,-0.07041611668459215,0.32809310340629805,0.024906591092567515,-0.025464503043534946,0.6438877772932831,1.0542270636838837,0.3862829212400508,0.4144088444760359,8.739441077370901E-4,0.32324470111099096,0.45339199346481074,-0.073707719497023,2.769189889684344E-4,1.507427569293039E-4,9.510543278404206E-4,-0.6423819009330138,-0.6089424666468435,2.50902184771195E-4,5.005107111128071E-4,6.424876444351391E-4,-0.44007463832641247,-0.49639176164628196,-0.42391253595300715,0.2093881125932771,-0.17981628600521893,-0.05620443192385023,-0.30855605789681106,-0.35159469941889165,-0.15638345399264597,-0.314254852971462,-0.3334322008047945,0.6294070142116599,0.4377629718429798,0.003117492823840132,-9.303472950995748E-4,-1.8302080259641484,0.7268978522266983,-0.3101481215826329,-9.174001435399495E-4,0.10896881909863056,0.09839213508058113,0.17849014727489906,0.37446416029188445,-0.19319876056109941,-2.0471790609138474E-5,0.34342206533257175,-0.13548914412922977,-0.4814446597417115,1.3734865369890412,-0.10883858138702232,0.28302251447435506,0.41629192524511244,0.24773285757543395,0.46417055111081046,1.1428118491656067,-0.14875097335026177,-8.858673688496637E-4,-7.134322901439462E-4,-0.4927501395829411,2.2372436343909845,0.3294330737874634,-8.841868841782162E-4,-0.0054979847186648325,3.626758689415867E-4,-0.21124716530886561,0.27573601230711076,0.054834030102433144,-0.02569826937688932,-1.5018368299580298,-0.6800481024605154,-0.28092053905591813,-0.19939739320471642,-0.20428998232804801,0.1236957743786748,0.06065900103742814,8.392439899581774E-4,0.06819824108752198,-1.5704959710102153,-0.2921091390292357,0.1842405896397044,-6.90795626661967E-4,-6.90795626661967E-4,1.1388760187842524,0.27311322686146844,-2.731273780361641E-4,0.2846949545689497,-2.2151019377156939E-4,7.907919638281929E-4,0.7514310747381469,-0.5930562327685164,-0.07755059350245382,-4.967233361379999E-4,0.7514310747381469,0.4817113278403226,0.4817113278403226,0.25159364856754135,-0.12207998003664977,-0.3535426186616245,-0.35468344008482117,-2.5361297552543793,-0.48817029814656543,8.58428835771708E-4,-0.12231976686792048,-0.3930680590114199,-1.353937333241653,-0.40847206537785685,-0.4031893351655953,1.2443603685951996,1.4250604906882969,3.614415937602404E-4,0.249991429411105,0.24323810666125234,-0.6292651159264477,0.4410031333062997,-2.92831654288971E-5,1.6063653067602206,1.2278565073029456E-4,7.214782277039844E-4,0.24804425745325132,1.3699998812155773E-4,-5.340522389596658E-4,-8.161929172993145E-5,-0.16911205999318463,0.6383256493496331,-1.4848449007635713,2.4785331692762504,-0.5462946455630922,0.6489738439155479,-1.5742559836697578,0.18179296271118833,2.3731703003833102,0.722130553462352,-0.04861508789938335,-9.389368194299588E-4,1.5853780822429056,0.5799001192824667,-0.17015779057016533,0.3754105018493044,1.0176763115410379,0.2604520204531729,0.5971194188623344,-0.01679627402360697,-1.4642217993530626,-0.001441138345399638,0.12220699564257383,-0.2608407285335118,0.19196026374644537,-2.9014673668274066E-4,-2.970674801108486,2.482306772122069,-0.2810083772278907,0.8560436580598535,0.01626966000551918,0.1823130227189373,2.44460136896503E-4,-2.2117962631513512E-4,-1.1757745387750738,0.2969463700376399,-0.29184561381603247,-0.3004306206547223,0.03891783463112759,0.2687450540911102,-3.6734029231869775E-4,-0.0799409320788117,0.8982139741268962,3.8845470188692065E-4,-0.13105128458150384,-0.0688142529933816,-1.700218590466644,-0.6603694604255121,-0.3445217199164379,0.5007623809766109,0.3265866890114144,0.10941841938966715,-0.2242824285654363,-0.03712008333225775,0.07434582473360664,0.2503686483414031,0.2008140427068494,0.008932153724281,0.30049011956695826,-1.66269476993963,-1.3571343920855752E-6,-0.042266911532915556,-1.7659932730739205,0.20635846608681552,0.4709619026267161,-0.06231233438204834,-1.410270429002182,-1.8431781778251302,-0.2933433083146504,-0.7855322259238706,1.014730897028775,-0.07324985606672399,-0.07324985606672399,0.5136819542713005,0.38292276389378854,-0.015183770267217078,-0.1233006262597639,0.3879147855260974,-0.5158333147852904,0.07834462583182934,0.29353364508644214,0.7090292310760471,-0.11673903433620099,-0.24009951757091455,-0.24009951757091455,0.4082500234590111,0.546634963013912,-0.07839572566872338,0.554716873882702,-0.21590007529534827,-0.21590007529534827,-0.30815062734540066,-0.43302633111932354,-4.457575238821474E-4,-0.30859540071753866,-0.03125637305413916,-0.03125637305413916,-1.8329668323160096E-4,-0.08834614344259349,5.60556725328762E-4,0.6228848544254335,-0.3308984492110155,0.09716296192128863,0.5831279436876625,-0.2450167910725673,0.18260506697431156,-1.941505222018315E-4,-0.49872407558823084,0.8078093435366177,0.8078093435366177,0.2523300105750561,0.13142609174332223,-0.04501083735761493,-0.6518794478233304,-0.7064925279255967,0.4830343226455163,1.0650894855489428,-0.37729619552715954,1.5737079877197043E-4,-1.3732556013302706,-0.6126047483692236,0.6773298207530857,1.7241922343640983E-4,0.05299927595090645,0.28686929307502523,0.28686929307502523,-0.46712204719312,-0.431938210446536,-0.41220602338255563,-0.2676912348349403,0.9651967208023398,1.7252956695424249,0.8502721612718905,-0.02317123285107686,0.9646204047869813,0.9646204047869813,0.19690926540133338,5.914540497393445E-4,1.4820570147194516,1.4820570147194516,0.535272901545362,9.143158399096897E-5,0.2918563747279921,0.29039716657928055,0.764642390622482,-0.037189597209714355,0.19726577960193725,-0.478512101078524,0.5020686176011406,-0.020395525869095738,0.04032857694483687,0.14344456850694678,2.604766194503431,0.3247133844549087,2.593163263240211E-4,6.180758307037719E-4,0.5656127550206753,3.7672923019243317E-4,3.2228710796589283E-4,-0.7375925361309063,-2.0271538006007517,0.5656127550206753,0.5656127550206753,-1.8049059613639078,-3.1407295740068992,-4.657276544829589E-4,7.684661181931459E-4,1.9342312072697299,-3.2126254303396404E-4,-1.0668655677023793,-0.9986583428996458,-0.2649774075091056,-0.2649774075091056,-7.428053222319166E-4,0.5871734479076313,-1.0810217349102547,-1.1079036036874275,-0.237457540942379,2.714775885569627E-4,2.714775885569627E-4,0.808804204881158,-0.5055071211738758,-0.5055071211738758,1.8493742215541038,-0.3233487749585565,-7.706319290939277E-5,-1.7987201370786912,0.808804204881158,2.046588024003097,-4.2647501350327147E-4,-2.436973033010717,3.353337830350472E-4,-4.38713491490213E-4,-1.0973982569874882E-4,-0.3497188256142778,-6.986242969342837E-5,-4.675249932996513E-4,-2.2825954870785495E-5,-0.3497188256142778,-0.3497188256142778,-0.3497188256142778,8.542584531249608E-4,3.6268796251297426E-6,-2.2074665078787082E-4,-9.391647576270624E-5,-3.207687267899234,-5.343375174169361E-5,-1.8389199274621276E-4,-0.5741391792264301,-0.9149228648047596,-0.30268443644244103,0.26798284236941916,-0.20160274041161008,-1.0126216808040542,-0.3647380136507251,-0.047734996005149744,-0.017645704891198998,-0.10335994262076843,6.494574626479062E-4,0.5337959451441586,-8.020897867136015E-4,0.4164420043532735,6.494574626479062E-4,-0.7351224678704866,-0.26256599384113355,3.0759145948887324E-4,2.807147635333553E-4,5.409604462031009E-4,-0.7926590650800189,-0.5900301303391863,-2.69131825276248,-0.21623847904558213,0.029987615656789708,-2.214551067405146E-4,-5.797278541434252E-4,-1.67219078474574,-0.039591950862054914,6.245557855173469E-4,6.245557855173469E-4,-0.021603979497265995,-2.4820300666097777E-4,-1.7553224706764992,-0.13571828703791197,-1.6046490966516782,-0.40553711798731873,-0.04829979959173659,-3.8528242185072344E-4,1.5575665708317552,-1.4501466505212194E-4,-0.941429165795971,-0.018534444486105132,-0.018229187358401906,3.0025469537525436E-4,-7.974343940678421E-4,6.606072316926122E-4,-0.7177411138158818,-0.7177411138158818,3.212850634318077,1.1386512633895425,0.4623822234749838,2.573183864454187,0.6937735812958222,0.24260822800695822,-0.28763069469498215,1.1068771119265515,1.175411600745949,-1.269512448405573,2.065046116564663E-4,1.4169947049598455,0.6111279583849158,1.8710186102129545,0.3505627720012433,-9.140929268041005E-5,-4.6717164655775975E-4,0.5339048679424344,0.4093029307205511,0.4093029307205511,0.7897691010065794,0.1945054072172194,0.3456967077890337,0.26059200246259623,0.2708161182377881,0.2708161182377881,0.3863714000379571,-0.14256494467290914,0.25581909656946733,0.34842667205215083,0.34842667205215083,1.289784144368904,-0.8452705942193657,-0.5347887786373706,0.8557723436571624,0.6717088479810325,0.6717088479810325,-0.8338501585601793,-0.0021517016895626845,-1.4111617778756578,0.2017869413114626,-0.3612305572514232,-3.80926531521171E-4,4.5767702790325835E-4,-0.9056471946652637,-0.9056471946652637,-0.9056471946652637,-0.05265045483551854,1.0813613580507053,-0.941663236730324,-0.941663236730324,-0.06412337855055204,0.4611575412757504,-2.1696066270288723E-4,-0.14327716169427807,-1.692916677616857E-4,-0.6172800937471368,2.4247491071974995E-6,-0.7941360181751282,-6.172275473275996E-4,0.05149803685943614,-0.27106106448508444,-0.20635494573125943,-0.20635494573125943,-0.22125964227520778,0.21090344234270691,-1.6656134149602034E-4,1.7941858396834778,0.46527736954897797,-0.9968320676371234,4.762367283360378,0.3201266596776267,3.873605159293999E-4,-1.165479262746196,-0.18713340616919716,-1.0752825132382153,0.5315795282166252,1.3670992453970892,0.608749421980153,0.19664745272538467,-0.22724367710965587,0.05687396042227949,-0.015871738166528024,6.606158924477503E-4,-0.7581805330829242,-7.822797479402864E-5,0.2636516958746731,0.21365129771740127,-0.5988360421627524,1.4694478559344293E-4,-2.2812497376036391E-4,-0.12555166622740585,-0.9135524283101969,0.3072685866847237,-0.7658092874679198,-0.7134110886252317,1.1239533882555623,-3.321515995073683E-4,-0.0012263333879997081,-0.14722736056784663,0.25260098652620355,0.3471694913943918,-1.6705572792006267,0.4161867375155436,-0.031973779414124597,0.15869979140141252,3.9953625509863295E-4,9.790878780050719E-5,-0.9385742832003526,-3.624513014279169E-5,6.478252202275947E-4,-0.14445097689855715,5.300380571435978E-4,-8.680755750287202E-4,-0.14288972961564017,-0.07368459214608299,-0.6498564300857064,0.34348093045695466,0.6245119352759817,1.58389426837824,-0.1722733545693303,-0.2722946295409562,0.22127761977425692,0.04095375715278728,-0.07537861155606126,0.723157696834209,-1.5953635438335778E-4,-0.009779570104459578,-0.4805018102240278,0.40463157171731706,0.34453808741913683,-1.1061323865373602,2.675966760881009,0.8243844732989485,-0.12684837607687674,5.289324193836714E-4,0.30113125067530305,-0.12500894184297412,2.3275620860595475E-5,-0.4876013374580672,-0.3371044278594315,0.048798018050979185,0.048798018050979185,7.106342249130167E-4,-1.178031110640455,-0.23754153341864281,-0.7362801088118077,0.10510803695627541,-1.5300123351316084,0.9851405324575505,1.7349997513221866,0.17605272211626305,-0.9597312017466991,-0.13510845867196186,0.11572733388746617,-0.22484994743557662,0.11553547822532706,0.5955476362774148,-0.9934611325948711,0.8539821848668417,-0.14221352062761305,-0.23258811015863098,-0.41606907278232597,-0.15444991398434715,-0.036060962072217054,0.8455560771484334,-0.35491552179036445,0.05485102308620239,0.18840000906637644,3.9255595294853426E-4,-0.14046428310577233,1.3242793241212854,1.3242793241212854,-4.5600328684484396E-4,-1.5325061334565553,-0.049353818703028136,-0.15183204921393778,0.6480619325119306,1.5613009412920742,0.00907884781991693,-0.2510255099654929,-2.0942545147731146,-1.2237117444461674,0.1294943907743556,-0.1911050777017196,-0.67978542947101,-0.06611873155932801,1.6098398674104712E-4,1.3042737850968694E-5,-3.934745900028378E-4,0.3613842270918665,0.16678366494978372,-2.7936158454517095E-4,0.8275096948193101,0.534946579345597,7.818126773066103E-4,8.470544663148948E-4,0.8275096948193101,0.20236588503663816,0.20236588503663816,-0.517364436309935,-2.6151917111634235,-0.6932572090326972,-0.6932572090326972,-0.9102405755269716,-1.281901330853604,-0.5466546268269096,8.709835536737901E-4,0.06470411257405659,-2.4373540732907295,0.9499725093409079,-0.10783706738852504,-0.3444898350556625,-2.0105886052187983E-4,8.07772340338371E-5,-0.2793927227691317,0.4302516872103047,3.958400268432138E-4,-4.7841468811164755E-4,-1.6197317252487176,0.36802063491012055,-0.009764089830190347,0.2756499198997916,0.7298879187224634,0.14973146459980693,0.41758478355527284,0.7302682572485908,-0.38762428010598404,-0.7848438904258636,-2.36547917189597E-4,0.38488992448278825,0.3339248137470423,3.0355889614193333E-4,-3.1111464241537256E-4,4.377869355739138E-4,8.039677162678815E-4,0.23473787381147146,0.2684099986753556,6.567156380425737E-4,0.1864950196977297,2.599008024357172,-0.4840307735449451,5.321858361625581,2.44296789341691,0.7137792836543891,7.501560897167727E-4,-5.172116221098403E-4,-0.6405961795635958,-2.2601658972698372E-4,0.42604096197338837,0.17508564672606383,-0.6335953333264734,-0.5622846838397143,1.0728125639386252,1.0728125639386252,2.721451718267339,1.7863329756554371,0.56022216226345,-3.901697731643253E-4,8.627222894627908E-4,-0.07583923915834126,0.3529847275709007,0.19714140998559757,0.8075946635913308,9.071554471923917E-4,-4.832661651986926E-4,3.825335665643217E-4,3.825335665643217E-4,4.092150524432999E-4,8.02857485663704E-4,-4.3869849231166285E-4,-8.22861305029621E-4,1.4544830610536028,9.280471698931819E-4,-8.38802076392549E-4,5.674868163157325E-5,5.667978255532579E-4,1.733323460791096E-4,4.580877051894221E-5,-6.039123357787767E-4,6.01706189793703E-4,0.1429646669605133,3.3927265634164407E-4,5.695882342088309E-4,0.5029404721761253,-2.2609540592320298E-6,7.344196096518325E-4,-1.8745293290017536E-4,-1.0180653567098583E-4,-1.0069481252411405,-0.3169956997020656,-3.4650129824675665E-4,1.1590518817415564E-4,-9.661891401558861E-4,9.623275823037712E-4,-2.3459718260889027E-4,-9.94128762165292E-4,6.277675535945387E-4,8.128859880797295E-4,3.9738287397777334E-5,8.567484063574504E-6,-0.48465956988234676,0.08129527734539431,-0.2779700449662599,0.490496195897224,-0.07178381200196012,-0.09175280451699463,0.3340251951976685,-6.975633433311689E-4,-0.2953174414405803,3.9638523396835095E-4,3.747107740087142E-4,-3.0809856865576465E-4,-7.670736606513935E-4,1.3379228516631005,0.6704407662552503,-5.929952084770317E-4,0.08555112837448915,7.508164023464893E-4,7.296583108659627E-4,0.269429640130377,-9.030218746742863E-4,-9.030218746742863E-4,-3.1366279873375755E-4,-7.621157225944226E-4,-7.301540448217687E-4,0.1912385113316064,-5.660072284708088E-4,-5.660072284708088E-4,-2.551663986029045,0.10755444030539359,0.45173191367097243,0.29529382326138087,2.9558781630328293E-4,-6.694718330823354E-4,0.16593703036670057,-6.150890263195517E-4,5.149594407104671,-0.9084888746061146,8.673848115662484E-4,9.86322849099294E-4,3.638544189532879,-1.336880942191381E-4,2.415903260510797,8.540852297873748E-4,-0.06238190714414208,1.2541210078161709E-4,-0.07597428385549262,0.21678071983292127,-6.96915250159967E-4,0.9599460959298648,0.4011089003987621,0.5387113763316912,-1.2078762974063135,-3.948195086426851E-4,5.349934424802518E-4,0.406459879456801,-2.4649446401891866,0.3338370586399227,-0.9186751444656183,-0.240383950852402,-0.18688162357408822,4.6151793345022537E-4,-4.1024247431222687E-4,3.016510433021186E-4,-3.7793395042264684E-6,0.26111539642960296,0.14267602650216393,-0.6466040111854732,-0.14938863496641086,3.020807495208403E-4,6.234522237916131E-4,-3.141514801748585,-0.5997787495650583,2.3190018041586296,7.08469857743591E-4,1.103167916852507,-0.025055256334517047,-0.16053989039420627,5.897425310084247E-4,0.09270141945559941,0.10247144671196351,-0.171887788974616,-8.92663495838704E-4,-1.7073160606211513E-4,8.98534329431545E-4,-5.161919334626581E-4,7.247091078254609E-4,0.27185712131931566,0.31882307672965793,-0.3976336247911643,-0.23933848567292704,-0.3753517535917915,-10.567268225426599,0.2865207657899332,-0.2621860938357737,0.0972019827366109,-1.4120105583890066,-0.49432442242342456,0.7891373706715085,0.26346389922902214,-0.7117411599255646,-0.35306998118826594,3.581738178375695,-0.18377732989624374,0.08354577687576646,-1.1750343457153134,9.196508410680862E-4,-0.5874831702641307,8.977291066594008E-4,-0.11842221087649243,-0.3140647767075398,0.35808890739646476,-0.47573425738834196,-3.080139007724425E-4,0.10592466783927966,-0.40878935036959163,7.268728684934711E-4,-0.029517275036088298,0.013277995419515458,-6.020138652294596E-4,-0.7308452066996628,-0.06346231454794642,-0.008793222601297428,-0.17193448698051836,0.35849323974954583,-0.048792671441131925,-0.1520559035423521,-0.4749429021788034,0.28865109095369906,-0.003560030743601863,5.863698792368691E-4,4.485059655569213E-4,0.12065043891706045,-1.4771573451026285,-0.003560030743601863,-0.003560030743601863,-2.040493269373584,-0.19860866441829345,8.44775258481657E-4,8.44775258481657E-4,-0.9813363734347269,-1.3811547264584506E-4,-0.5360205169125927,-1.0372727173092353,-0.8134265608745374,-0.8134265608745374,-1.2792036403671777E-4,-0.3118708781271139,-0.1437463041365974,-0.17723759402320127,0.34029989686314915,-1.1672750398711317E-4,-0.009469916632589344,8.13102666001594E-4,8.13102666001594E-4,-1.4434712726553868E-4,-5.0889546296264986E-5,6.280912807281379E-4,-0.6715291410669061,-0.009469916632589344,0.035061466161861427,-0.07873374257892422,-0.9428277037990282,-0.018993812268426953,-0.004002631255678682,9.164160620261481E-4,-0.3344899696866145,-6.378804752751108E-4,-6.311943723646787E-4,7.538414940132345E-4,-0.3344899696866145,-0.3344899696866145,-0.3344899696866145,-0.00900809740625397,-0.013708719118670058,-1.199959237052805,-1.1920179184090807,0.157357652804069,0.3527320782414493,8.622921066848998E-6,2.876766190315567,0.6237869386731738,-1.1738844999713962,1.020026513055071,-6.436395641653867E-4,5.954391949430954E-4,-6.166815818418721E-4,2.0545599865706677E-4,-0.8758434198917644,8.514909490231434E-4,0.5944421796323568,-3.172431055354516E-4,8.514909490231434E-4,8.514909490231434E-4,-6.827858993720423E-4,0.26907546277544003,5.376607582014452E-4,6.421087695332629E-4,0.48590208665789203,4.6547992290615534E-4,-0.8672014949932796,-0.4583505837576949,-0.007087623916573705,-8.492104892243196E-4,-3.242697950864306E-4,-0.005382631434691495,-9.486588329775537E-4,-9.486588329775537E-4,-1.5472012657828058,1.2119240921679193,-0.18487510522677336,5.396542737212373E-4,0.141763656968006,5.73002829498453E-4,-0.011492501029532703,-0.012002865693886628,9.194108086561727E-4,0.0704981307803385,0.0704981307803385,-1.9399414272495584E-4,1.9994400877834666,-1.1952410475747817E-4,6.867352782124011E-4,-9.076125907922097E-4,0.45698285766272856,-1.4270393535495358,-9.557506185961344E-5,0.6753021082162909,-0.12214504433248968,-0.0055234686765918955,5.756683743881523E-4,-0.5257606265582653,-0.060810979771275364,-1.7511758495691702E-4,-8.817015981937041E-4,-0.5257606265582653,-0.5257606265582653,-0.5257606265582653,-0.04517227515102349,-0.07802287453718242,0.14136174611492763,0.14136174611492763,-0.0017351505011959497,-1.6431728909399739,5.524838553924696E-4,0.7883271641263708,-5.707206819040282E-4,6.965152570848716E-5,2.1283663658084164E-4,7.257708180730973E-5,-6.469382417190245E-4,-2.473479593740409E-5,7.125359914779345E-4,-2.1338923105727194,-0.24386823841491884,-0.407140150737304,1.1069783058850746E-4,-0.873990372349117,-1.7081320480985692E-4,-4.197512916391346E-4,-3.293187421954764E-4,-0.02027639427484399,-0.018740238089367478,-0.04482421962915709,6.782392809446722E-4,-2.735127850486069E-4,-4.5087883045831186E-4,-9.46676151421295E-5,-0.014887093874328827,-1.1291911333418791E-4,-5.912907199102256E-4,-9.776614663417167E-4,-6.214430987515574E-4,-2.920903885369026E-4,-0.014938584612686078,-8.093266551543306E-4,7.065672869218471E-4,9.99522267967894E-5,0.13502961316100165,-0.13197543640027928,-0.0021978497893494096,-6.245337124552405E-4,-6.245337124552405E-4,-0.014913257262941518,5.853478577214016E-4,-0.45071303002159846,7.60774757542082E-4,-0.5206622161411939,-8.854222303227954E-4,6.818186393036438E-4,3.6036834004773315E-4,-0.2598303688436689,-0.2589530519556915,-0.20157229468328794,-0.2642205874124525,2.4058668143446185,-0.1090819280186563,-8.218290372653844E-4,0.33751936566034063,0.37762523758580685,0.7144615048057982,0.2814490325936287,0.7810173909238646,0.7053047805827352,4.709975192431124E-4,-0.06474620493768737,0.0917009591552386,0.0917009591552386,7.183663172844515E-4,7.183663172844515E-4,8.764904921523004E-4,8.764904921523004E-4,-0.08487104625046803,-0.08487104625046803,0.18102685537744226,-1.7234402153061232,0.2762735111045304,0.43588164501966487,0.5514635496799327,0.565803535062989,0.8437039129794123,0.03906982729014044,-0.4227996701674316,-3.2821365464964563E-4,-0.8996297318966557,-0.007687156882309395,-2.1624681107212365E-4,-2.1624681107212365E-4,-0.5548426120420974,-0.02622954300868505,5.731739916546498E-4,-5.302065155848948E-4,-0.5548426120420974,-0.5548426120420974,-0.5548426120420974,6.208174611938067E-4,5.327100406027994E-4,6.061774293221519E-4,6.061774293221519E-4,0.23072656427102994,0.13248902537678575,0.09380642599985436,-0.2540037523302351,-7.963850391242756E-4,-7.963850391242756E-4,-0.4367432308347778,0.7950636485437044,-0.2540037523302351,-0.2540037523302351,0.03402297437412037,-1.1845648630161874,-1.706314843689695E-4,-1.706314843689695E-4,-0.03724911655007114,-3.4358841565335346E-4,1.76368217026714,-0.4443527102202875,-0.5463364242317734,-0.5463364242317734,-4.968911081765386E-4,-0.0426368455660775,-0.14562987332757468,0.04289092420987338,-5.758685166591218E-4,7.116712529997744E-5,0.528395756345743,-0.20973647198888495,-0.20973647198888495,0.16736051942327382,8.684876965892159E-4,-1.7519482333266338E-6,0.2348404767915891,0.528395756345743,0.4045107026231734,0.2784359300070811,0.27877810432995576,-0.04288435196542241,5.602959352651617E-4,2.8949206361544584E-4,-0.1996267233691002,-1.654857323603688E-4,-3.775210372486408E-4,-7.925886621655506E-4,-0.1996267233691002,-0.1996267233691002,-0.1996267233691002,-0.01443032938777276,-0.031229480251293053,-0.17088856465605864,-0.17088856465605864,-0.13382531303929812,0.24552191994342681,4.0209026448576155E-4,2.5013104937791537,-0.19879412652128964,-0.3082156953667231,-6.153954119927016E-4,-1.4174830681622274E-5,4.918210897953178E-4,6.67896653745541E-5,-0.04169891864672705,-0.11807711360599071,-3.5035489579166804E-4,-0.041591891851725425,-2.3230250147223818E-4,-3.5035489579166804E-4,-3.5035489579166804E-4,-1.3154071682518545E-4,-2.945314883352622E-4,-2.945314883352622E-4,-5.90122762794288E-5,-0.5143607676912156,3.8133381452433424E-4,-0.1299441607890151,-0.11884418341127828,-0.017162709468165657,-1.9008325405288232E-4,5.351424231090783E-5,1.586735558040096E-4,9.239178828840261E-4,9.239178828840261E-4,-0.17208254082858093,2.7845661634594276,-0.08915802461214516,-1.6633275797566524E-4,-0.19870960458031448,8.951485858258366E-4,-1.1863556558878606E-5,-2.8995178879564956E-4,7.259055253342839E-4,-0.04673435081897478,-0.04673435081897478,7.24376639678057E-4,0.41761435556617493,-0.01679275900092888,-0.2592634316938424,6.717949615738217E-4,0.18203618524258097,-1.4799049432572546,-3.898716791714818E-4,-0.19389067900036297,-0.30519658587599835,-7.018815774502819E-4,4.5313999430266903E-4,0.14541436075018083,-0.07751456701856899,-3.0916535294069547E-4,-3.0916535294069547E-4,0.14541436075018083,0.14541436075018083,0.14541436075018083,-0.043113555440959586,-1.1186873415094531,-0.5184404011883491,-0.5184404011883491,0.2577394524648232,-0.026404839951592738,-9.570495645133607E-4,0.19022410732716363,5.572418077546019E-6,1.888726243390584E-4,-0.016823597338465366,-5.438003822985336E-4,-0.07983201651583145,4.6480649274200183E-4,0.33336297427321854,-1.730015142253364,-0.19466585409104611,0.18380442844146083,-7.888290764374565E-4,-0.14886260131897472,-1.740757474266581E-4,-0.1338304218909339,-0.11439572107781874,-1.7666302561311685E-4,2.8543682512702467E-4,-0.047890719140287204,-9.020696422587913E-4,8.515801067916944E-4,-0.012217761418684206,0.4544273290509714,-6.551469661081184E-4,-5.661039816929371E-4,-5.661039816929371E-4,8.012307698372864E-4,8.012307698372864E-4,3.97314701722707E-4,-3.672218955258783E-4,7.21592634103131E-4,0.14707564850061686,-1.0274940744884358,0.8500439935265853,-2.251188861080995E-5,-2.251188861080995E-5,-0.2175008171705072,-3.808242971006828E-4,-1.8282138826944332,-1.1873915859593356E-4,-1.0155871988599194,-5.606100276824149E-4,9.534743798793887E-4,7.422217908819152E-4,0.858326893809672,0.8747543372330078,0.32372835578737585,0.22245801852944305,0.8787716525544415,0.1253561495372125,-5.78207829110883E-4,1.2607205676225612,6.237455558453218E-4,0.5389276364757695,0.29618816842735934,0.4507564590774122,-9.315913573242421E-8,-6.960901323404755E-4,0.2137923016430896,0.15638536714352363,0.056575028997549605,-7.253212797589783E-4,0.2137923016430896,0.2137923016430896,0.2137923016430896,-1.2514769730948507,0.08142710115467353,0.019221053791832306,0.019221053791832306,0.15925281407802172,0.1664545572272508,-0.08176795522967926,-0.07570431044861974,-0.07496941635468186,-0.07251847038594343,-4.3479296985311777E-4,1.236435800278569E-4,9.956172420421735E-4,1.8512255163909434E-4,-0.0068584718395848735,-0.009859118192460143,6.161894934392832E-4,2.293321823090633E-4,-1.7001537554683075E-4,-8.741982444968939E-4,-0.3562887022205476,-0.3562887022205476,-0.10234673874793426,-4.3410216976827475E-4,-8.728885057167359E-4,-0.3887166736853553,-0.1318406123488562,9.029810210281605E-4,-8.052887135926194E-5,-0.3887166736853553,-0.3887166736853553,-0.3887166736853553,3.970757270853946E-4,9.136410712364013E-4,3.520954171687815E-4,1.0194452936500471E-4,3.2241665286596253E-4,-9.83762265653391E-4,-9.505001617291856E-4,-0.43342632128062397,7.734727546279032E-4,7.15248289246354E-4,-9.807921372720922E-4,3.5045749101116595E-4,6.216147118085693E-4,-7.932682328423764E-4,-3.4727992640364394E-4,9.228164185476201E-4,-0.15608153340705433,0.045988142720846975,5.539806765163325E-4,-6.779866631858224E-4,-3.792560776722175E-4,-9.931683319987401E-4,-1.2023721723777988E-4,-7.482314372474031E-4,-0.1989861891779336,-0.13694555976643982,6.268560676991619E-4,-0.10067509554767225,0.451697970551491,-0.027887397889590344,-0.8302401438870254,-1.1977269935116481,-7.568994887081202E-4,7.0238013931221005E-6,3.3146707191132267,3.8311867717049107E-4,-0.11300075862349779,0.5467500406087675,4.7416074686494787E-4,-0.03371273596572227,2.0800766202823286,-0.1182977153130063,-5.998573170886781E-4,0.3008491150984166,2.0800766202823286,0.7061733008503933,0.7061733008503933,0.7847492411235057,2.8207564183309866,4.982887094830146E-4,0.23065554782082312,0.5579792087871391,-7.168751096104063E-4,5.581985299005559E-4,1.6642953007242243E-4,0.24466363377177708,0.775004585884388,-1.7006461282980554,0.7616601639820232,-0.13849217458864177,-0.1393463837627171,-1.3211832265735532,0.6919791970652538,0.11262287373632729,0.1508341721630587,2.570891217772179E-4,-0.026187054573822807,1.6408012839688888,-0.30276351501154924,1.1670703876846784,0.030734335597878318,-0.4985588005631066,0.47282682722734126,-0.6920340600008602,6.912090152757743E-4,0.039709488927391436,-2.619715823562233E-4,2.8264129926752074E-4,0.45182881832681726,-0.2532929507472458,0.9079370252951118,0.047335647746647155,0.3035016945627296,-0.4983564748621531,-0.012080054870601356,-0.8792912578749964,-0.8792912578749964,-0.8792912578749964,-0.03656373369507442,0.20407719254172976,-8.259482969469154E-4,-8.259482969469154E-4,-9.202526477533503E-4,-9.202526477533503E-4,-4.897222714912194E-4,-7.633928122246494E-4,2.268528886730501,-0.33908763793807645,-0.3899852904358899,2.0977002200303955E-4,8.292862627034216E-4,-1.3452541817961878,-1.3452541817961878,-1.3452541817961878,-0.2037857884882683,-0.088979222045023,0.15574633832936086,5.763930483903217E-4,-5.284386432591859E-4,-2.174619513380799E-5,2.2222084398245423,2.0210477605043438,-1.0841125139669872,-0.6458662643151162,1.1680361381875453,0.8074165430055549,-8.124790604650429E-4,7.280470795566611E-4,6.800546165514179E-4,7.343622972888544E-4,1.1175803083914059E-4,1.620746996673127E-4,5.594608121152682E-4,-0.9114520639284575,6.237833408111806E-4,-5.557090760863149E-5,0.6045945167641671,-4.373923654518681E-4,0.2273231999374538,-2.6501662038217605E-5,0.11527884696085913,-0.14597201063917692,4.816015488721578E-4,-0.0519605675489941,-6.162887462504067E-4,-4.041701577791744E-4,5.507320277965877E-4,-0.03955776437394706,-0.17245203368351442,-0.17864909632232492,-0.0022608263755110555,0.28306084719311897,-0.38783763726510034,0.3712080372321678,0.3912068393429034,2.2969533885335795E-4,-0.2694249164369367,4.007413560617296E-4,-5.35226272362169E-4,-1.9222320982037282E-4,-1.9222320982037282E-4,-6.954298677624344E-4,-6.954298677624344E-4,0.2954713127530356,-0.07975852282884988,-4.484231813888227E-4,-4.484231813888227E-4,0.9510320407975231,-0.01149708903139953,-0.036288439445152046,7.289338048917706E-4,0.29283691144751506,0.12412416462315698,2.98626949468214E-4,0.5130006117102694,-4.456980122583572E-4,0.10149663570801114,4.7720557567536043E-4,0.3008389926314045,9.475257365992962E-4,7.215023953393515E-4,4.7968833495966486E-5,5.51826258991204E-4,-0.11977935289950006,9.255389571468508E-4,5.726692522580567E-4,-3.7404948257388493E-4,0.018467873950948805,8.028000559496627E-4,0.11033778898776711,4.643263003554167E-4,-5.858049822798103E-5,-1.3351209271176243,0.3736967807651132,-0.10470215168447002,-0.639876735446855,0.06782057972276641,1.1418947508744723,1.3886561443208716,3.6909759250079136E-4,0.1702255297001595,0.1702255297001595,0.9461880683532232,0.9461880683532232,1.860682879825527E-4,-0.04788940394162951,-6.596256183770031E-4,1.0240613133689214,0.2459084220882083,1.736542459829966,-0.31917512112130286,-8.354904568633288E-4,1.0519007726039762,-0.0027039662527249706,-0.0019080459519991368,-4.989389839137879E-4,-0.0883870076050704,-5.494158558575116E-4,2.8571693174185044E-4,5.554416653023829E-4,-0.0883870076050704,-0.0883870076050704,-0.0883870076050704,-0.001570397192874921,-0.0031190221486424104,0.9329619883166432,0.9329619883166432,0.8355372693701556,0.31522218242592054,-2.2898641989317322E-4,-0.24891535905130074,-0.17039785112465386,-0.1867985955797855,-0.35607466442438895,-0.4792593362284321,0.9022950638487928,2.2822585776118617E-5,2.874031906046279E-4,-1.9324259411495621,0.6104154612894611,0.023068962459423414,-0.14249890136335383,1.0326764788368843,-0.0022549046682944236,-0.003103087700068918,3.9174275625490575E-4,6.19990958085904E-4,-9.261555601470122E-4,-9.758856424592347E-4,2.359737311909999E-4,9.658534886445988E-4,7.395827468944353E-4,5.766034805447177E-4,-2.0137323572341943E-4,-2.0254287721222506E-4,2.236947175041149E-4,-4.6948384463974674E-4,9.711925392953354E-5,-0.2852258644870293,1.7473633383569128E-4,0.1312378531178838,-3.707843139609088E-4,2.3963351205987795E-4,2.3963351205987795E-4,9.751239084243497E-4,0.32960037059734065,-0.006184112812910203,-8.850423015271976E-4,8.671691082250106E-4,-0.3506832028957003,-0.3464377169117168,3.882301042333955E-4,-3.799567036153772E-4,0.2259028332100313,9.104255529861383E-4,-0.741060542389708,8.425643063716876E-4,6.539663826895456E-4,-9.73666800957165E-5,-0.09534708446362437,-0.0026899635541685297,9.603797936267948E-5,-2.0423213961845562E-4,-0.09534708446362437,-0.09534708446362437,-0.09534708446362437,-4.306430399169056E-4,-0.011612287073342477,-1.7822186542353633E-4,-1.7822186542353633E-4,-3.079949772919952E-4,-8.231216877319699E-4,8.450670166226216E-4,7.605824396291134E-4,7.938808446838327E-4,-0.03159957413866696,-0.00671382952147884,8.169532412927456E-4,-5.126887353847304E-5,-0.03159957413866696,-0.03159957413866696,-0.03159957413866696,-8.594835775045998E-4,7.4187907202127E-4,-7.254677604597706E-4,-2.772073363862225E-4,7.376285156336603E-4,9.79450466056289E-4,-7.982650948403641E-4,-8.23621541622197E-4,1.6057767068059555E-5,9.608228721886354E-4,5.191930088256997E-4,-8.300138553028419E-4,-0.24273389366858736,-0.12167053834510401,-0.496823343948818,-0.6362811873797822,-1.778831883964613E-4,0.30507585864441955,-0.4222979789065087,-6.489188301770435E-4,0.4655099130194409,0.23798467704465434,0.9972607883627452,-1.1286919296062108,-0.14080080429447378,-0.2748641169422235,-0.01932223120450026,-6.970488938063922E-4,-0.120641507469571,-4.336976710961918E-4,-0.24382474672073362,-0.025482219639506535,-0.14152393878176178,7.892555850922448E-4,0.2018443819063701,9.066579793083952E-4,0.20225119300572245,-0.03550867098884939,-0.3077092358312667,-1.0628297208548008,6.713528996605783E-4,1.697038963519163E-4,2.76576116256089E-4,-0.009547083337752872,-0.18419000344660125,-0.019279393235014767,-0.0036929971359163016,0.24448581795244625,-8.405879469098761E-4,0.4217182275690752,0.5231208243420571,1.076507297421506,0.7664688335794195,0.9267433919584331,1.6048014870410215E-4,-0.8888780294241229,-0.21625582395464327,-0.21625582395464327,-0.06595449662663845,1.934995035810243E-5,-0.489105196669712,-0.5496507829313276,-0.018422197560569543,-0.018422197560569543,-0.2905326107753284,-1.0325238237605602E-4,-7.533553775543657E-4,-0.4613121956668814,-1.0973090028343073,0.13924773487710823,0.5463476188373187,-0.3405896421200619,-0.018421632486373407,7.552709607692027E-4,0.7409503763890323,8.729235025346071E-4,9.69792702461766E-4,1.0742001097367315,-1.2588376045044132,0.7409503763890323,0.7409503763890323,-2.834969505418354,-3.014885812809584,2.855448379792552E-4,9.949598501298902E-4,-1.9417535798915264,9.111454872387575E-4,-0.8836437267329925,-1.242272186839713,-0.6256543127067922,-0.6256543127067922,-8.226933504510356E-4,-0.010681574955782638,0.5178102567179454,-0.012302498320839303,-2.3962489980293281E-4,4.7481876843297253E-4,0.4294929159071972,6.166105859858933E-4,6.166105859858933E-4,3.492707342414345E-4,6.421468760881839E-4,1.792767774632122E-4,-3.1652193610621473E-5,0.4294929159071972,1.5371492772130726,-0.14057470443436587,-2.6764331383349043,2.2912265182706163E-4,2.708616186659343E-6,-2.948023469350287E-4,-6.299615619579925E-4,-2.3957660837126637E-4,-8.624303524486887E-4,-5.993835234339907E-4,-6.299615619579925E-4,-6.299615619579925E-4,-6.299615619579925E-4,3.249631593631908E-4,-1.8715543905090267E-4,-2.644145247467054,-2.6441452114497936,2.2550228719447434,1.671279681168767E-4,-0.008282762162397088,1.6396312162571403,-0.8550868978908129,-0.47468638567689225,1.0739282202368752,1.0739282202368752,5.732584242850991E-4,8.825828687459472E-4,-0.5808402818039747,-1.1982235103999488,3.1006055749748873E-5,0.58236075386581,-0.032952677348095066,-8.372637738868706E-4,-1.269398435677654E-4,5.673315745173162E-4,1.1243209325696175,9.709290820195229E-4,9.945656207646092E-4,-0.002997243598991457,-2.0532814317791743,-1.1373514581403175,-0.128566198197798,-0.108357515842742,-5.857571645940904E-4,-0.09242868840842625,-6.052150615690361E-4,1.9432720749879787E-4,1.9432720749879787E-4,-0.09870526354629452,0.9817304433956571,1.1210523363731568,9.695680162599835E-4,0.2183091114671826,0.09262281002598871,5.361462592869675E-4,8.816477173223633E-4,1.9927100172263267E-4,-0.021053662963569437,-0.021053662963569437,-0.4105061038470861,0.593914797223646,-2.1424767922035898E-4,-1.0147452327997566,5.851778394303018E-4,-1.2326788023822957,-0.49690055107931075,-9.78512659386044E-4,0.7158485561183817,-1.290585724331336E-4,8.694599618773238E-4,1.9413314267486062E-4,-0.0013182951347424894,-6.869083127912204E-4,1.1030197373111932E-4,1.1030197373111932E-4,-0.0013182951347424894,-0.0013182951347424894,-0.0013182951347424894,-1.4616707560512752E-4,-6.072012823311076E-5,-0.3907992732237031,-0.3907992732237031,0.45335331392598616,-0.3424097569949459,-6.879810853643919E-4,0.6609268882808772,-2.3255995050521145E-4,-0.10476517566063351,-0.9302408347870256,-0.23559233210062336,-8.500996315002537E-4,8.910397588797111E-4,-0.2111589160279529,-2.054596463800336,0.21275824500051055,0.5108804801348181,0.2404645835985892,0.015095886190525421,1.5071968884657917E-4,-2.4059325767511713E-4,1.2401205532834472E-4,-9.035221464119211E-5,2.991532976394963E-4,-3.9266852448682646E-5,1.007088223045268E-4,1.5944293240587938E-4,8.481059673102624E-4,7.298711686547871E-4,-2.677037447922719E-4,1.0316639398021523E-4,5.644739373897124E-4,-6.53066845339932E-4,-5.612214954963479E-4,8.189990739139695E-4,1.7761877201775186E-4,-0.07183239001886617,-7.535281637733406E-4,-2.48679908989094E-4,1.0352451002885728E-4,-7.087016254935625E-5,-0.5125259980506766,0.5069097019865264,9.713972264295111E-4,-2.1944815186322828E-5,5.542533348779489E-4,-8.694144672942146E-5,1.673725948068412E-4,9.570840674015249E-4,-1.86184254869131,1.436485545565246,-2.803095178776536E-4,1.5827457270591134,7.677085283529696E-4,-4.0982003097841263E-4,-4.104133838649255E-4,0.1784090946268002,0.23598620057023773,8.821697797713407E-4,8.655522171614795E-4,0.1784090946268002,0.1784090946268002,0.1784090946268002,-5.503065130205669E-4,-0.2061559268455898,1.0299193674876068E-4,1.0299193674876068E-4,4.4231171340452374E-4,-5.627073665334221E-4,-3.819387822850764E-4,-3.819387822850764E-4,-0.003875153604310051,-0.001496066743838051,-6.657612058769337E-4,-5.835763148669428E-4,-0.003875153604310051,-0.003875153604310051,-0.003875153604310051,-5.015212225771711E-5,-0.0021707155042531173,3.32287907431316E-4,-3.8242035206984297E-4,7.486624490965715E-5,-4.503904196022443E-4,-7.45585070886524E-4,-7.18238445243101E-4,6.568812628099207E-4,-5.434603949013063E-4,-4.4310612544282884E-4,5.945527641268583E-4,-8.320728944022121E-4,-0.14317495921193896,-0.5297613932552512,-0.7267874335184994,-0.7385915569817739,-8.573859915941042E-4,2.4575573029057582,-0.09497894171737203,-9.592222144276703E-5,-0.3139252375195753,-0.8435011194945691,6.549975233791222E-4,0.3758467369258505,-6.173175188087841E-4,-5.461691463854465E-4,-2.097500446439748E-4,-0.042294202261318546,-2.0327306765440176,4.956950761864494,1.366871410366908,1.6109395100458965,0.9330627785236308,-1.5307344912460046E-4,4.60347173368431E-4,0.5666922506107642,0.6404401641101478,-0.02606001911251176,1.351066395795493,-7.753761606009922E-4,-7.753761606009922E-4,0.840364351164289,3.0142788753547084E-4,3.0142788753547084E-4,-0.5655590569137678,7.440664957155422E-4,7.440664957155422E-4,-0.16660185154540666,4.214676225615865E-5,4.214676225615865E-5,0.5569137522535125,-0.12246779599279833,0.09328291134619818,5.111293136785037E-4,5.111293136785037E-4,-0.4679356138557154,1.1362786252459562,-0.0042149311573489315,1.2883550527576534E-4,1.2883550527576534E-4,0.3765390155758783,0.35298735369194956,-1.2757471781767025,0.29045293863637606,-0.35038333633926105,5.50838584883069E-4,-0.010864682648644541,-0.22146304091295035,-0.22146304091295035,-0.22146304091295035,0.4648587563329684,0.508162995991981,-0.03695037510814743,0.16617671828612685,-1.9318390888753239,1.4154085174154503,-0.09082215749931988,1.2966326358527895E-4,7.770018207806336E-4,7.770018207806336E-4,-1.910376806708642E-4,-3.03294524982793E-4,3.2806494573807984E-4,6.435358110724258E-5,-0.2221584195542026,5.376907997448121E-4,5.376907997448121E-4,3.947257949317995E-4,-5.964152437167226E-4,-0.016234279968437806,-0.016234279968437806,6.038555709802259E-5,0.8642736203898657,0.3911721740576511,-0.11304816294714022,-0.2667406875960668,0.5867432820850296,-4.045187672756898,-0.5533580309875467,0.5601190702658722,0.3217831817565476,0.13538095372755143,6.317554839711547E-4,2.614594782501885E-4,-5.087791507314359E-4,0.7362183013494579,-9.170506789607969E-5,0.4561045046299611,-0.7212079049151233,-0.4535794372300026,9.160152388383789E-4,-0.005131171017603644,-0.03474559772291592,3.657202388671961E-4,1.470998788152617E-4,1.470998788152617E-4,1.563871537302117,0.2748105428232787,0.44782953070467424,-0.18894082716621008,-0.37274742082636503,-0.37274742082636503,0.2747516620490287,0.1348667013570135,0.3666237575489137,0.2365763752607078,-0.023328077848606146,-0.1335164199832987,-0.7070173372235723,0.6517494913543452,0.18283454364873591,-0.002649008414532958,-9.770289339403988E-4,-0.05407794342111861,0.18554389339732577,0.10810617749446993,9.770289339405133E-4,1.0385447303191133,0.24827574432419505,-0.6873063714953686,-0.309024700311004,-0.42601469210771975,0.552369005398357,0.37919813333023117,-0.2471243053967411,0.6069782065840944,0.4567526655047696,0.2143785584979997,1.310620270041921E-4,3.0388639639031083E-4,2.488490622830973E-4,2.488490622830973E-4,4.6224996274145977E-4,0.34257544062769374,-2.3527903723768158,-9.446659690195633E-5,1.140031151817871,0.3159798546023075,0.42973659243332457,-0.35711158294242307,-0.08091359132916576,-0.06715597420237183,-0.1451222269575708,1.627731771282158E-4,0.7398137845090608,-3.4427593526363987E-4,-5.115739010757364E-4,-0.39171284715122706,0.15213149430157835,0.7620839503091977,0.7402283056040967,0.5543513580676039,0.193701455113506,0.08705336749877139,-0.0022878354267932893,1.364586632561872,-1.728102289894613E-4,7.90141348399713E-4,0.6129294941611175,-8.956065842621545E-4,-0.3932941158929137,-1.1639672694749997E-4,0.16607996388473845,0.40025653761919927,-0.08779578558223815,0.3744062171182062,0.6862216789910464,-0.0015054537876980276,-7.607118761569742E-4,0.2559366169881019,0.41210467035304305,0.3980082447087574,-0.3129143307141463,-0.7449400840341981,0.10712351008777686,0.2566862068421256,0.10309897299623993,0.8998967320376446,-0.21869763337539977,-0.43088017948941326,-1.3201303509603568,5.144425863520038E-5,5.144425863520038E-5,0.3470894926873111,9.3421482406436E-4,9.3421482406436E-4,5.784984762035328E-4,-1.2929152974938063,-6.45545889119298E-4,-0.5853397543416299,0.3470894926873111,0.3470894926873111,7.576034243074016E-4,-3.5458656538092552,-6.349356601338351E-4,-1.0178201854188376E-4,-0.0015966225261146787,-2.210128346399736,-0.39079137679519566,-0.39079137679519566,-1.2361944745189195,-8.668644743876263E-4,-4.984700833410047E-4,1.7456550168986276,2.2186798997301984E-4,0.07809936073432454,-0.5814389768350138,-1.0544755742698237,-4.537189237560393E-4,0.2424614664969195,0.11115363377683964,-3.02629679869867E-4,2.223875508238925,0.31988224889213995,1.236587484883592,-0.012324701307388816,-0.07608258140419064,0.04333253089306675,1.366649870972143E-4,5.645733159755336E-4,5.645733159755336E-4,6.062616199019241E-4,-3.0870139365133135E-4,-5.747012541925907E-4,-5.747012541925907E-4,6.062616199019241E-4,6.062616199019241E-4,6.062616199019241E-4,9.583793833485067E-4,-1.8354485940566014E-4,-5.66144372629598E-4,1.449721926053271,0.8551121228688164,0.10579416451059427,-1.242216961680273,8.212345622615774E-4,8.212345622615774E-4,1.2866221101490125,0.24830809513965196,-0.32037728984319525,-0.03793457121372733,-0.37926121754942876,-1.9673423238555433E-4,-0.19776497427744663,7.548440493451905E-4,1.0804762508790327,3.857306868422849,1.3989642740400186,-0.1510853406558619,-0.1510853406558619,7.596485564230708E-4,7.553818551997568E-4,3.5690982755024603,1.5204800618921344,-1.3533685935991635E-4,0.2142183131817996,2.451080449847599,-0.8943134499086693,3.832522909088153E-4,3.832522909088153E-4,-0.17830694661888474,0.39366505255462925,2.8521772730118384E-4,-1.359088832012912E-4,-5.29935013043887E-4,7.248104535753322E-4,-7.941775697421078E-4,8.710649960661276E-4,1.5080890510264355E-4,-0.4009908887486623,-0.40522839273263017,8.242353809831113E-4,1.034312660091204,0.40870287007741257,6.169027893132791E-4,6.169027893132791E-4,1.034312660091204,1.4379738515279232,1.4379738515279232,3.9141216787940363,4.339416778234879,4.0646883008643297E-4,3.157929594281222E-4,-3.505689972540959E-4,1.1715591662210891,7.755294628509406E-5,-0.4360331355441226,-6.915027913553567E-4,0.36369972705367976,-4.784265078543715E-4,-0.2812822523433684,-0.3189915767990235,1.9831621476174878E-4,1.9831621476174878E-4,-0.03194251194469461,-0.03194251194469461,-0.03194251194469461,0.03470107405398254,0.3457994070901679,0.26366583140543215,0.062010897657273106,-7.34755291519844E-4,0.49911703334857116,0.18619685149413456,-9.219943109232864E-4,1.060003419539417E-4,-0.012397110137821379,2.9306362119717766E-4,2.9306362119717766E-4,9.1610622174016E-4,-5.749760459795373E-5,-6.982380167250243E-4,-1.4591532098265017,1.8113497388251931,5.576500750000897E-4,-9.624284655872597E-4,0.19698303779253604,0.19698303779253604,2.6204430315320835,1.3483009226693687,-0.3844406372459575,6.317531529148211E-6,-1.0871789261668405E-4,1.1308169631442118,-0.07480736044858907,4.8044623060450146E-5,4.6101884788245326E-4,-0.4207608798999452,3.0181476641110653E-4,-0.11950530202781307,-0.11950530202781307,0.03438849017278682,-8.839840540702513E-4,-0.2042865017062836,0.22148216136058982,-1.912828289235334E-4,0.2700640238283006,0.18277617341763142,0.015731229932143903,0.21756199219538086,0.4251987324408124,-8.397101344036055E-4,0.2890325925745597,-3.9912261092745144E-4,0.3169917370717353,0.07429136335418605,0.5326298372730971,0.9933827943061643,0.9945900914104397,-7.675385578880557E-4,-0.02562309883147549,-7.284021594550416E-4,-7.113205521125533E-4,-0.1839872167105348,0.07322391610814483,1.0076732536731718,0.29927720414152753,0.2983057310615851,0.8340980250128638,6.595210136014544E-4,-0.004408540518926285,-0.20866072920443365,9.509874365126745E-4,4.1495703291268785E-4,-5.169261167372532E-4,5.8691815118587466E-5,0.5436436876827799,3.4275762317928006E-4,0.13760062911630722,0.1613309123782168,-0.2978501425702204,1.5200283741525902,0.09326472091615422,-0.31796106078163,-0.0264153941859318,-0.05047533168167931,-8.267069953421082E-4,-0.0052940019249129505,-0.0052940019249129505,-6.051579646907486E-4,-6.762103762355902E-4,-0.12767877152548715,-0.05446239333221956,0.4555714075200778,0.47912130542279957,0.3328089385612391,-0.6092674282979336,0.10433409038951943,3.992202441683926E-4,-0.43268493950771064,-0.43268493950771064,0.08916118819357446,-0.45760667944341293,-2.0920736879838184,-2.0569575146017868E-4,-1.0020532800785804,1.574339937542294,5.190775445285466E-4,5.11822761162062E-4,-0.0336890559380157,0.24591790459945415,-0.021933164217406403,7.071453971157786E-4,-0.22519251709237695,3.85280334399909E-4,4.861015820928089E-4,-5.531916398583774E-4,2.498918325515296E-4,0.6516857110417009,7.764797032725535E-4,3.915515430924667E-4,-0.5136106300556001,-0.38111691310247886,9.362722986918943E-5,6.099943897443983E-4,-1.6827979631151165E-4,-5.082077287935416E-4,-5.313095400165662E-4,-0.26011501375266677,-8.631562182568361E-4,-1.068422474567259E-4,-1.068422474567259E-4,-0.26011501375266677,-0.26011501375266677,-0.26011501375266677,-8.548883031752531E-4,4.536011972608567E-4,6.380871155225749E-5,-8.252869442538862E-4,7.394156489425984E-4,5.420620559558379E-4,-2.1780306445300557,-1.3144997483915998E-4,-6.040774882870663E-4,4.739448186444414E-4,8.15563267467002E-4,-3.060345787009697E-4,-0.5763082802950985,-7.294122531141076E-4,-0.008880798462398046,-2.5923098266989304,0.7242671817407694,0.062156709521886844,-3.295396370332766E-4,-0.31742429969609776,-0.06003124623494526,-0.005199276739493301,0.34861160833122595,0.4486982351874993,0.055634276468410404,0.10575978058419656,-0.28503401419510566,-0.5344815675688357,-0.15395187053265427,0.9105655044232129,-0.055567414142238244,1.310871385407136,2.5390724084401155,0.17307245484160821,0.7984053271242839,1.1409719692692815,9.525196331865641E-4,-1.1476164826156907,0.02638308875273567,0.466839953141696,-1.2694152138381125,4.72554264518384E-4,-0.027752875410635862,-1.1734007851817467E-4,-1.698107241600369E-4,9.67346347477924E-4,-0.03745752259699155,3.946783183192067E-4,-0.17016166311193104,-5.415981870981873E-4,1.972094563654152,0.2464498843180623,-0.3989799657762161,-1.543276809157228E-4,-0.2245383602723189,-3.209972408380929E-4,-3.209972408380929E-4,5.45094224797194E-4,-8.194476874998674E-4,0.30008061641608347,-8.194476874998674E-4,0.3617988107851105,0.34848392657702243,-0.030881024267865972,0.03406611082899522,0.18034820033052804,8.548848101265448E-4,-8.041467984524728E-4,0.2113314863552409,-0.05813346226442724,1.3760747674685503,2.883032206290469E-4,0.5519678370443378,-2.648832097684943,-0.4160124839869245,1.6882709100710601E-4,3.622293319652779E-4,0.12832765134961727,9.816379518334459E-6,-2.5158495973985314E-4,-3.637896316321203E-4,-4.356813840298401E-4,8.59266917729069E-4,-7.780990017559898E-4,1.2882863403620081E-4,-0.0036279497741620176,-0.0037532687761123494,4.270302025651868,0.39217161217029106,3.3767703710422224E-4,-2.6270287806470446E-4,-1.2597489110919458,1.417642595039575,-0.04587307698536883,-0.28420116638920956,0.34611696775733847,-4.410567109983199E-4,-2.469395064261151E-4,-0.44198612004321663,-0.6061184690436591,0.41195450314349996,0.26403087489766736,6.532149912530991E-4,-9.280119697397535E-4,-9.064393352300942E-4,5.535599537420918E-4,-1.0692404797256465,-0.2626182737372133,-0.5853272982587618,0.28806222894507744,0.2764112016900898,3.4332629730027957,0.28488194988898335,0.2853058649563227,0.11934601194720199,-6.594626026168299E-4,-4.4423692698056553E-4,5.156057358429944E-4,-7.989536505321233E-4,-6.412106847892884E-4,-4.367927433683789E-5,8.526784032159663E-4,7.804362451719511E-4,6.447913567256681E-5,5.618240869000135E-4,-1.103038875617735E-4,-3.529399199942052E-4,2.3914529281041737E-4,4.4205820542871565E-5,0.7391630742292844,0.1218493004543368,5.305679118144115E-4,-3.384582200129441E-4,8.990950663303784E-4,-1.6596359404669365E-4,-3.393853751593501E-4,-0.2587532200789987,-0.047052583127935615,-0.3244717245031629,-0.46378651901136214,-0.15331816315666918,0.1051711687089001,-8.550229597963782E-4,6.023938643921722E-4,6.293687744137249E-4,0.04176207754534388,0.12019095963267666,9.289417444353841E-4,-4.812281863698178E-4,-2.916282076744104E-4,8.280412690387048E-4,-3.467000446898672E-4,8.010712806597079E-4,8.010712806597079E-4,-6.641044252817013E-4,3.6848212581473954E-4,-5.562629349383042E-4,-7.077774841956113E-4,1.6346290116658493,-0.03683615495450529,-0.5859407709220003,9.920820494219646E-4,0.27348633525227717,1.2429009142138835E-4,0.15118841388256338,0.15203711092653616,0.8911786002822457,0.1522219424318278,-1.461098259790346,1.3457596090089927E-4,-0.01429811578732626,-0.012237873525470074,-0.058330427786731864,5.46115400038822E-4,-8.038390085297262E-4,-0.09495461579953555,0.694558032941244,-0.06677794847646198,0.07612043612631723,0.07565344921675754,-2.0572266987769603,0.1426864441253598,1.504045198921927,0.27941212653177316,4.709756333341941E-4,6.999198285910269E-4,-1.047114040306437,5.86280314117714E-4,-9.444289532275319E-4,-7.500731378789619E-4,-2.5843209163444044E-4,-0.24088994316744392,1.7715836471333274E-4,7.599635678200179E-4,-0.9882170240579711,-1.9188538959301211,3.5543545179880873E-4,-1.6395661968117252E-5,0.0057365997951049465,0.2011422545554563,0.2435633392553674,0.2435633392553674,3.5688648757333007E-4,0.3641202220855413,0.7828717019289579,4.1874358990357625E-4,0.07294014804528069,-0.7885107185703825,-0.1375676695012297,-6.030593108443305E-4,8.427968676795947E-4,-5.385959018459827E-4,-4.0590182588926015E-4,2.4481713941208695E-5,1.906238943282059E-4,-0.02801179585169378,2.334020859769073E-4,1.7930185780387804E-6,1.906238943282059E-4,1.906238943282059E-4,1.906238943282059E-4,1.3036100759719832E-4,-0.45062003063684675,-0.0722252712321162,-0.888817701139459,-1.0155272356446895E-4,2.3041197087064996E-4,4.019874832461754E-4,-4.7354982557481194E-4,1.2223041685935907E-4,1.2223041685935907E-4,8.085318978450237E-4,0.5491184326605393,-8.067588263784616E-5,-4.8427680613759717E-4,9.253104236580053E-4,-5.9679373804035884E-5,7.1219994165287E-4,-5.438655870236305E-4,4.1788903423704816E-4,-5.439172461504399E-4,-7.406703609721236E-4,-5.690546481964363E-4,0.261766432952569,1.3288533375738578E-4,0.2640619596676752,3.2950502252581206E-4,5.555445178006376E-4,0.26210871564823907,-7.303191491600108E-4,3.9448363972435763E-4,5.96504967171343E-4,5.96504967171343E-4,0.2628018625857889,-3.4193774965269404E-4,5.788421731401135E-4,-0.021456417761865708,-2.916110201606477E-4,0.25005341003281745,-2.8516301133409616E-4,2.719533960613417E-4,0.20304776200701255,0.21491900309009826,7.240802007376588E-4,8.106392073330658E-5,-7.265359929633896E-4,7.602582938831762E-4,-0.09442948687430887,0.5614756567724427,-7.548498399572593E-4,-6.708457159026655E-4,-5.587979797629817E-4,-3.852546462045454E-4,-0.024351413535112318,1.0631197833609637E-4,6.879679091993155E-4,7.540538936070922E-4,-5.484174542603724E-4,0.14525840069889254,0.1214853500258744,-8.553264147873484E-4,2.8880788460036935,7.626624914375241E-5,-0.0138484198439883,1.642662488170125E-4,-0.2399276140312058,-0.1513799992337521,8.551793538325433E-4,-2.77941013710306E-4,1.9621960117716217E-4,6.147913508548707E-4,0.8819490857832254,-0.013299089274283096,-0.012406606141109186,-3.8812554225054656E-4,-0.4971088271092388,0.10524934604744587,0.9009244573741206,0.3183542133506506,-0.041783169302888404,8.577595218427238E-4,1.1833935752302005,-0.197069876034841,-0.17070185146894493,4.404410113861797E-4,1.47512713153412E-4,1.134847850328596,0.16254171037073248,9.776796329951686E-4,-8.721968148790839E-4,7.239502071514302E-4,7.239502071514302E-4,-5.10542028877156E-4,7.802372517593166E-4,-0.15190435867431792,7.9028509700171E-4,-6.656489906110654E-4,-2.4887521997123803,-0.397839911630913,0.5188489351968252,8.557031098847375E-4,8.752447555769832E-5,9.289031612919191E-4,9.289031612919191E-4,-8.955403585452003E-6,4.025750078772096E-4,9.301862632018192E-4,9.301862632018192E-4,-8.955403585452003E-6,-8.955403585452003E-6,-8.955403585452003E-6,4.966383474855583E-4,-6.850918706048979E-4,8.58263124225507E-4,-2.7912569677583697E-5,-9.154044113182788E-5,-0.020119112441921324,-1.603223688221206,8.092661567078245E-4,7.736117869432786E-5,-7.957265260729759E-4,7.807172709812661E-4,-1.5934670212106856,-2.0209152157363897,7.617404713497337E-5,0.023599689350046624,-1.291333884507822,0.5456838469228231,3.3345048072885505E-4,-0.003750011706174363,3.7486307376762506E-4,3.7486307376762506E-4,-8.580464828898027E-4,-0.41410529961442244,-0.0015528123823961705,5.765797328130958E-4,1.922472992031861E-5,1.922472992031861E-5,-8.25133571815555E-4,-5.116173873904494E-4,4.232748440386614E-4,-0.06713083260455972,3.64442893221366E-4,-4.428538167572059E-4,8.53631833609223E-4,8.769481692205345E-4,-7.857385014567579E-4,-9.756218946044193E-4,4.02494778136875E-4,-1.096038824523447E-4,7.971373857156796E-4,5.647609864846428E-4,-0.316062423791426,0.40305839910668606,0.11221674933919816,-8.695925139549843E-4,5.672751618362787E-4,1.3465248827029103E-4,9.455300031068171E-4,7.213718901696929E-5,7.123817666361222E-4,-2.753585526209002E-4,1.3893099633399447E-4,1.5107933784428438E-4,9.605120092946653E-4,-1.3448354794220585,0.04403320749096773,-4.1032366337497104E-5,-1.6712518768736116E-4,-0.5545977533435095,-0.8125821454550586,6.467921444357372E-4,-0.09547559840407796,-7.422749995937797E-4,-2.861535935633166E-4,0.1856235827830834,0.062010049468252344,-0.2456716957823215,-9.335283767582177E-4,-5.359023325735273E-4,9.030132997377901E-4,1.3068032067130284,1.4853800336058292,0.4809375140058188,4.367207536007413E-4,1.3268649465009532E-4,-0.023814495320040343,-0.06295645527486593,4.0130871985865724E-4,6.739520867477531E-4,3.912096006482967E-4,-0.017640588863222884,0.1791325195847251,-0.02764086370135251,-0.001854738162704699,-3.2407358234263594E-4,3.186171558839381E-4,9.082441332771364E-4,8.998571007943293E-4,-1.2116336184554548E-4,-3.4139135452547595E-4,6.496655447469937E-4,-9.272446944436376E-4,0.2878031938843767,0.2955366815835373,-4.374198075070107E-4,5.388690410630228E-4,7.349230805969301E-4,4.5728653212254514E-4,-1.5514476121989087,0.03348908951076336,-1.7486826240602422E-4,-0.28939247036465204,-0.3023469441672602,8.2527881156293E-4,-6.544574333001856E-4,-5.656482191319918E-4,3.310333110234674E-4,-7.476382139100252E-4,0.35687552156217445,-0.43164981827755944,0.5274313292146637,-0.011110061105370194,0.34930347784901,-1.2117073757296433,-0.7782098782484707,0.4567861469348083,-2.692269515853431E-4,-0.07421136473896854,6.0880708169229556E-5,-0.02717720151075789,-0.3970287936343818,-0.8664992840083171,5.938406901928108E-4,4.0294479310126015E-4,2.79676646513251E-4,0.5939271347783805,-6.074687832475624E-4,0.11403408754563116,0.3849262625945389,0.440660505387246,0.06022191629585,0.34903514356334003,3.743625544174623E-4,7.109229355435124E-4,8.985326921234046E-4,8.985326921234046E-4,-0.014477657057439888,5.373215402366112E-4,6.397383197554846E-4,-0.28102357130350974,0.046315034116507545,0.4044536207516247,0.33818559466490095,-0.2758379364155483,-3.601354192316146E-4,2.000665081806866E-4,1.6920208738480168E-4,1.7529397273361165,-0.2400961312258476,6.475389660213373E-4,0.5363285881656259,-0.1267703823540941,0.04626821768637904,-4.8423324933108576E-4,-4.8423324933108576E-4,-3.7702608403525394E-4,-0.23561462246042428,0.2608393048820282,0.02417505971001216,0.02417505971001216,-0.33288001929325184,-3.118274507788439E-4,-3.118274507788439E-4,8.864090087198851E-4,6.747352432381409E-4,6.747352432381409E-4,-4.952385456429916E-4,7.178203690606323E-4,2.464187896272722E-4,2.464187896272722E-4,6.919197825072478E-4,-2.7031139918970264E-4,-2.7031139918970264E-4,-0.08731909712729612,0.17809513872882565,-0.037263848354166434,0.30551756805058783,0.30551756805058783,0.2503443909875099,1.1428562705514982,0.06500198837676122,-0.2881923098359451,-0.2881923098359451,-0.004690624873373919,-0.852575161458863,-0.20537382093536644,-1.1307247378745704,-0.2448546810399957,0.4509425344472114,0.4509425344472114,-0.09576763128043353,-0.804332773348162,1.2300819532041496,0.05717671960516835,-0.1223691070702431,1.5498647933848782E-4,-0.03363729181844126,-0.03363729181844126,0.2747319642725449,0.25871726407101875,-4.1590057760565035E-4,-2.1073358068931465,0.5840817451186011,0.7562724677793075,0.1702332824567759,1.0091318519545665,-0.5966946042285468,-5.411099931382111E-4,-5.411099931382111E-4,-0.33295721899269753,-0.22621881475121167,6.567704536205084E-4,1.3406645334442704,1.0547872350395582,1.0547872350395582,3.1607788640771504,-5.28379629102353E-4,-4.497123311640696E-4,-1.6073892471159604E-5,0.37157800348261066,-1.8994764843692782,-0.6776826549234526,9.190175332659276E-5,-0.013532262216849979,-1.1042820209873587,0.08952904602783397,0.27618519456163415,1.0386413611202252,-0.1904824222517526,0.3916512596094116,-0.05711831808460435,-0.10237123638826448,-3.3596485084004535E-5,-0.6230937717114957,-1.70334301725395,0.17608045008569254,-0.23746790235772633,2.398412377238904,2.157262139744167,9.417867528777567E-5,-0.026844674750898807,-0.22732341142984228,0.3007454721729007,0.8495263776195912,1.345676239588337,0.6653759750598565,-0.5617334513106453,-0.06478078804686574,0.154833293454391,0.751418418459042,0.2332493387888915,-0.22193740959303201,-0.6718874785153396,1.419814430301473,1.2358178346453597,1.2390061925152673,0.8022236212481236,1.419814430301473,1.3514607628853343,1.3514607628853343,4.849971672130606,1.929782009333458,-9.212496235743756E-4,7.8205759049937E-4,6.462651969188452E-4,-0.13459677873700493,0.2536384853006171,2.1764656369308477E-4,0.4909572187531538,0.021554757057381344,-2.0234682600038414,-0.35552483422791636,-1.8823273284427223E-4,0.4015840783384527,-1.0813122329520597,-1.541273136963792,1.499490361500272,3.4508028353971915E-4,-3.5431386755177085E-4,-0.7114389282990845,-0.1767367554949494,-0.10261955552779312,0.0781443766362199,0.08574528067033561,1.125604898556653E-4,7.660017794371954E-4,-3.0329457385659833,0.05470061917388129,0.2846229036726978,-0.5728353700394705,0.23825733900796256,-0.12444953752570806,-5.604608773147757E-4,0.8497123114397169,0.21303797527607382,0.10406867222919158,-6.615264078197979E-4,8.789991678313687E-4,8.789991678313687E-4,-3.039381927791658E-4,-2.574933868491222,6.566247843850131E-4,2.740364496695881E-4,2.740364496695881E-4,-0.9295230998193841,-7.536942966315587E-4,9.175732112289407E-4,0.35379071893391767,0.15231071081586206,0.6111580276963051,-2.5969914532548695E-4,-2.3065390529838773E-4,9.556030352099989E-4,-0.0913578723951732,9.354661347796263E-4,-8.594637820682576E-4,6.182610698439459E-4,-0.0913578723951732,-0.0913578723951732,-0.0913578723951732,-2.959935103158625E-4,6.005977043828763E-4,-0.08554688980971577,0.23490107297928772,0.05287357306348916,0.4610131811028215,6.16480657158504E-4,3.520316751419697E-4,8.923713773630994E-4,6.730615541455508E-4,-9.212933697169421E-4,-2.7568414064532405E-4,1.6905950753242294,-0.15989282210399386,-0.33533461123948355,-4.09654924492102E-4,0.028113435971472978,-6.258314649660031E-4,-0.9272850273600132,0.07853912083299125,-0.01914232275886276,4.086164766149629E-4,1.2931108534750797,1.2931108534750797,2.435522412576159,0.27298358792389354,-2.0622051335361115E-4,0.0479704523096325,0.16982398073122737,-7.243586843735144E-4,-9.236456364754097E-4,-7.175189414188766E-4,-6.152383833535011E-4,8.758454761962918E-4,-2.427072291916653E-4,-1.0459042494501277E-4,9.958993959411067E-4,0.10162814670318782,0.32938905777138366,0.32938905777138366,-5.612463490713196E-4,0.3856490815430486,-1.1196778489098405,0.5696030406526364,8.18033659215388,-0.013828917077282826,0.42811685551291895,0.04972666772626326,-6.086152871172881E-4,-0.35021220875758124,-7.295514965142795E-4,-0.5796339983776683,-0.5488037982833279,-1.1430207657137883,0.10715981002459339,-0.1347287853655238,1.1874063178955347,1.4412379060009075,-0.19383341871696413,-1.4726128020651542E-4,-0.37642349559161753,-2.110270354311394,-0.18209503658136825,-0.04532665975469788,0.2613829378697422,1.4288605206916025,5.48056913154984E-4,0.2080439002586861,-0.9332043433355727,8.387507466558005E-4,2.569422472131184E-4,-0.09163580030674026,-4.5262312530678045E-4,0.03498832752283794,-2.159599313574088,7.795132367898253E-4,4.117237205130534E-4,7.269224980627372E-4,-5.746509834974316E-4,-1.116441319496285,4.12605659801744E-5,0.10215685275359584,-1.125789434629792,-0.8128864514817804,-0.8183946210826932,-0.7133623644227969,0.2946337936964455,1.4337403625697338E-4,-2.1095466711690727,-4.189479783424689E-4,1.7679092823321167E-4,2.6841589285078737E-5,0.44692812278448096,0.04369869197096584,1.5073418345654035E-4,1.2789960605026868E-5,-1.024048298800481E-4,-0.039458298466874694,-8.461677607602856E-5,-1.363213627228996,-0.915464733120536,-8.002255800813639E-4,1.6001467006344266E-4,9.068757779334077E-4,9.058051347125471E-4,0.13350220482610084,-1.7856064209319418E-4,-1.7856064209319418E-4,-0.19997833522589775,-5.656575487071665E-4,3.166358269661813E-4,-1.167718725103257E-4,-1.167718725103257E-4,0.6251837085534871,0.07973941881873495,4.200077324744474E-6,-5.928166833297142E-4,-5.928166833297142E-4,-1.496006564475653E-4,9.81281244009942E-4,-7.66992779180212E-4,0.28214499937234866,0.0370566620038903,0.21958504244645952,0.21958504244645952,0.6748190013829166,0.306096981713187,0.09114671724856084,-4.676471911165878E-4,-4.676471911165878E-4,-8.181690780198914E-4,-0.6467831840576468,0.05557668015883866,-0.034593244764562395,-0.3557592208966191,-0.42670836441690796,-1.3307524838829767,0.6732914658859341,-0.008414108078389923,-0.005478512762226481,-0.005478512762226481,-0.7587649854852506,-8.566619676675206E-4,3.853732544291473E-4,-4.777265970578572E-4,0.17731303369555626,4.113482558693167E-4,-1.1776764353340277,-1.1776764353340277,0.03339545103983345,9.185295379507353E-4,0.08715820952306237,-0.9678903331414218,-0.2430564913777869,-4.942388504291509E-4,7.462309241216636E-5,-0.4673696730949512,-0.4673696730949512,-0.17027619287889462,-0.05904522969649113,-0.6741909763064785,0.4897770991399266,0.10566160984876521,0.4862408155514305,0.07444229523173512,-0.3763373207254053,1.2567103297083293,2.6481078856649637E-4,-1.846374172943398E-5,-6.825563458964877E-4,-0.9944204136853518,-0.010784781124710317,1.0084765166115499E-4,-7.254043910085165E-4,-1.4036148210970674E-4,-1.4036148210970674E-4,-1.1329012103408385E-4,6.780928182679902E-4,-5.017119758965196E-4,-0.00974047538403094,-0.007177670063305143,-0.008704330433243847,-3.2223841661977023E-4,-1.1995184158429109,-1.1995184158429109,-0.6785890385028986,-8.714603055429423E-4,-0.011620244173483778,0.2191460392332753,4.464462313572118E-4,-7.076687576974979E-5,-0.07866312294397945,-0.01818124514390604,4.614530765226903E-4,0.05559684582070165,-1.4244141877313359,0.18924445411354854,-0.09956230222320141,-0.03283781324870653,-0.019471858866177773,0.8652303403120962,-0.1967259251423353,-0.6219163875536112,-0.20625971741989488,-4.574506640718163E-4,-0.7529646892868056,3.0802430975327214E-4,-0.7997191818920547,-0.005852730173489256,-0.005852730173489256,-0.5162007782213849,-0.7494402732165208,-0.6846035420887099,-0.8691965150450734,7.470746805976879E-4,-0.24129010426733527,-7.404367517127772E-4,-0.40216642104154704,-1.072122008132577E-5,5.502733785498282E-4,7.919659483966912E-4,0.19050659438865664,0.19050659438865664,0.15565697531581008,0.7963767897088129,0.40996278234379224,9.453269686848266E-5,-1.0506125734518585,-0.6487521645645489,7.221772092142771E-4,0.5004228149057833,-1.9963186834405526,-4.036917439171751E-4,8.303459469588569E-4,1.455168574219872E-4,-0.040827090934762375,1.479659568471904,4.6209886292455015E-4,-0.6754737543749731,3.494349036834868E-4,0.03924718674859129,0.6518332056481294,-1.5527919952874132,1.455199245567932,0.635207588715347,2.9962242636902725,4.19002095393377,-8.787752987832022E-4,-9.633991939827736E-4,-0.19391105624027705,4.594131767009735E-4,2.0613072921385467E-4,-5.646666830750348E-4,-3.886949063181711E-4,5.481290126876795E-4,-4.1842002935201634E-4,-0.7121898035916047,-0.7121898035916047,-0.6093350420918339,-8.84864535012303E-4,0.0053684255005598605,-0.00550726605533846,2.4251319216515417,-1.6986963640856723,-3.3019237509824433E-4,0.34488558133156266,0.12992818834046962,1.2612259645699165E-4,0.16222211726379493,0.16222211726379493,0.5567370034683822,-0.8303039581078591,-0.062179120854089276,0.4129913792895395,-0.4885892462996565,-0.4885892462996565,-0.6694759913324445,1.1149400141336754,-0.06214202853005138,-0.7427892255195427,-1.1032905395406114,2.5118113063618464,-0.0741364582245887,-0.1687446099110918,4.6475331263900587E-4,7.394423377297493E-5,-0.34341100907483935,0.2911870746416755,-0.02095981069339449,0.021274064605340322,-1.5444843806225548E-4,5.652211656491991E-4,3.8156950519229653E-4,-0.14361249023033196,1.0168145886378095,-0.17283617124597514,5.165491698817819E-4,-9.226286004336494E-5,-9.226286004336494E-5,0.6336686810092725,-0.35383857938485747,-5.289936756907119E-4,0.07247931729005122,-1.2762123612868743,0.5776481546271632,0.5776481546271632,0.1813509669273545,-0.4289988774536648,0.18283384278492007,0.8200871842280882,-0.012329528051245398,-5.171686066234569E-4,-5.171686066234569E-4,-4.3602340439324525E-5,-7.460754270563458E-4,-5.171686066234569E-4,1.9988060297479611E-4,-6.480330566703325E-4,5.011426232923073E-4,5.011426232923073E-4,2.4948251073893604E-4,0.28978340166205235,5.011426232923073E-4,0.3525734512243753,-0.08011726117631615,0.43028016179583106,-0.02005134335787967,0.2112112854542795,0.5095620186224407,-0.23216167394790857,7.659715378284331E-4,-0.5185159638048362,-0.5185159638048362,-0.307138954576444,0.8249473103072308,-0.15964751532125687,-0.16082493299553055,7.979120371376144E-4,-0.29465746518173974,-8.906299677293E-4,-8.906299677293E-4,-8.66855043117021E-4,0.1167398964760262,7.225092345116943E-4,-8.322520548747213E-4,-5.504498478306766E-4,-5.504498478306766E-4,5.646968164001473E-4,-0.045671511031734814,1.4521756256672845E-4,7.57077350641234E-4,-0.21275262890152352,-0.1161069691806105,-0.041669554497549,0.22930692550874118,0.5307958229905068,0.3919149589042322,0.7078554980040467,0.27270199536770295,-0.0662237504763156,0.3919149589042322,0.3919149589042322,0.3919149589042322,-0.014039051166255267,-1.8740854325820997,-9.25163755406157E-4,7.253520456032603E-4,8.757101813005666E-4,-9.114141708458126E-4,5.216234458108673E-4,0.1420748755229777,-5.331980847657263E-4,-3.7876043667720504E-4,5.624355407156396E-4,-9.419952990301361E-4,-2.990616284641918E-4,3.947304259013162E-4,-0.010317672686976743,9.314525659234983E-4,-8.154721182264199E-4,0.47041183244263074,-3.2665707383036256E-4,-1.6158736369258834E-4,-0.4462856110266689,-2.948923404307364E-4,0.7970572745077864,1.2030979043666616,-0.36669850386597375,-0.4364130268136897,-0.049481755521351534,3.234538165482753E-4,0.11994755319543172,-2.9917114127155694E-4,4.328503387027265E-4,-2.483780582659788E-4,0.3809241105673626,-0.2702095897733641,-0.6965326998247848,6.451222710432477E-4,-0.05004062020390372,-2.4267382504528426E-4,-7.230543764507507E-4,-0.30474819353249716,-9.090728718279471E-4,-0.06805459297739914,6.436507120200115E-5,6.436507120200115E-5,-3.812815037698891E-4,1.3885210903340412E-4,-2.916132364463148E-5,1.0990072091157381,0.18275886169142516,0.13481985128751492,2.164402751295294,0.13718030802235853,0.3880496113902153,0.21879648298802762,-3.1619938855130243E-4,-0.40554996902773255,2.8271283010845123E-4,2.8271283010845123E-4,-2.172246575933819E-4,0.36111112329680883,4.436852059325077E-4,-0.10000517337581256,5.040950444632263E-4,-0.0382258546804056,-8.259196783165306E-4,-0.18337047162799747,-0.7522286016551751,8.79432570611805E-4,2.1352131098373492,-6.556343695858077E-4,0.06463668025934947,-6.462921986614123E-4,8.733026009554012E-4,4.288199075008032E-5,-0.01136553035809785,-0.0012095086742524824,0.2597312997585759,0.15354845482979187,0.1055572806266628,0.9413063008644933,-0.08878849796381652,0.921269519574601,0.0779407448560267,2.1442692376599402E-4,1.3607418936383988,0.7351059971554187,-2.97935558592912E-4,0.07747685171057597,1.3607418936383988,1.5971351499208029,1.5971351499208029,3.007685844317952,2.3687661416511507,-1.0099375714443456E-5,-0.003344910430152498,-0.36562899221454087,6.449932393976677E-4,-0.9941653810008292,-0.18327248799319706,0.3135478447718046,-5.049062829023906E-4,0.12460565605660062,-0.3563014083257735,0.08195989704340745,-0.00634641725381457,-0.04927790137821354,0.2310647379509161,0.2310647379509161,-0.09086122081155171,0.5976560434102017,-0.48264825663771843,-1.5960226158152034E-4,0.1262914642561347,-1.7044008720952823E-4,-0.08815026157730886,-0.08815026157730886,-0.1408320286422351,0.17367195423097714,-0.08801395364442605,-0.7785740631002125,4.758626214106825E-5,8.366619448054999E-4,-7.608402760751198E-4,0.1643242058943139,0.37257050794478996,0.3648356293875959,-8.309111709371049E-4,0.11048885182802509,-0.9935414052837493,0.2092525426912892,0.8362078267306575,-3.722858367891293E-4,6.217883211307729E-4,4.4211961007906337E-4,0.28187880964831874,4.170062681756808E-4,0.21989253640859105,5.94019309029594E-4,-6.192359904149819E-4,8.65511203978991E-4,0.13468319545986,2.5934283943755037E-5,6.13886574982427E-4,8.265430438609382E-4,0.28199646314691723,-0.15267994892924305,-4.238788914480982E-4,-0.07497975336801321,0.21112433547065781,0.21112433547065781,0.4381561977954527,-0.3091615214233431,7.50442739574313E-4,6.025723616479499,1.3625871778807048,-4.1110837214510345E-4,-0.5598373898415353,-0.08126219967689033,1.3412191213054556,-0.2222284109861717,-3.717907411407098E-4,-6.877508333829329E-4,0.6970200780529353,-0.15680816573472908,-5.678223652138715E-4,-0.40664437367662026,-0.024432720835021734,-0.011962068095222135,4.175902050375317E-4,0.569913208180839,-0.36545662294435494,-0.040458829552256007,9.573336717337657E-4,-0.09991211497203409,0.3237212062037149,-0.015959830419835265,0.17853911950869084,1.0504396223018202,-0.462175432705466,-7.997991580087862E-4,-1.899946826076507E-4,0.6389928414746302,0.5051112144604069,4.058679026607054E-4,4.988795422636003E-4,3.766312344368047E-5,-6.101888176450806E-4,-1.254478438294835E-4,-7.392352254362339E-4,-8.006827706431639E-4,9.004119148669196E-4,4.914715707621873E-4,4.035917720744143E-4,4.7631266221181967E-4,-2.1871930274600262E-4,0.75772010699489,0.6514688637458305,-0.0015929448562568014,-0.19029584378552394,6.778695985384178E-4,-0.09673635822441463,8.208765797505476E-5,-3.69069009596482E-4,-0.016925009168655372,-1.5404762470024453,4.8293050678456626E-4,0.23115026432651017,0.3682950750329324,0.2442559413646309,0.09476193100086044,-3.869234572443248E-5,-8.39281740648924E-4,0.03209226231305412,-0.15067913256073234,-0.4304569918103931,-2.881458840775842E-4,0.2382694668330655,-0.5543289657088397,-0.1260771442526558,0.16582619178165486,0.243690859643447,-0.06165544879941405,0.6415489352597944,0.09861383865664583,8.82422955278301E-4,-0.20389284718116021,-0.2772867105654427,-0.21307840133609485,0.1196465772451028,-0.5433449560047531,0.08835833299837455,0.5158547059426849,-6.968092999425008E-4,0.700928962452289,-0.424001039806691,-0.5528111718397243,-0.5528111718397243,0.14161791189175266,-0.42062317610610794,0.1420756192418795,-0.1511785329718704,0.4810594256092597,0.4810594256092597,-6.323477736961576E-4,0.20492801398214544,3.917873300657553E-4,0.4601343807165152,6.59180329112864E-4,6.59180329112864E-4,-2.2791006077962483E-4,-3.158378289535328E-4,-2.2791006077962483E-4,-0.0018199041531419523,-0.0778952220398434,-1.802186259626411,-0.5030508292063276,-0.5030508292063276,-6.718287421728759E-5,0.2319135480287463,-6.718287421728759E-5,0.13189109731349793,-0.01680551336034241,-1.2124877765833748E-4,-1.2124877765833748E-4,-1.2124877765833748E-4,0.38532592425695417,-1.2124877765833748E-4,-0.13975583967980715,1.3436383706019932,4.636614457627596E-4,4.636614457627596E-4,-1.6011590623951676E-4,-1.8809821781262627E-4,-2.1358805522135507E-5,-0.005431847309438939,-0.004623707833906013,1.3277104949796026E-4,6.082687715384335E-4,-1.0687308199955585,-1.0687308199955585,-0.737786458489494,1.7343363902776762E-4,-0.005700489053027922,-2.7388340329948316E-4,-7.127380808305888E-4,-4.155556855934498E-4,-6.51801854883104E-4,-7.703467057306665E-4,0.8170452683245376,-0.19532374067082114,9.066864307712989E-4,7.414081037504566E-4,-5.606975699631475E-4,-9.326732153011798E-4,-0.1865842920377524,0.10316255227406275,-4.951215106916483E-4,-2.2177225218647295E-4,-7.696193088315522E-4,-6.645939961247727E-6,-0.8707884625397458,0.8286005594347774,0.7243752993875349,0.7243752993875349,-0.1691164308816722,1.1085748904006332,-0.16969179624834424,-0.003482793982967792,-5.291913987645291E-4,1.178868955939949,1.178868955939949,7.762409815021401E-4,-0.6212805363098031,9.887842911599156E-4,-1.0066466979758262E-4,-1.0066466979758262E-4,6.968213155710399E-4,3.199513518947157E-4,-3.612259080470469E-4,-2.334772657894479E-4,-0.1448170232750584,-0.8385241325244309,-1.8206765278467446E-4,-8.878706274047447E-4,-1.4311041864196257E-4,-0.5675851521109004,-6.41994680573234E-4,-7.843293450105421E-4,7.46605148521963E-4,-0.5675851521109004,-0.5675851521109004,-0.5675851521109004,-9.20343068501442E-4,-0.003975137619141596,3.657289646889361E-4,5.652572860855721E-4,6.593289069819514E-4,-0.11963547587512491,-1.8521622811773497E-4,7.568477973059196E-4,8.949884680757293E-4,4.4112693563685837E-4,0.2683796738227297,4.4244521367923454E-4,-3.1264464818223797E-4,-2.624187389135557E-4,-7.362332730878173E-5,5.016424538541334E-4,8.672879982949363E-4,2.8000616572085703E-4,2.2590351142230886E-4,-3.0690820437239666E-4,-4.4249736079903337E-4,-0.5567338472625523,-0.24125179410408049,-0.009670191131087072,1.5844966396756427E-4,-0.25062906031442095,-0.04183053841668294,0.17881298082905187,2.5033474540072883E-4,-0.018535911938042507,-9.595252684992351E-4,0.1287242759321956,-5.150279847006272E-4,-0.12369084493008203,-0.12369084493008203,0.0982617681911306,0.0696870925758114,0.20959340203882573,-0.1298075446783123,-4.808117916971569E-5,-7.047133667000869E-4,-0.7058153345729844,-3.0801117039280204E-4,7.79205634564772E-6,7.79205634564772E-6,-1.176329958285198E-4,-0.11864869052314007,-8.130979540526689E-4,0.7052181905269894,0.6108307812175574,1.8857224858441425E-4,-1.865967154532635E-4,-1.5334163068865308E-4,-6.685662539847998E-4,-3.3831378698039353E-4,-0.038531378654355415,-6.594501437378407E-4,4.281113848476055E-4,0.006282880112509923,2.728042547035217E-4,-6.242822897387137E-4,-9.36029260449473E-4,-7.375129526664472E-4,-4.610400339908195E-6,0.06427568818029783,-9.411703275389379E-4,-9.411703275389379E-4,-4.338371922914375E-4,0.05869054095636739,1.5470231626428523,-0.1175084641504682,-0.1175084641504682,-6.452096077382919E-5,-0.4934951263536655,-6.452096077382919E-5,-1.0807942500734484,3.4925258878875125,-2.7886734152141686E-4,4.846068312182615E-4,-5.882634601574459E-4,0.14384971296730625,-0.4356960075979453,0.28280587803487245,0.2367155035498332,-0.22212795965465906,0.10643489930401119,-0.018570747426014438,-0.19378773338604885,0.5548899735384875,0.5548899735384875,0.06604775261756379,1.5648987438393247,0.06613544881449285,-0.5260638287534435,-0.0020379148778774427,-0.3053777734227488,-7.017211412651842E-4,0.69795841255925,-0.5365900660501428,9.118012491812302E-4,4.414333446257541E-4,-1.1724442898399683E-4,7.392115515850136E-4,-5.9868947390937324E-5,-0.0034355106284260223,-4.502507970999617E-5,-0.008688941262476907,-1.1646462532096205E-4,0.44177016369005445,0.5799683188140549,4.0423190323894036E-4,-0.4108030572905329,5.273772696860364E-4,0.9760537031156664,-1.3649645923306808E-4,-9.58743941460427E-4,-0.061212918266401815,0.12349623009341595,-1.4036757175899287E-4,-7.953937001263251E-6,-0.009240943928767014,8.396271608681684E-4,-0.25690168300582505,-0.30029336518270655,9.061200846564275E-4,0.8417634008782907,4.8010243544790933E-4,7.726862229610917E-4,-0.25459089244050725,-1.469571141858683E-4,0.5401746016570694,-6.208493434600768E-4,1.382991820055913E-4,0.2483497906100535,1.6612907924920344E-4,-0.7820448421713997,-4.1511389330872814E-5,-8.330234385266313E-4,-3.4382558721344656E-4,-7.047833549853678E-4,-0.6821150922122491,4.497168873213892E-4,2.5128560907833526E-4,-0.35074473354669516,3.1033947535635646E-7,-2.0902595357850625E-4,-3.9331227227294344E-4,-3.9331227227294344E-4,9.742631812220182E-5,4.046597726277601E-4,7.720222168989784E-4,7.720222168989784E-4,-6.703896310866612E-4,6.717945073909655E-5,4.904462919661824E-8,4.812015464594928E-5,4.812015464594928E-5,4.2961930274180386E-4,0.0667742537013385,-1.4274579718234683E-4,-0.1359025586782749,-0.22347235220734224,-3.051702764285578E-4,0.31247280760460316,-0.8822438734227018,0.2818612714927432,0.8779206220371187,-0.0710504186487571,-0.010316932423305576,-0.11903910225333861,-0.018537670616191076,0.1287474822612806,0.2252846692448341,0.24977266021382113,0.009622535599707216,1.8444100737403837E-4,-3.41033844837052E-4,0.25676651754675867,4.81658568573485E-5,-0.9978487870112238,0.12236070150543576,-7.270336402320345E-4,9.382456242395715E-4,-0.29176437618266615,-0.008023157678955596,-0.06467378667698329,-4.427051961378458E-4,-9.80429369394926E-4,4.245562926175064E-4,-4.7831752492574113E-4,-2.0910695165394112E-4,-6.670790934102094E-4,0.3007155629055125,0.49717428497133115,2.344741752220106E-4,0.29444294762606826,-0.06269205122800944,0.23581412846128352,1.182572725171322,0.730376272720363,-7.309324349928596E-4,-0.003394229910520203,-0.4413444809848027,-0.028000532428363638,-8.642192149972798E-4,-4.5293084186833355E-5,-2.816017701579369E-4,-0.001914746423050774,0.10074358778851422,0.09440842832903901,-0.3280750749931659,-0.16333259409336298,-0.18866035995677619,-0.42339998164760284,-0.3035152616780543,4.3803334406156504E-4,-3.721540151387109E-4,2.028136229269513,-5.671974667080702E-4,7.687728080296544E-4,-2.328395822916007,-1.7135472400814247E-4,-1.0710195916578723E-4,-1.0710195916578723E-4,4.233635720146138E-4,-1.228353903466818,0.1481911802405979,0.10142942578873321,-0.7110458810423668,0.3235427713086312,5.919517862807221E-4,5.919517862807221E-4,-7.183569502919018E-4,0.052958938415316736,7.553596060472351E-4,-6.003899679991082E-4,-6.003899679991082E-4,-6.740131303619547E-4,2.734903288383515E-4,-6.003899679991082E-4,0.165391689041915,-6.609094752806265E-4,-6.402656662458213E-4,-3.32448172398605E-4,-4.1527968616314687E-4,6.276073687695205E-4,-1.3717199701337144E-4,5.412980166606878E-4,4.1895085052649414E-4,8.129834407338397E-4,0.11168924209000294,-4.4385078854714216E-4,2.460916344661462E-4,5.083663404508278E-4,0.037548724317038026,1.9307541829158192E-4,5.083334622981098E-4,-4.5543659294175834E-4,9.735914131497052E-4,0.08645408753788651,-1.2666335329713763,0.5763248913443074,0.5763248913443074,7.762617097843876E-4,-1.5605373149195616E-4,-4.679271366162355E-4,4.3436532938098785E-4,-4.074700562927199E-4,-1.765532504812553E-4,-1.765532504812553E-4,7.8334522979065E-5,-8.573700247159629E-5,-0.28332836637625286,-4.6826591531872646E-4,-8.583838708364246E-5,-9.204826847850863E-4,-0.15441396329296433,9.118910758700934E-4,0.29901433802939537,-1.255483956177055,-2.2862049546550756,-1.3642924191676302,1.997704882919242E-4,2.255655797112912,0.37984150974550984,-0.18015765681726265,8.534003335698427E-4,7.453748536173785E-4,-0.19311507855357868,0.2776101776923588,-0.191143110853498,0.2683191066403214,4.814809420356243E-4,-0.030357364419927552,1.6797449812831983E-4,2.2790721657419376E-4,-0.3492989524020903,-0.37215023855346074,-2.9381614653200606E-5,-0.16377517438975098,4.895469679884058E-4,1.0683081249778446,0.22707703825768757,2.6708886676254625E-4,-1.5877669709551788E-4,-0.32183208626622234,-0.07878233675110856,9.727311992580279E-4,5.462663899788303E-4,0.686373844344004,0.20131828429851034,3.8708450933380766E-4,-0.021141135966425736,4.1608674850419566E-4,0.03261151351930104,-1.5143198109528796E-5,-6.296525385894386E-4,-3.593108360942039E-5,4.106657884746473E-4,-2.7422866550328145E-4,1.3356561437148488E-4,-5.01057309137299E-4,-8.282352846745353E-4,1.9865004162248772,-2.1755838047608713E-4,-5.066484278089028E-4,-0.6045470824745873,-0.05284234376887318,9.287378811479025E-4,-2.7963016499214116E-4,1.497686403504955E-4,-6.453837362640808E-4,3.764411088337284E-4,-6.182547916471085E-4,-4.0274667337919664E-4,0.16556430900370375,-0.0981998476645164,-2.5707588601129705E-4,0.24273187794539042,-5.523790849389588E-4,-8.752765647921126E-4,3.813323224030927E-4,5.14543786179736E-5,7.173407394395663E-4,6.881786811297805E-4,0.09540423114052654,8.513158676581727E-4,1.44163606250039E-4,-0.13503711151335032,-4.157238232813552E-4,4.680610621610441E-4,-3.5134596124469905E-4,2.5243093621299807E-4,0.23822764668861024,0.23822764668861024,-8.598145858976073E-4,-8.598145858976073E-4,3.1043706579720644E-6,2.558704532911214E-4,0.637173717137535,0.031461104493722185,-1.113568791974147E-4,5.314872516707812E-4,5.1658394638072E-5,-0.28972351254258866,2.85215482334901E-4,0.661425494549854,0.6188141375243624,1.251104544342123,-0.11021647543376177,4.46882203530419E-4,-0.20248056273526216,-3.1027610374734465E-5,4.076356380770766E-4,0.030491833699493306,0.19460040099087916,6.670346814950632E-4,-5.739450239634496E-4,-0.47050749506532014,-0.11395504765091517,1.129588236296878,-0.2454622301818432,-0.1101285732880538,-8.85437037120582E-4,-0.2686151614536933,0.5389671116387095,-0.2192883222557769,0.17657766894486726,0.17657766894486726,8.768931696776696E-4,1.5159570206753955E-4,-0.6377359824344304,0.21969837171989415,-3.116071368999024E-4,-6.089612926522196E-5,-0.0011679727605617822,0.03598954415856684,0.03598954415856684,1.562759202988522E-4,-1.3202895094428617E-5,-0.051564072417441764,-0.015096584082233674,-2.5943729897436225E-4,0.49008747248449236,1.9952066768709424,-0.35147878989627046,7.305393684447862E-4,0.25406495101308924,0.29737318445704003,-1.7133757225725121,7.55182230655724E-4,-1.6954931903479051E-4,0.40741958000763046,-0.15120881057570404,-0.016601603738906658,-1.504569939699441E-4,-1.504569939699441E-4,-1.922796268145657E-4,-6.596089603752586E-4,-0.004348798405316874,-0.03716575997181388,-0.38158833053323193,6.810344868759341E-4,1.2047978121571463,0.6135479311401402,-0.3454032146128577,-0.13889135789505827,-2.130265163229057E-4,0.3212193271525909,4.7600045412391325E-4,-7.92691781416693E-4,-5.852468692090903E-4,-7.349263715087035E-4,-1.0716578379470275E-4,4.8485757732040486E-4,0.38101416544477534,0.38101416544477534,-0.20436229498447742,0.4004438844454527,-0.20436229498447742,-0.2893999494252311,-0.05554748905745569,-0.05554748905745569,-9.391760749162515E-4,-4.963075767370858E-4,-0.03453083756150514,-5.698804319571316E-4,-0.23707200512233267,-1.0135982626696205E-4,2.2368405834533294E-4,-0.7502880938507247,-0.7502880938507247,-0.020139739592425408,-0.230364684934532,-0.6988890267749251,0.5801681763769648,0.12394994761246018,0.15279178478254485,-0.05476001181950296,8.36350097936672E-4,-0.48775793388294963,-1.377410257664603E-4,5.026671430266713E-4,-1.3377009722539868,8.584512344068486E-4,0.06207031855780153,-0.1519768047049919,4.373900100555748E-4,0.88579126161646,5.791215635201582E-4,-0.027756006054728225,-0.17409975722610366,-4.433197432935708E-4,-5.946758217516609E-4,2.8183623917819216E-4,-0.2744144602583856,-0.18988486694203388,-2.109434055747939E-4,-0.03170128259942249,-1.1915184709006352E-4,-6.082029526913177E-4,-0.10617001910742911,9.502799055818697E-4,0.11657994360175758,8.757194888196736E-4,8.757194888196736E-4,-0.03731480271756667,-0.21392406471336295,-0.06734785723779901,-0.06734785723779901,0.3278588113781382,-0.34086434366123075,-0.8027073850797243,0.2876023608806795,-0.02395018029573455,-0.1381105062316978,0.6746156913249874,-0.13993091701067614,-8.805638917889504E-5,9.295950841576152E-5,7.279756565290167E-4,2.73114191929421E-4,-4.6746457721304777E-4,-5.826172107334681E-4,0.4176705392238502,4.5222312067589037E-5,-0.010849259603278615,6.419071380526198E-4,7.743198821213272E-4,6.426603612807594E-4,3.739127849755135E-4,5.96844458719463E-4,-7.07892216486945E-4,-0.020822284209746744,-5.098045586887515E-4,-0.8297466356662379,4.8344176257201685E-4,2.1102549385575893,-0.16739378759874046,7.915959739247123E-4,-9.438435020542224E-4,0.03156011430223245,0.14107808185307172,3.789739022073393E-5,4.3594810423772676E-5,-0.2320518123762759,0.24440329269858002,5.110443423049621E-4,-3.242842275247977E-4,-3.242842275247977E-4,-9.170426339996465E-4,1.38092384851849E-4,4.0698260921255605,1.547279518668853,4.984984030870188E-4,-5.905961742543205E-5,-4.6649570432514957E-4,4.71378057492883E-4,-8.050731272372371E-5,-8.355966037741809E-5,2.0224125914911507E-4,-0.002133856299350639,1.2676066093493348E-4,1.4410127695239008,5.36863814500236E-4,0.26472679931285314,-1.5875013215505458,0.33839776179800574,5.920663572054501E-4,2.4803429788156127E-5,-0.4860738847471382,-2.7175436448952854E-4,2.719746201797083E-5,-0.15090882273373865,5.390882147401712E-4,6.614446735061226E-4,0.6126459207610526,0.2892985088463277,-4.559855529424414E-4,-9.802927474531066E-4,-9.193401171944365E-4,-9.193401171944365E-4,2.6390386736791275E-4,7.05140183931117E-4,1.1819696354186185E-4,1.1819696354186185E-4,0.5992618321511849,-0.6020813654532727,-8.739706202042379E-4,5.79091084213406E-4,-0.14457492230435848,-7.508680718028221E-4,-1.503321150880494,0.28817963723138296,0.28854890720416704,1.4720886207228654,-0.18604573557042925,2.000137915898717,2.5140408656352036,-9.24700509783059E-4,-3.147305469293676E-4,-5.458890669527789E-4,9.78816762046617E-4,2.089890909817661E-5,9.30120095828108E-4,-0.10326466088055536,-1.3381063435558018,-0.02194019452752564,-0.041555004496005854,-0.3177636077834041,-0.7480996437105344,0.5491445645153903,6.119018264030818E-4,-0.18479250260583208,0.41335585740630826,0.4379299119053258,-0.08534399981099473,-1.3991946822148205E-4,2.3544435299650336E-4,0.33014724286391495,-0.6281616060623701,-3.227833094427598E-4,-0.2603056658819163,-4.5335314164235375E-4,6.836060748503076E-5,0.6564031680465742,-0.10352157802268369,5.712395497426389E-4,-9.929139408368956E-6,-0.09880758477355983,-0.4546771151622049,1.6320669933990646E-4,8.22789715086488E-4,0.2920277801026142,2.853565289104708E-4,-1.6993147803931702E-4,0.6265850976969936,7.756857501602711E-4,-0.046224823778792945,-3.430060680609142E-4,0.052510286090184724,-1.4535863430414073E-4,-7.370756980070831E-4,-5.539607619246015E-4,-8.149462857712541E-4,-9.044817480833837E-4,1.769404015212724E-4,-3.939151183063379E-4,-3.939151183063379E-4,0.08369405726758272,-5.500595944446414E-4,8.028149091541853E-5,5.924398238357964E-4,-1.0367164779780524,1.67160934753079,9.692587591575335E-4,6.919424654418683E-5,-0.24037944751513635,0.13274341228618977,2.830995729498733E-5,-8.000410588456351E-4,-4.8263534646656586E-5,1.1847161563866048E-4,-7.573265534375068E-4,3.208123085823196E-4,2.1332628568119204E-7,-4.823042818447674E-4,-1.9267192929882837E-4,5.678078259376033E-4,3.798945620000603E-4,-0.47292208062913965,0.33524632621036327,-0.11780242463389147,-0.2510788007097885,0.18194560823098885,-0.9178635248205713,-0.00949702448168072,0.13188037442035777,-3.391241426929205E-4,0.5046611630130303,7.204541970617557E-4,0.3972215705384792,-2.742883235062974E-4,-0.04255293527575777,0.1329893828815158,1.6315942214896874E-4,0.06100719194203408,-0.017212800120096947,-0.4303202043243918,-0.07678426859636198,0.6781468681336317,0.2730203689623895,-0.5827795476471209,-0.5610943545336001,-1.6940927805404044E-4,2.26041403678902E-4,5.193568672783792E-5,0.009725687000220447,-1.3072831141609786E-4,5.962447948593154E-4,-0.017249682087463074,3.675888851281102E-4,-6.554499622582191E-4,-2.2158980846848292E-4,-0.21709069710799614,5.294367688113033E-4,-3.841996273642495E-4,0.32948152785422796,-0.08203427462673975,0.018570016439695303,-2.2705483889212642E-4,-0.012258378384462101,-0.21222910454722396,0.09530596596501366,-8.324929031746804E-4,3.5698970088952117E-4,6.51011193958927E-4,-1.2073252214702026,-5.673438890411529E-4,-7.824645265667172E-4,2.9876060322497574E-4,-0.2657523205021041,2.1641954062394993E-4,-0.9776318711416302,9.476926532502451E-4,0.6835212160069878,0.9031333342915,-0.06484778233379682,-0.7163110062557566,5.993590518016195E-4,-6.719483922800731E-4,-7.491194343245678E-4,-5.502177970431369E-4,-9.398849850713285E-5,8.208599846648071E-4,-0.006656246091433305,-4.8148378994889194E-4,-2.0204104052500785E-5,-0.001371114211038096,-0.22325451647227218,1.1402004446392424E-4,6.639554303971057E-4,5.392719021923625E-5,0.3284981080779837,5.4350233320173504E-5,9.91026109587734E-4,-3.9133242828885E-4,-2.4896563839228096E-4,7.383258340128284E-4,0.10189114453219429,0.3769726561675741,-4.67362526548331E-4,8.982206133173137E-4,5.8308210002604687E-5,3.090547992248118E-4,2.298514299148974E-5,-7.690796932403533E-4,0.24795218842100752,2.1785236835937885E-4,-0.48699761200169495,6.24195062593424E-4,0.15490918987662608,-0.9116588702805125,-2.9655176752657608E-5,-0.03940336380805888,-0.17715321062517966,6.313215039186867E-4,5.842725153017815E-4,2.3052882976046848E-4,-5.636641747005047E-5,-5.06732262789912E-4,-0.09537091506538473,-0.04975147714139991,-1.461958539492891,0.13251121264799332,-3.9058831348897846E-4,0.08792708390246137,-5.259689302104884E-4,1.9035549926932544E-4,2.849869605536853E-4,-6.568068504763074E-4,-5.74809054118072E-4,7.112024482355632E-5,6.075957198639818E-4,-9.030061796447622E-5,0.0024096556115186015,2.46227541051399,-0.20322817664562334,0.26632017029135086,-1.6156936134886757E-4,-3.8379878689433927E-4,-7.135663692199166E-4,-8.041382894987043E-5,9.579323161634913E-4,-0.1776314871571489,-3.3865754923650764E-4,-0.18732709751150012,0.24202114166521885,0.4583826619224766,9.1089044378493E-5,7.321132467897639E-4,-7.349902223619293E-4,0.09735562408102863,0.12319949514947899,-0.5492488086914371,4.241414182301458E-4,8.213802102543836E-4,-2.248984899592012E-4,-2.6081559341205665E-4,3.718494437344143E-8,7.028425304601003E-4,0.5532989833241068,0.0049020181567386995,2.098780688518289E-4,1.2710099841093953E-4,-6.328439245570552E-4,-4.1712074202678246E-4,5.954667053132204E-6,-4.991197248358824E-4,1.1000771872214004E-4,2.6637731425696847E-6,-0.18849708601433035,4.492515365386551E-4,4.8127526735577313E-4,-0.021156017555159615,-8.614933321868983E-5,-9.261898486729979E-4,9.263588623486484E-4,2.794614415650861E-4,-0.09246959088768138,9.436012918890787E-4,-0.42319565123192704,-1.556920922472294E-4,2.4863043609390026E-4,-4.848301992558562E-4,9.326868980844408E-4,-9.270797187854586E-4,0.24100993331743797,0.183600351408782,0.5078901812255014,3.6109454224874445E-4,-6.292152910114448E-6,-2.628716768253924E-5,-6.026448203431424E-5,7.773349509649502E-10,-2.9269109379186E-5,0.3580663324291459,-2.3900004099611986E-4,-0.027209439639318236,2.024456989389732E-4,3.6852053034214694E-4,-7.299027645831634E-4,7.191396472609336E-4,-7.580856913439672E-4,4.983140068419852E-4,0.03536122559195881,0.16289851942121697,-0.021684167785978092,-6.367018245355007E-4,0.09919272088932646,-0.21534767602330576,-9.889472281337573E-4,5.576431789756544E-4,-5.593733942179439E-4,1.1619397549749821E-4,0.277894552312958,5.115720410176078E-4,0.20871833072822985,0.14306026461693144,0.14405820877823572,0.9870874553583586,-0.024041049695333685,-0.024041049695333685,6.758476581823765E-4,-6.271221831205559E-4,1.6592208820502292E-5,0.11110012462177139,0.11110012462177139,-2.187345074447292E-4,-2.4289367129939736E-4,9.583179716556767E-4,5.565710624994206E-4,-0.9177028708713677,-0.18974290414519163,-1.0356711382533104E-4,5.068636316787061E-4,3.832889924441097E-4,-5.213604525673471E-4,3.174143527856553E-4,-8.440215884190568E-4,0.1736048637624203,0.14769278348810128,0.14769278348810128,-0.18660062909411124,-0.18660062909411124,1.2590025580558762E-5,1.2590025580558762E-5,5.860625048625904E-4,5.860625048625904E-4,6.593649678746766E-4,6.593649678746766E-4,8.062266576500099E-4,8.062266576500099E-4,0.32924601372927564,0.16474309735765258,0.1719295694716254,-0.19878160091449756,-4.134436762825907E-5,0.061911017748622586,-0.008392826788515675,-0.4781586367317324,0.33715562384873127,0.00839282678851564,-0.36587768733911114,0.21719082441301735,-0.4066841791249475,-0.25558059088830065,0.6993658570397222,-0.7465919620087077,0.40668417912494725,-0.42328974860156193,-0.5878221570159177,-0.26601211872224884,0.45498198635996157,0.4371271813197986,0.7372246357870069,0.8177926238266819,-0.18010020318559677,-0.441829259750734,0.12789864720035551,0.8023864828131695,0.22167944208784898,-0.7855018485554632,0.18010020318559666,0.4520208083545332,-0.011587743970706998,0.22415598627567238,0.39645339485516234,0.3781019771090594,0.32881152138619735,0.39274150453288054,-0.35814098270357364,-0.08429846604712507,0.11628711151400639,0.11628711151400639,-0.24138727127410478,-0.4300811285299804,0.018988571747064753,-0.1631234380299775,-0.06689202425174874,0.22924175214716447,-0.4275623191142835,-0.1918805803784353,-0.2601220954525051,-0.01961007441638227,-0.0031689149265641007,-0.04355452984151946,-0.147050119818573,-0.09919737100817594,-0.08488638484189968,-0.09918764463727617,-0.3890180246340918,0.16806399333009167,-0.21782402404966061,-0.552400798849835,0.6030221669887149,0.6030221669887149,1.0408917722550874,0.43008112852998054,-0.2054819418759622,2.201232190037556,-0.05330634792821844,-0.16531563885689987,-0.16531563885689987,0.14287442151404295,-0.35864834021348563,-0.487204811413526,0.3846870777123518,-1.4583936311515593,0.2773903351142792,-0.487732264202806,-0.4818427885709563,0.6562909875911994,-0.12452246460408121,0.026171078824165236,0.40105796440589037,0.49232846549752934,0.07883356280146148,-0.1587442285244614,-0.09255772881926827,-0.09255772881926827,-0.2629907973267859,-0.1563630749843851,0.5228549243785431,-0.8646565306016218,-0.1587442285244614,-0.1587442285244614,-0.6080255227281536,-1.5064549591364105,9.95764181403702E-4,-0.007794002512659114,-0.011657653878037508,-0.8612558954726162,-0.7019095025161929,-0.062189080338203154,-1.231692452040873E-4,-1.146143828153436,-7.29499620565188E-4,-7.29499620565188E-4,0.14488663596905602,-5.219495676060432E-4,1.892453301945154E-4,0.15990457724559612,-0.4818084048721545,-9.203204697637399E-4,-9.203204697637399E-4,-9.203204697637399E-4,1.2817413592371726E-4,8.305714633986257E-4,-0.923910679447826,0.11221158434844966,0.14828688500918055,0.0746940740874987,-0.05477163126130206,3.8744148995846603E-4,3.6290676304810286E-4,0.007313065761557783,-0.016335081353463482,-0.05315601168281645,0.07542011080737882,-0.004421507456681931,0.6600125934043555,